function [y1] = myNeuralNetworkFunction(x1)
%MYNEURALNETWORKFUNCTION neural network simulation function.
%
% Auto-generated by MATLAB, 02-Mar-2021 11:13:03.
%
% [y1] = myNeuralNetworkFunction(x1) takes these arguments:
%   x = 5xQ matrix, input #1
% and returns:
%   y = 2500xQ matrix, output #1
% where Q is the number of samples.

%#ok<*RPMT0>

% ===== NEURAL NETWORK CONSTANTS =====

% Input 1
x1_step1.keep = [2 3 5];
x1_step2.xoffset = [3.25e-14;0.089309769;2.48e-05];
x1_step2.gain = [6220839813374.81;8.3638775869902;30120.4819277108];
x1_step2.ymin = -1;

% Layer 1
b1 = [-4.3851507492970904778;2.708925500428935873;-0.72162841790246667895;-0.37773343893472649535;0.50197745294370677005;0.15249393115007783828;-8.4294402716758511929;0.087524440280694157379;-2.2373301228525619422;3.1523577594394400769];
IW1_1 = [0.71395812386338264321 -0.75597941844582383641 -0.18632269635612799807;1.5574047568504301164 1.3897018038897142045 -1.6101672213701347935;-0.34533015500360625394 0.90519784721575402564 -0.73957008466778539901;-0.11003365071686715959 1.3343626842755100803 -1.270113694652914571;0.14875150249143528902 0.3418720493657593229 -0.42789899211939808055;0.061229936865771050769 -2.0053811907166192441 1.9853136938765743036;3.3188791763733109796 2.167219415761255874 -1.7982340197573154494;0.030868285670754110755 -0.057199525037675662265 0.019277631821131870765;-1.8939157515791980035 -0.74178863896451341375 1.2174479280309182805;3.017443667367204263 -1.7525007845517344141 1.1691459623843794002];

% Layer 2
b2 = [0.74421380220674693273;-0.5148799368242081842;0.71996613712725621159;0.070849354935142591638;-0.5871354518401842304;-0.55102983208396338899;-0.21612004362588796424;0.74623718188617460534;0.81083770318315706582;-0.60576895091900062607;0.46672921403810707641;-0.92972795008970021691;0.86614215213480361122;0.95542607294539205753;0.091142858700467246913;0.52446124822871542648;0.170709555646812422;0.22772713044152900763;0.50726700829732795928;-0.70268210845687595345;-0.56212779687034253318;0.85771220465582520553;-0.45886587550863383589;0.82670945928817884951;-0.58965438431904437788;0.91778653172617574718;0.6005697183701580455;-0.20483989567990656955;0.72698659191652115208;-0.62341829849921459594;-0.60028743707189857748;-0.49138810831699941684;-0.86183134793138505003;-0.32468761987254485257;0.32638114248876698431;0.72918922095189719901;0.013979597180685544508;-0.20013382387369171855;-0.55085240749496067192;-0.52752494546565364963;0.50427599201308737076;-0.68896710561336338419;0.031038750763532362703;-0.80506650174622251814;-0.38424919896718595647;0.045232473047659663146;-0.040443265936045906528;-0.99712102951788861294;-0.65469054862784425985;-0.88386153953780510761;0.62980323544507932354;0.73306337962243628414;-0.20974185036495612833;0.57815251251460164639;0.29337861765907202738;-0.70948917545366618764;0.76075658353013175805;-0.61328755560501235777;-0.86176215520893462152;0.3185167515846084596;0.81642892682354251122;-0.80164647281775225363;0.42340608475158575397;0.085404529685730312671;-0.97898947458716001346;0.80190550730795517875;-0.064700393165904104831;-0.38648263670454896523;-0.1054358663056851747;-0.44871307234825819066;-0.30184210466960931241;-0.34496222791639435945;0.27370503651679101154;0.42728430546710949312;0.47852605384129243138;-0.56517926776507387832;0.7369598566888295732;-0.70863198898235180145;0.52002082714614361603;0.50892368432680945567;-0.29938959250333574413;-1.0157717636621750312;0.072084068555905517206;-0.43727721901537985882;-0.56467011396886979124;-0.69976442272422600954;0.60981721820021483893;0.20602972654580650747;0.11008592218860760448;-0.56391572884172358471;-0.38383781488451873543;0.23622424364964023091;-0.46109665814819267293;-0.10590562606309437965;-0.37231479751476098672;-0.17724953584923869299;0.35675848041922936238;0.18372601004271477132;0.2890011187925540237;0.58558753372791283454;0.32117570349149582309;0.243389828846013484;0.3583635683661011706;0.66021676130944484395;0.72402302043782662544;-0.72356341896379616774;0.78381071378372879632;-0.73720296115814876181;0.01954456403645859694;-0.78587227190203612359;-0.039420613972944086589;-0.63755534776879163594;0.15056048406630198611;0.1862947615333833129;-0.78986282271175400904;0.1089723139332617885;-0.1615990179666333959;-0.62233057050253792752;0.075922897834224539748;0.16008194590762755971;-0.22153975234712722231;-0.094401427870524717845;-0.1503798325789999224;-0.16504897165299961537;-0.39958102280379992344;-0.93768971862968375497;-0.56955441903622605615;0.93433036200931485205;-0.58219608926507937507;0.42848688804335061109;-0.243012641532585838;0.35962552190595348245;-0.81285620882412124022;-0.36076475358920823133;-0.76467281300077416528;-0.07123867547256282351;0.044029746863843866045;-0.65847509617817445715;0.43619585000749383497;-0.06104582818130298294;0.61387134964382383817;0.47043088816043143741;0.39239947339608305388;0.46361545609243864918;0.39017640062616271157;0.33294568253127176938;-0.20744321572313839663;0.4950183441133112483;0.064451268920478033131;0.98407860598703977839;-0.27002817172393861478;0.5983584478738401824;-0.61386386537719661582;-0.37353986203800892962;0.52557089581354243801;-0.99631943050662896688;0.01790795947552908593;-0.355610388865291005;-0.77486460352602493096;-0.48048597971635215176;-0.82621489362184585836;-0.61182986657244153861;0.67309722539065108826;0.7059779456099906092;-0.4689252312036799597;-0.15068223802938804368;-0.043027502157253628978;-0.79313815163246703666;-0.98397969638973414863;0.56531901436157905305;0.041246312020203464155;-0.67136654520608785024;-0.75908158027981653682;0.1755673730392706966;0.52571105268846740621;-0.17366846393413559735;0.45688555223564442098;0.25879348745138469612;-0.38871515332713718616;-0.024771199673106356065;-1.0899245540475164251;-0.037792151151168476564;0.48499586180008746883;0.4112754134181524357;0.15686044638266755102;-0.31015292939496058588;-0.012358971458475323524;-0.71263676304460987776;0.70917820611867221636;0.48760009313424346189;0.80987710996710038369;-0.20950217110073385274;-0.65067392106016253006;-0.88179108188998733819;0.60848545886698179874;-0.22055741569429623827;-0.4530058054371215448;-0.97696936828919345164;0.45709339888870664792;-0.063943714401141979464;-0.17792092973337136907;0.46470469572776895717;-0.66090259754306845963;0.17853400926587620345;-0.59465223707255543406;0.0025797180777859698812;0.46927235951492068944;0.10266489101569443998;0.51687649412447278507;-1.1048424236329434933;0.1923590959080217766;0.71110995322176939748;0.28569116320138021603;-0.79066309975737236737;0.82484126728761297809;-0.14922487879912343933;-1.3305787247094311709;0.45401918576158151186;0.40888171669792694463;-0.5517437699675131757;-0.43962416360933787018;-0.44894342598677139389;-0.068980225867839889409;-0.11371216086758365038;-0.45988087185201587115;0.25752970950411552264;-0.16805973726257630863;0.25138565179740390843;-0.15513027373583981872;0.13482028853425623294;-0.26147363171980603225;-0.051628050454332892472;-1.2204969139663575106;-0.58881633336746552754;-1.3332778762858013;-0.37264374267787264694;-0.064750127424000047949;-0.17953027205458135795;-0.22561465669736943673;-1.2784433286797969309;-0.32582178677795642363;-0.14084446153045768191;0.10988510399616691071;-0.60858299912319613334;0.17928511583315243083;-0.37408044116181915495;0.17366974158855363886;0.30999372537357183788;-0.29094364045884063552;0.376175780977743901;0.95489223052817595594;0.60034929639395018253;0.75654517943057852936;0.039208306216175582704;0.70894261546780334982;-0.54325022913183251827;0.77008358282918498716;-0.18450945224304002301;-0.015763750085382693955;-0.53278507595230273353;-0.55080107133361522198;0.10083047632251306014;-0.27058919995062935548;0.397453054911985737;0.58399207428634580808;0.46083718229691583712;0.29519106970644082288;-0.24757659054070541016;0.0011587205570888028418;0.064458765454085034663;0.41268246753879700428;-0.35149916792123692133;-0.1712171955015448499;-0.074968641586315276637;0.13176016318163635832;0.29186748967320857995;0.17423303019740868369;-0.48134711966649473824;0.36085092276358249341;-0.22785551180294266738;-0.2317787829163069635;-0.58780986724121975229;0.419504716871171357;-0.5977675505608851525;-0.28293030849799949422;0.025408735068314203254;0.11139604136287062364;0.76231526743117317135;0.23010885302972905464;0.017407235373524898581;0.2856888370921996656;-0.64045943224026669061;-1.1391785652251333882;0.16141059095433635262;-0.89834665293408355602;-0.33992940739037424969;-0.40868756986302673395;-0.57624298713135913008;-0.32653750297407457825;-0.89890220152832556177;-0.28299189451235440274;0.30080880080781119412;-0.11336791268560075796;0.19095068687054203571;-0.3544490012197517026;-1.1136132654221055915;0.4258101044458701967;-0.47934066846689254993;-1.1332497464891890804;0.068048474403519007558;-0.13882317236225738544;-0.12579717711832730243;-0.45387375767861520837;-0.29064877048252968361;0.18278358167617581032;-0.33531002849902008522;-0.48319146473029939148;0.78114836695149947321;0.4847572928878006171;-0.14213711494582753625;0.67198965679735722656;0.28444469247798115363;-0.19175126994306523898;-0.75713178617327880904;-0.25966069569431099451;-0.1628612157248581771;-0.6066827354232613434;-0.89256502804944726215;0.44443443152441552968;-0.013538790580977474662;0.61248201649447442385;1.0901262794421677782;-0.2993073136882360985;0.15886308128402734652;0.64166619760825260865;0.030282143163949473003;-0.21871959330125295695;0.99594481390281042188;-0.40548901013043803232;-0.069378323788169868336;0.027938135167958854516;0.62188783876160425024;-0.16891187410629321386;-0.061885027564024343294;-0.76299048058580620779;-0.30527550667048741762;-0.24094713568502187928;-0.60170101116032759236;-0.60520672407912445845;0.16714088249499137184;0.14734038706487340153;0.72315908506998938243;0.48739434353361982266;0.29344405604443124513;-0.70291122714716536279;-0.46330258292530002162;0.04335135423468917254;0.40448564460255598263;0.19347046874607920497;0.11020359482053758426;-0.70513410903644202499;-0.36000392051345841971;-1.1221821693594591363;-0.28603422658448973692;-0.27355497262045885831;0.27265557723284150615;0.21695000641431633204;0.25463252618158005447;0.24078883447257307115;0.053645588702941990333;0.57243005736033403252;-0.71620552217258992567;0.31700521744988574557;0.41801636984562540178;0.52834977663049298435;0.081556312343860390413;-0.89250089419125056001;0.60337196818439053914;-0.14331263692462795079;-0.7018720516609209259;-1.1061417400247508525;0.11614077483368213939;-0.64058363998841671982;-0.53839955693987007201;-0.90073551919577621305;0.19971890807628944753;0.048540149511703059582;-1.0126864252132727895;0.21031380520023726377;-0.33947113532400158276;0.28492889891584638473;-0.03935556031343106359;0.35896617438766953434;0.50217808934711238855;-0.38550897494436187074;0.23711530063381222599;0.78562491621489705107;-0.09129064583424384427;0.27212019279296839613;0.097715312225383113565;0.77354020334954609606;-1.0079441755232172451;-0.93412383601076964812;-0.37200070830644565989;0.3688853322120619338;-0.76431431186677190048;-0.65234342786022558869;-1.4534539992391837249;-0.3654551987927808776;-0.55039658671118907307;0.86225887445200366521;0.42014006997278768862;-0.85587045557345164948;-0.21794059665040829699;-0.56742433659972979498;-0.45950374443976749195;0.5909691719882351757;-0.9533035944622254565;-0.057415855954917500992;0.083005975441690013628;-0.35070601745804413918;0.21370380997115867583;0.14641137443885754443;0.12710580878093880042;-0.01655755131405593078;0.39404055893160400137;0.10903031952748017119;0.75797342132368517031;0.12243111305293905011;-0.25504920733993646786;0.30446354560742844297;-0.65439518702411236806;-0.77723908600034585792;-0.56731289824677710865;0.79332937269839698402;-0.58708773459216390123;-0.12484576054928547828;-0.66086281205968055996;0.19429986201924656641;0.13990546487139246534;-1.2895275107276160664;0.27793030912391075704;-0.63665766487737263102;-0.56418082461981888809;0.083978994159289652166;-0.84155397586441860192;0.013382060588376072999;-0.10723151352365951905;0.49152765908937634531;0.81110201048410923708;-0.39212253006913405651;0.5085382226740713385;-0.65236843532504151799;-0.49535553925558839516;0.49861794493094907521;0.19222824403057456322;0.32900858137009564297;0.12264023605864064759;-0.43968062181532874266;-0.86184617538935126557;0.085580811619984556438;-0.12805445252034339254;0.33624555081827739444;-0.20295888911408613287;-0.052952394711119593618;-0.31657434187832433903;0.37707298845885584004;-0.22870803937314149179;-0.013771827320732170363;-0.70920747223214242183;-0.30446545578357991912;-0.38308908519732332021;-0.46482321519416941458;0.46897008232642600767;0.15270722478561019053;0.6951262344842004115;0.85869382890877510306;0.6107935852136792132;0.29833093426672002701;0.71315235488528505581;0.33467419211651938671;-0.17761443524156181328;-0.09230275117154243536;0.3826016257985418445;-0.71126938047202814541;-0.95464410196292526223;-0.69919482097505747387;-0.50919523865953986164;-0.022001666637095920742;0.4111690179074986573;-0.86965515169443974308;0.82867439786658581014;0.19102354962143036632;-1.1183042985585431861;0.53758175083516945847;-1.2077132198260258633;-0.93296643878027496477;-0.57296467704194542492;0.98192681012631011228;-0.31715284983279440345;-0.59237078232453832527;-0.59590062573304880544;0.090654735858187937558;0.48848647317559568126;-0.16552123855907255323;-0.41303020991682171115;-0.29391912331202324493;0.47658223918857134382;0.079260408493868020341;-0.14172172522825246532;0.63769759679563353671;-0.26961218100682943222;-0.25177007250281013828;0.2304710811227247691;0.066576653955277204089;-0.21026354790528489769;-0.19536284658041999651;-0.44588171533106157884;0.36974782481023160674;0.12924042162697177427;0.20140865566711349532;0.53356910136292967639;0.23694450841161582288;0.050590065711330040044;-0.385498769826054688;-0.48995670671840979571;0.099837482437770880273;0.15860944857915457162;0.50023964075573168486;-0.90132511673015203169;0.023910488377091646678;0.28425322074389114402;0.36253506761187864749;-0.052534464927605391271;0.32694283633777665443;0.64421734276463782365;0.73109759045068567485;0.28940972807146020385;-0.96298315596743444544;-0.89934383489701930081;-0.40249446699606661326;-0.33988558071287666706;0.5985884485154868706;0.40767374942349954292;0.2230235467144330852;0.62458601166465987919;0.46394854060884982427;-0.92882658116916638757;0.088996639313800154913;0.33530431697678614311;0.87994631749229146322;-0.96117252017524046348;0.051400777265968589091;-0.26275839546605067598;0.54903035404921196605;-0.79275629157712512729;0.18219543913899971521;0.75855999859285128117;-0.43956867049135128767;0.46305862775860323621;-0.24436214896479041547;-0.44489735499691768217;0.065552179685386083308;0.4357312744667994342;-0.5535567218946780832;0.90898354932889413593;0.14254442259529093162;0.4205982937051146453;-0.90811322430422203311;-0.20786432542922034239;-0.77420288703895623339;-0.14915157019688754514;0.31514929668474062074;0.09729680097405946082;0.48483504108873853866;0.66867216771130433273;-0.081533600898049132799;0.13433847391944353511;-0.62022426307653832911;1.0272182767582780372;-0.16328223085840931628;0.20070871937806805674;0.79962661973771520518;-0.041681448001144948134;-1.0229394277068621921;0.25372569784949983163;-0.5217016181035569744;0.47262425233847676909;-0.25109220784810026839;-0.033029287856091688047;-0.9550746239634401169;-0.29916717935076275747;-0.45729580756494986327;0.28714046499369250132;0.46136196168175536148;-0.6650840195744298633;-0.70842931785288032476;-0.7404749808431718705;0.79228033138315789863;0.078165484692710174297;0.38187310475591373926;0.58147777128782585088;0.814135975102364573;0.21384316990966986682;0.51668606598715227651;0.40145883785740382743;0.18929459721806696226;0.79405268995917754893;0.61201073097239011567;-0.40050204354025653597;0.14226030971431496974;-0.84362457516220845655;-0.57411212041719861254;-0.37768547447619815749;0.45188389020587338418;0.077345394124407232384;-0.53615056840579333741;0.58911709520660260342;-0.96134393830067987885;-0.58155641545964131822;-0.36268184708193396126;-0.93162114860305345054;0.0058458217195675342068;-0.03746953767976618499;-0.04355572222782654046;0.29132333739367000103;0.59323359807469433491;-0.5189986818534644275;-0.32105125355502606155;0.55296547405880214221;0.14771404914408170495;-0.40206570832910570878;0.749175380657092993;-0.10001873849146476758;-0.11367029863924879574;-0.0099862781914543466422;0.23786778644504558144;-0.91423319130955116307;-0.12678173854426233458;0.05149553185327854915;0.16291169731986454572;-0.26084028362373623544;0.91798345270377945671;-0.87612495670395329483;-0.082101170110096807764;-0.50359591286896332463;-0.53158950801819149223;0.49825427431759988783;0.12990188216582179703;0.34681475964392610711;-0.19301377015999962583;-0.068552531349020451312;-0.022957675093645026065;-0.38569559116239543473;-0.76597855991442931334;-0.74216721273332575404;-0.39610469925922664469;-0.0043948836949134588437;-0.84780564857227957987;-0.47587191138506274024;-0.44703151784399097757;0.3707544009275607344;-0.30255096136956360908;0.070480750926943225299;-0.24329532924996744025;-0.051866264114560169107;-0.50232977739458439803;-0.81396765701107298696;-0.019502261588237684159;0.58406631369317563163;-0.51286641709356317609;-0.83128002563621561372;-0.18368002074168882087;0.44061735800275120267;0.42291656463392440779;-0.25886365750423356857;0.37517904140252916756;0.11861159664867938768;-0.19680532435797298829;0.1336404905623561068;-0.29317023149213561339;0.20260798111986419445;-0.90593768154354681332;-0.35604602901941700965;0.43006200176654219014;-0.5463889831908698147;-0.93210501671858869699;0.49038287852478240625;-0.86942072797208702628;0.071704391567336323021;0.20419210442133498007;-0.825010747902517938;-0.50953092846063363641;0.99646310237999147219;-0.23941433834682604442;0.070514084941215318669;0.56635911313395392863;0.21566804852191906461;0.5202643424897347435;-0.63650846819397566279;0.54722467164142341023;-0.20142329954130822056;0.33258929829440503356;0.51221308572607848753;-0.53298563329026704682;0.31266341808544190206;-0.5792182530271450247;-0.59110108030014918423;0.58210233563048863203;-0.60171829365922036015;-0.6359968131087118115;0.092970312543158364904;-0.063844919298898961113;-0.33870900908355139336;-0.57724409405254550887;0.4233312169234295097;-0.35194424613872643537;-0.0084709572808545838263;0.11989874609830442065;0.58651873470763338236;0.68606525780430460681;-0.16648378580158168516;0.53791877965298384723;0.17841616627749032342;-0.092641104655893855013;0.6403263204981131107;0.015381604695174104155;0.36610487607845115798;0.32388749703611385833;0.58831678987123969815;-0.4223753561306837212;0.35354175467972925873;-0.23323661531692271853;-0.74171430609190347472;-0.80845673887582314432;-0.42617756650740995505;0.1368536037920021764;0.44111938842017400786;0.47118586928608752196;-0.8102353884216807467;0.64416489140262556123;0.4207049876121630172;0.25207175858391756007;-0.55670488210288826547;-0.85216650004719340927;0.68751752406499622161;0.20749429778450548256;0.29857743361926897263;0.53466038061161280659;-0.12776420595996765273;0.32914782345125859209;-0.79968495590765098502;-0.033275994516736989715;-0.00089401320299493198737;0.28489755658788418202;-0.5783225820302039244;-0.12688093088874807801;-0.33590287832257686995;0.11491316831755106487;-0.65299821494489096452;0.13080839869923466257;0.60631045935532346114;0.59513488092680988384;0.26159172140219821845;-0.73187944112223779491;0.90559943200740400382;0.46498181921047815335;-0.20587197236884816065;-0.84121540311529641176;0.98272154440977943501;0.48156682396631622645;0.60664441109077860137;0.049536802668464427479;0.41204655011535418208;0.31858870747561124359;-0.32572820522659529097;1.1047064864581241928;0.6841510667938811574;0.60538536295757450212;-0.23240600915019782313;0.1071113722207271135;0.27178975995628429363;0.20635559735525876857;-0.077682000360976333209;0.76510050775572580051;0.56873248424529865286;-0.23846149339600999917;0.27448865500647706694;-0.024054155498378103351;0.79382817057253218795;-0.47573289447920891204;0.60373905548437900581;0.028660431278441395042;-0.5271124972701030087;-0.4961440929429520863;0.32531448077957769716;-0.51065322519241296284;-0.48682352249029348101;0.4551394088486799272;0.53885819628671671744;0.96676032944519496581;0.42972666999810110733;0.022474633084796594162;-0.23625183010451025756;0.1726814179085661427;0.37359909636039617675;0.6996594602873212887;-0.31705640902016085647;-0.68887165479815326563;-1.0241420429621435062;-0.60524444518067654908;-0.44709149173893664164;-0.27253914665901135539;-0.085611849889414545767;0.4097500680194415823;0.15226408771756327898;0.14854775234017356111;-0.55843362633341231405;0.14895262737714917711;0.93002745565046995857;-0.26004159706259699636;-0.14306834169366361431;-0.22328604144577776647;-0.014936423419979964755;-0.7095040421292344579;-0.85300403180470552034;-0.82398790031452628924;0.26511902693149880239;-0.12466609016981533564;-0.33710109604364024705;0.068110417978933107674;-0.36136260655974083988;0.77893471820679727191;-0.18324294627353426845;-0.71013698909494449296;0.39678523815816446607;0.14553625615658527526;0.18678478987420385482;-0.33904413061636834437;-0.20522692578054707591;-0.52086843062152476946;-0.3102972025754571761;-0.035652342066318953862;-0.22643359150257341694;-0.65698883866600488179;0.065579543035563320208;0.74272974220988874361;0.20396841533983839367;-0.0078771855070184672309;-0.66460913064009607965;-0.38085136339350994517;0.44975963648752131929;-0.50487191116837681903;0.51396091885878103511;-0.83917873323196379154;-0.18481453367130024068;-0.20696866276510497706;0.81948094554976114168;0.058858593239114090356;-0.48282401539432234783;-0.27199749733560191212;0.56486622913569939364;0.53987089289265988157;-0.50272958089678509985;-0.065592892262631471989;0.2100598958169195285;-0.81031511920312859765;-0.068274330587900916578;-0.12441986996745225957;0.13885428735707960879;0.076945425185778432153;0.31745006629287392252;0.0047821945964321814493;0.18209276998655382629;0.083036892657431748965;0.23923151176033197185;-0.18073908736141638953;-0.41622775118601429423;0.2106232154565979009;-0.73764243733485368448;0.33524264245265344986;0.28335050151440138722;-0.20211036308254134997;0.60070091247959711556;0.13001277364786534285;-0.64707680629952224471;0.034008288961112395632;0.43801007975579925313;0.21891193062489663901;0.28168715001354066585;0.71188978998334617732;0.10950904418747990643;0.27590225214742908344;0.55752464990558492364;0.27113766972908714958;0.31989891819878207846;0.59531849209398568501;-0.91956790777098496026;-0.61026600662153229759;-0.92250170450693202984;0.54096174902458793454;0.30623155187499451202;0.37976372190435397913;-0.63454003446117845932;0.38888692821111259246;0.0062747633943482858387;0.53009462490546011004;-0.40933323618706418667;0.34772824867043927721;0.36998667865748374739;-0.10137652562837243253;-0.30035899210444488849;0.80182628312373993573;0.49855548388429343776;0.35901569780247860608;0.17981363809510894636;-0.52018559268833708398;0.22711053814397338946;0.4748595565208836855;0.098160611592202795528;-0.07915965008561337557;0.049097690158402394756;0.14741484361448853324;0.23319130649554770107;0.60553151034410890308;0.92594392511743428553;0.46787647418720623715;0.514761793272462298;0.17784071229257286673;-0.0064866998096236427179;0.018302910408119963531;0.12113708046322227418;0.2807794965438965562;0.27974482759835789247;-0.42161040545022809845;-0.27206554511521052753;-0.36626241340633308718;0.41303425156654255401;-0.64756589461426861121;-0.62625047518065934948;-0.24082385800686859079;0.71375843940913863417;-0.40257472299852636866;-0.79737517548392888855;-0.35863583401655080296;-0.57637677980240797915;0.5527836356387377803;0.93927196883916519443;-0.88622703121769508261;-0.29499138471642721848;-0.22960252084665261352;-0.23393689782863491544;-0.45560165665255852874;0.069650771335386690852;0.51180071692749629086;-0.020368231114479499327;0.32487698388827812579;-0.81282857629370242059;0.24624005890877673219;0.0142807462770386355;-0.73474935957770404205;-0.067438469020894745154;-1.0455270805675427326;-0.20869798748674314726;-0.41242194758749112227;0.16267693098048310874;0.32782891499085464737;-0.01712958952817301983;0.023045205084170412857;0.042741007951116266605;1.0079341435734423538;0.47755759996731050876;0.5216976731525915234;-0.37904819281812351939;-0.032327476411474459494;0.51476400054322912769;0.07956416129059508402;0.24145216978876973823;0.22598778042767828089;-0.071778932632425129778;0.5187742215361603737;-0.44829788169525031094;0.75972238547546844245;0.80140624617017708342;0.26791725347232675514;0.80595674744683720725;0.13522866680715558974;0.15901006933603972771;-0.45825583797066926639;-0.8072707771024137946;-0.66952731499546669358;0.67444272198082733105;0.010807020373493052973;0.98643078651143245583;-0.0040290571569399869986;-0.0012230132161498877101;-0.083541431636966145824;-0.73251952217332494399;0.78279922897118514591;-0.68377416730835161029;0.68422493846313925392;-0.058165247318497724505;-0.23134962478771398109;-0.57713413374659183752;-0.19550986305780149177;-0.71267824296785098337;0.023128770376467891468;0.41189468735797085674;0.92943394717592764387;-0.71855775899247731342;0.20849777494683319201;0.40823525715647179801;0.49099340057420004513;0.47073104292925710412;-0.32474622090264859686;0.17338710677461732779;0.91874337663272920285;0.20069821049512381883;0.43104898499982041704;0.77679384326349709688;-0.067025067148624009605;-0.35363939240952446674;-0.025002187699136337734;0.56534785903981099597;-0.18784618935797248174;0.09168861543661008251;-0.34440894493642371099;0.020751852261840519204;0.34278184381930265623;0.9684459636676883143;0.0018729757299788397755;0.15533990403874928243;-0.38691678740681872961;0.53345113824296941374;0.48776300303363173683;-0.55404782026097632031;0.37042154269626453855;-0.45451222254105877463;-0.20152762327713300006;-1.0567540687259930898;0.23569921936958423969;-0.8093369144341838739;0.49952019880979198208;0.27629304749919908479;-0.82665947616784829499;0.56333275636353608018;-0.44495137006185259132;0.25637918067122239529;0.64270633797692799938;0.44700938125251143962;-0.12473235219095681059;0.73844167965143214793;0.49468187893414411471;-0.96120717794359811226;-0.57815974184955176707;-0.13585746893266795188;-0.55975773710445408948;0.48744644923490465516;0.37494878427339956017;0.19821531943922862662;0.39465819199519119875;0.47355101913125341451;-0.56531070828770191294;0.34708301062939883597;0.73733358399035553443;0.41487772200144873436;0.5133577295816106334;0.46915147156057357414;0.48273850766630310716;-0.16607921838273670412;-0.69200077473442345166;-0.5130104778953140654;-0.67279482418776226371;0.6124902893079121613;0.9409569469246231721;-0.30597532634446583666;0.22393731800021804412;-0.54191500702437267467;-0.02407268553059010302;-0.37970865333037850942;-0.12946676911273971577;0.82762063017153419953;0.2594216779231850456;-0.26573153152101081087;0.22911017247805956498;0.71006175482387690057;-0.61411168128155713131;-0.32783029901783306004;0.58458129266152580872;0.09368897904455167347;-0.49016611675997817654;-0.43769525844040019225;-1.1276973050085716821;0.39847771069147097656;-0.2969910069984396106;0.0030956121161971770703;0.43021821296174606042;-0.27727447977099078935;-0.013248701038977290026;0.92540719860808196007;-0.94007657623339568875;-0.67656774265077668229;-0.36492154696799700142;-0.66448986155956613064;-0.31455157695327223832;0.046736182569433494527;-0.60931855691892855553;-0.43592894386388963968;0.18319238684614672086;-0.0029138771737197573762;0.40259559496521074573;-0.1874240666684562906;-0.34056503668819748665;0.040809852854747773188;-0.63519632218625565745;-0.031285141711787894936;-1.0243077977440206983;0.41173297685805865243;0.065302508707892420459;0.79439444632734579343;0.61903687340144530893;-0.46993299921143960596;0.067144791280205270989;0.50327110163439925383;-0.11934659532140108607;0.68221685620354377555;-0.6582698503892484565;0.66521883712105001063;0.28983543594456462333;0.93387936356469247734;-0.4559016696303240801;0.51948000996486487502;0.86856897531896204434;-0.12687204554348952001;0.23232450465982204535;-0.45537294172912012868;0.50292568465020071056;-0.26010482118172728594;0.40454780672681561748;1.151941639147338714;-0.01894860172415837804;-0.14429128540901736688;0.26170513902433234499;-0.50889035051083553185;-0.5953905856831368526;0.4430809520653142819;0.021593165727342027854;-0.016633911791626741078;-0.01939685597774862616;0.93686370457829137859;-0.45163286148612258319;-0.0080944408930105939126;0.62574207259099623446;0.054819524027306471003;0.27391658816365421769;-0.29272099052727096336;-0.1187569610542165699;-0.26207172767090491927;0.47561779416680766142;-0.31804469226677489768;-0.43116315532673349376;-0.044003171861537446197;-0.59074441050272663567;0.48910941702654553431;0.84504710792924031537;-0.32222510652457686531;1.0390778207665840593;0.83907512656320870637;0.41298252841149207804;-0.5942566507690791866;0.57599946978537297504;-0.017818263326054226137;0.3241847454147355756;0.21502228739202225438;0.50280258453272452801;-0.096518957621224754639;0.59604770863515665891;0.34592586408302855583;-0.4092109683912971696;-0.45371997222744264722;-0.14184412395308629296;-0.17546789936423010103;-0.029268432931632133026;1.1938632599439722437;0.13536899514445438486;0.024606343111792508549;0.19916200925002514044;0.15585324191923630166;-0.11062254473894260476;0.2042256943357301513;0.23660265037347089079;-0.26985402884927406353;0.52819560559855527337;-0.19594230457792327638;-0.413428128327565092;0.15236400226761295795;-0.71260356098231203426;-0.79626663310436696097;0.43418390249587185403;-0.72894353071568529501;-0.10646380500009701431;0.83985995781269939808;0.23481707178820807047;-0.25212611659011374687;0.16448937549083983423;0.49525345437848444785;-0.36661836859480856354;-0.59125692878593016921;-0.80493938621933769362;0.73380544735692299074;0.62183215500541544341;-0.58092713828685083044;0.52494434303499692973;-0.42061636960309034539;0.39526167112347410093;0.37544245648373714141;0.63801917708101962834;-0.87807965177180091754;-0.29181638258939635033;0.22896348073975092419;-0.14636273600727689459;0.84306709352567654747;0.66852929300549468472;0.52128720307422427016;-0.22318532281300118569;0.0067829382960805572819;0.24359945225297285898;-0.08912366333037941013;-0.33283535183986590056;-0.26767982303575538205;0.92095973939589448332;-0.28451912448262028921;1.0138873993209471802;-0.23800581792033015383;-0.2186080498127170868;0.20645728432335413993;-0.3524742795782391247;0.5791489347827167844;0.36944174078209962575;0.3598436025322794829;-0.33928055992360006687;-0.6819193214721824825;-0.15134634326399429294;-0.53880515115963900641;-0.11089398550512749586;0.25291582778245508267;0.32709683394181909843;0.19857882604336096755;-0.041758868009961071233;-0.021893247008340655652;0.21429926652503192286;-0.88625124362018747881;0.23041585066675940308;-0.89757719019694703899;-1.1713746381444352096;-0.53944186609253963471;0.51624898799902352309;-0.13812437090783238891;-0.2982928375746020655;-0.80001346515595772591;-0.40696682877694106972;-0.5767692622758829879;-0.28408378523957861228;-0.57350858971123774843;-0.031460237817229341761;0.35017659031826275928;0.057576336912578622573;-0.31425975948892520551;-0.032389827009295026061;-0.42888549003825726658;0.21070984727317532137;-0.2493427223100663781;-0.064506922692968385324;0.59212838203021811445;0.62467286236735031224;0.27311649801368609314;0.13043054913905230419;0.38117896110228594031;-0.073141593090010031952;0.34019646280320553489;1.1756152795094132468;-0.17389576185851118861;0.82467333140324772245;-0.64932860893003385705;-0.072629288206873143796;-0.012331326702793314956;-0.33308907537688675626;-0.31666747464689182223;0.78890960419976419171;-0.60109336317510131398;-0.26796004283748098285;0.6199930797619013223;-0.094219620139018120386;0.65686879740568238084;-0.054816986271788881169;0.72450353690832369757;0.89440265791189321742;-0.1100506644572172843;0.073418454881037653603;-0.45185630182898006701;-0.6441362211461688636;-0.78703868237024598997;-0.64759629291701148457;-0.29815800483582777236;0.50462673474383445971;-1.1506995185052091291;-0.45178233764197350819;-0.18215563166265311135;0.35992630506246819921;-0.044883315442434700004;0.20219818368370937045;-0.31583648406822956156;-0.12404866093991812059;0.20324266530394222152;-0.42357999195451756513;0.70802537332760906441;0.13170626136207022605;-0.215495720058414858;0.024102491103234820191;0.44273404848040454063;0.011939076725557103836;0.31434973358093692974;0.45838882473266795436;0.63700560399642858211;0.59224467267208880106;-0.5258342634514382441;-0.04145428972174301091;-0.22661118617072190107;-0.079007508229064313254;-0.4830760987569037157;-0.17045649116845718041;-0.28726324988927653958;0.77119041909451124805;0.67203147141482799665;-0.72418861180209492812;0.48319156721892780881;0.57239423027467761784;0.040311084605524176439;-0.16379745542685836268;-0.36636270725907837953;0.48706918162819567986;-0.30120523644592434032;0.17509802276160119083;-0.30728847391737290629;-0.57712032040543737033;-0.89599621158168829549;0.019598298916334272457;-0.010104349420800939549;-0.82366074662579602528;-0.35119377397407669505;0.83180259347243357126;-0.89402499075157149111;0.42466134056092214033;-0.65146166396510651886;-0.17069323282819526266;0.18993386414467425261;-0.20255244556397591915;-0.38619201359890664715;0.042312685039424278999;0.061575117155906466948;-0.69765583379358864224;-0.089129349527610174375;0.20804239613180641744;-0.0036764404893185912912;0.25781539703692668564;-0.21931191178326139846;0.34137693042227573725;-0.12248892027810420746;0.52486179549589584425;-0.20207746333968565344;0.46528038757710316053;0.36002730676922028996;-0.24410462929680187827;-0.35967948075196881641;-0.65677756225897221398;0.014415159129754030742;0.73050031677602655922;0.61921930968546368135;0.26701266513593541196;-0.25731975277195684448;0.77381331161971989019;0.87231104207418241892;0.50403829391556553841;0.7839426274823197982;-0.022038678705909645755;0.35043593965422781267;-0.583616285059214146;0.29327241501048462169;-0.84027413373737391833;0.3883045351002634149;-0.11869800802310680188;0.86333053959778116582;-0.67686908905606468778;0.16874435556472675013;0.42972665223191708339;-0.7541659593889983304;0.70131465082889388185;0.79509773052756871348;-0.89007715187665770173;0.83453974201305403113;0.2963969795352518477;0.39601610584570257068;-0.40800654333179026123;0.2096824663497807717;-0.32780744710793563446;0.20187639252692129999;-0.20610579155029756793;0.74241661065934283492;0.33816047781650382387;-0.75824268791785476296;-0.87344300733792834546;-0.34456745017959228283;-0.27268371363908183724;0.66430531367203238258;-0.56618994738163608282;0.87753716837103901138;0.16284901358820794148;-0.45727561319904130865;-0.23029323072498514291;0.030045541152886091202;0.53627475606854657642;-0.4037889422426219066;-0.75408841871616616448;0.67775491247996966226;0.01915139975352122409;0.089357387224652778945;-0.054122255890810481993;1.0287111453715449549;0.95780732119867095786;0.5308317278438881015;0.039116663623696208696;0.02023142613771855905;0.56025375159057477781;-0.093110648741504056791;-0.40656627769290171193;0.12718036821911984924;0.90017726738344805426;-0.38705687402960825549;0.13390091588870076111;-0.83739480966415613672;-0.84096832359489037678;0.30379949046926135736;-0.32006047172404394896;-0.38419389961363981101;0.78633037049888077075;0.29331774074943417485;-0.066938923919047849109;0.0074066882349488778747;0.86493719853851591672;-0.42392160212811508258;0.83169177361916835078;0.25691427993138710173;-0.45838667473915989392;-0.31922069214830606221;-0.02448972862338715667;0.74583370883216060232;0.24228965339798369527;-0.56326198408946437368;0.3517296699405864091;0.40872882656941583734;0.40935256846931333818;0.15997910932361980585;-0.8929865106216950954;-0.49483520771869005106;-0.45356160154577523924;-0.34641643927907606049;-0.47721254184734585024;0.13739390954829105995;-0.2038742391954424249;-0.43920655015387238818;0.92131430319999096934;-0.31919613989195710912;0.8826217580008826058;0.66732168015495640923;-0.22505165241771507567;0.58202573104223609413;0.40464615278537141574;0.53904990078088166339;-0.073940978149170333289;-0.72005655853931804788;-0.35186473197530049317;-0.22128245792726411456;0.10256693483368854725;0.56002380888380653978;0.79605639205895961652;-0.38583593628429213584;-0.38148586655837646298;-0.11847344296403963804;-0.0096449220301096441621;-0.63228508771091385121;-0.52425967605920054115;-0.89670705569986275396;-0.12524951294722680428;0.50365131096528148458;0.77321581303902664484;0.068865540269993072431;0.54516565197991695424;0.62360036311840405521;0.58128587920369745312;-0.058298069367009382191;0.67414462336048275315;0.83401480905665947851;0.53484366686388895573;-0.84979078593707635392;-1.0321558635410899019;-0.67284374881931485746;0.11987357283212944636;0.2893212595366927431;-0.24258149882480939397;0.63813967397746040877;0.91247017138524810775;-0.087699985323478321653;-0.55760043975231243785;0.014802949383410169207;-0.011534919670747337261;0.071652073691227211039;0.040376193015811585874;0.31957733272445904005;-0.28505483877858289743;-0.036801367313069245635;-0.22164963360111952784;-0.14043569133758265766;-0.36601214981472196541;-0.49846422255410283153;1.0341379712760876419;0.76768957119118064192;0.69049025581648659777;0.35190898434341483236;-0.85423226719999922896;0.47833344139348171753;0.3809335512325990325;0.34168416098817439019;0.66921819678632066264;0.74937260277475015169;-0.25208465390119083605;-0.66107060095152103685;0.10046414510788714836;-0.2873794161977494821;-0.38665803914253366047;-0.17433874273630908802;0.57449639860418111326;-0.11868020553204219891;0.59815845382791199558;-0.73995937086740715127;0.3609557375094841758;-0.81497418041583014059;-0.75878331366162288241;-0.40995049010392586863;-0.44910188092641128987;-0.3093991644712386635;0.4365562992585289015;0.14188830316743378246;-1.1396242519269059734;-0.49540816920700531112;-0.21391270861346328713;-0.99046603082390838324;0.37768277461603633194;0.12715305703846624397;-0.36225079876195515061;0.45864510548584908056;-0.11456884202857527122;-0.28283516222762367098;-0.1142194706494384232;-0.33594151587766668543;0.1303788039671119614;-0.64138098940841326012;-0.2739271805741979593;-0.28334051128530879371;0.022618172470200308133;-0.4678584455213859461;-0.19618332607061569894;0.036206866953458864689;0.031703956555009765728;0.34968216196358936632;0.41238498727950656519;0.24938182834646577257;0.16548069843996027206;0.021683376036375649754;-0.53126021074675988665;0.7584345770061167169;0.55322428826093172916;-0.38801168121489482132;-0.14926482483869835116;0.73719971771609515976;0.018429426752546228946;-0.3548229460111053668;-0.26813838787653965223;-0.56115046198503926167;-0.063320049881327777896;-0.13600353514430851831;-0.79751846692619932089;0.86810909575041017572;-0.96664653045620474447;-0.78337912439748447202;0.57667423250570104543;-1.0672566642902916456;-0.31060844096721812457;-0.36765914635999885629;0.13840747505855235944;0.8257096907369934069;0.77382413333835875502;0.38588156921698552049;-0.85722171053231688287;0.14483007501620162594;0.59726428455831681585;-0.50006107135921284979;-0.79850022367273076895;-0.19413405623645776932;-0.43284187554153041866;-0.25129592932064037658;0.15391287916153212345;-0.58130440985941878029;0.14053543969097637145;-0.54436203816863648619;0.22041038574821103513;-0.51758595496739445707;0.26257476378277072593;0.25084650137053443597;-0.4256529893309741186;0.11410860006331896566;0.56792463446067409372;0.12719734650014805077;0.043232013768921349894;0.9148207966236009403;-0.13679296871255583468;0.26373158273054470024;0.55798902638603220527;0.07833868416788260236;0.11233759027624730387;-0.11106722133616614423;0.44073384518347774597;-0.69448017441500242697;-0.64780255319342949782;0.19297880007635057065;-0.18694059945018318136;0.94225532616518603568;1.0729666966946702633;-0.82898887417227540286;-0.64711031886720404849;-0.16224304110116580246;0.50951088012311551712;0.30428751442854601317;0.41027033585213174005;-0.2303217274586742136;0.0076729412005124399479;0.47935689720792551416;0.74452021523497968758;-0.72715676186555766591;0.59287998593361179722;0.60655276684027470413;0.16017618544461478813;-0.40098565465403540609;-0.054666556158069215532;0.13413471264845133746;-0.62211340929440828162;-0.42825762856677074275;0.41367322295857306136;-0.068326673037180332693;-0.42918302061137053593;0.079632711882923604141;0.64013202497601606744;0.23493994478366156398;-0.36723540991513786702;-0.3219271968603281131;-0.33830505322118975542;0.98727587725930521234;0.36125797348692056943;0.55263304486840902907;0.16979755944536600865;0.047612264257137271173;0.28777820865817582696;0.12694316779272779572;0.64470831404095718664;0.3510216788872567717;0.48065361960542807296;-0.34420656650477809979;0.19233463248899632103;0.48491322030360561879;0.7831171980876056038;0.067557397006270628048;0.016429925886676639835;-0.55279618293299448428;0.72525168546369267464;0.69976111984738686989;-0.28832030357548105171;-0.30584524442559601898;1.2959661126135868514;-0.51321635136286225531;-0.20654240573353760402;-0.54175501461380770607;-0.43040212769739993881;1.0205809165063375321;0.36446951900214730191;-1.3780807078998444926;-0.85777746412871958004;-0.6652700940591901313;0.638523865931479917;0.74502874765608806396;-0.20770793572302875818;-0.86008790558421432948;-0.91905770309414869246;-0.4830493357397604437;-0.66195402076197917829;-0.13319758790633215439;0.89348350532487152975;0.20591078543974467019;-0.53063074813055299828;-1.0385024627625631943;-0.34616559782562245084;-0.29797477755268070299;-0.32467535356671134439;0.33266593703517666203;-0.22687475932266981671;0.3785849649911310344;0.025400677555905786659;-0.36175768444529160517;-0.3042139284569774782;-0.78038848800635363112;-0.48178073795145615055;-0.42471121560075614232;0.80310689773734944552;0.19103888616405029222;0.43380114922192375415;-0.81539740157653450847;0.79897849086274808084;-0.36482816016641061996;0.75266371223271610891;-0.23228616151526262912;0.019908936258088597709;0.7029176777562581302;-0.31250136190558713833;-0.088558910280177441376;-0.017910132877388063727;-0.88068223512122567609;0.45010128452057518444;-0.71164516679187894699;-0.55433546567609071065;0.13980644606949108044;0.41322866638803795736;-0.10435298389188372992;0.33920532848647949598;-0.48375323890665683502;0.046425993179924934795;0.22800932538643570169;0.32029621673748043253;0.34914834913228437463;-0.79464271415432419232;0.317103953064682198;0.19195214268033847227;0.11689657659311765425;0.95262201194941165117;0.43251789141755975221;0.44876219820557988749;-0.34751067518715561544;-0.86771292188778703647;-0.88268610298703942263;-0.19013496435569740561;0.72192264818779883218;0.46319948892027762444;0.54471192302450543998;0.00145518617921485717;-0.63790303210878729345;-0.53787160699136882247;-0.49330114723834206369;0.67122407155804564294;0.16527341111656743133;0.66403286373811720722;0.18327723686204372422;-1.0498193368059625108;0.40788971812742763623;0.34461864386801460691;0.014831946298826260977;0.8498368638786917284;-0.54455215506045639984;0.93485164887429972325;1.0115739519974684679;-0.22530096323961595894;-0.74645240839860715898;0.24778777367344256843;-0.42769888541131961812;0.83988824693260077936;-0.34465927272410068483;0.30272474576127988977;-0.094624310900101676891;0.39013418643865444002;0.368496610860558238;-0.25470228045596010613;-0.44144162172531586918;0.53072417547460815079;-0.30388715872963267817;-0.31532660060246098244;-0.21478229807424215059;0.27858796223511789192;-0.45380887538203912301;-0.8311707792118867566;0.3575609050309183079;0.37994983592981446119;-0.92370086803303064205;-0.6380599578220671475;-0.31624808007224092243;0.45842027417398611977;0.48115760923559730555;-0.39044509713517933092;-0.87789402913295244701;-0.30811208421951474801;-0.9984465186942867998;0.22381399984551048066;-0.06292486431433558236;-0.12571541442295733337;0.68954202945303100236;-0.085954822728968441337;-0.46669775758099230067;0.79741844740785550183;0.52617777084248518182;0.74699591930503395076;0.37016840815539170384;0.22145279307524612378;0.016693373518836495534;0.17141139295480045668;-0.27570290390971147199;-0.2770086799852838344;0.5713231374223448622;0.42821904089266127347;0.18051392769960686313;0.86591718981497567409;0.49676404206751162418;0.37603709123451806162;-0.99464243080363867744;-0.42690621509723009064;1.0236007612488875473;-0.20785641503217358594;0.14200128177931611861;-0.40174210030311613417;0.015326938327118540609;0.19946679865134461784;-0.67367954139786978551;0.29120437442562885355;-0.65880226165659483417;-0.16371093941987874265;-0.47639591835771277761;-0.49192893005049481703;0.30879182865709065009;-0.099176960840059807945;-0.64324342356085661976;-0.16951964514793127492;0.13694415591962455503;0.87854305745980154629;0.39446236506873788574;-0.475835830432833784;0.80125984458471355421;0.45601302419778588781;-0.050305170346722438701;-0.38865044018180378016;-0.25197068547392881266;-0.89715672789667044729;0.78001255779169398341;-0.22431083600715412407;0.16011977479539610258;-0.77950265745546509777;0.014650972396237530587;0.17754847517047647742;-0.57794331023134093428;0.053246605160773265164;-0.37954229070281608749;-0.18800656426393524967;0.35750293072049449394;-0.75230875408534958471;-0.31087492122152809992;-0.88684267486305279338;-0.38466936442323929057;0.3696141882508868215;-0.46357682047693454797;0.42965340394942569402;-0.80602506438465648664;0.20711275112369692541;0.13433462051966468809;-0.058624286876631542809;-0.6742410863867063231;0.6187322407006650149;0.84472664599420410614;-0.35896679483500670838;0.73392125655752793456;0.29697712697977018959;-0.60766400943464549123;0.31177681364053649871;0.076797199223556086856;-0.36620157456038038291;-0.52044195027635520301;-0.65407042627424738512;-0.57349475725027687645;-0.5168910743475017;-0.43676414654529821524;-1.0295577405874316579;0.062668947390117593632;-0.16579195461345644369;0.35844642760610317955;0.081485872230786265957;0.56239356094431713906;0.53148135569445953408;-0.60090066827904464741;-0.81462470121415442303;-0.74357522450224522448;0.68838052302380536851;0.58596304117690567459;0.83019557521026243752;0.26859266228332412396;0.98429987082163339362;0.21848769310319890447;0.093830813999680462434;0.16482569338631278266;-0.095928569128631305252;-0.06686876397537179495;0.057352000306867018109;0.12693127412020144273;0.94368303130313924143;1.0048132219628149731;-0.77382342711619500619;0.067743792970310814927;0.043309718715627047725;-0.78042176406055896454;-0.45055030433246090471;-0.0016106868575098910647;-0.029181887211484507094;0.27444861829186728563;-0.30671387289315465985;0.42979202632202373469;-0.41006436819698049989;0.22584323747157705742;-0.28933917320840457643;-0.20461272637504390737;-0.28205888486025709749;0.44397446000605350624;0.22530692105107144596;-0.97584579119580960871;0.70426051324816685284;0.28496600866863075474;0.25853799827352635932;-0.080643208629788618036;-0.20874464943460560584;-0.047361713462538611308;-0.5573300594692525145;-0.28994790969544709247;-0.076925866034074988353;-0.064219540373358613428;-0.00011786805900991211352;0.25832819111053267891;0.21032395592851890753;-0.78448532322019315366;0.29644468198280982119;0.35625603864981503222;-0.5153114698398254534;-0.25965129051554342032;-0.31065047665952438827;-0.55548380890954185407;-0.45097161191044171646;-0.47820774592766585043;-0.83926757668064799756;0.58139835654794358444;-0.30612377515005712025;0.8186979003821501788;-0.090067163792810933653;-0.16441990469393946706;-0.79295649379605437357;-0.65809846112820469255;-0.51198252002047683895;0.88712047228452683978;-0.94109515580496749809;0.8608725434435340329;0.67192854386091416252;0.49473155090368620135;-0.93631730231701915113;-0.47071868018461265892;-0.33613537927689729479;0.66017192321987028247;0.13674036367956246552;0.14530787231537389825;0.65303710240774892615;0.39991002060375968608;-0.22609419304130418116;0.53969295738127187612;0.064374471240548791773;0.063330133970134247501;0.66204692331576087128;-0.45956003951756668746;-0.39301174087396834045;0.31633465758264467382;-0.68506180040355912908;-0.48427558692834371534;0.72554183086509793643;-1.2163408631299774676;0.0065397028380049099239;-0.1309192180068910194;-0.39659614750893501522;-0.64316856349426720918;-0.67513541230490758949;-0.027836441079480286898;-0.48158771388672522162;0.66934321334129054382;-0.75563745188590902835;-0.050852669903624435344;-0.79856342339006736175;0.80104863815725746434;-0.16039211654600651902;-0.86727029226227270176;0.082266076697238801896;-0.93903995449143273788;-0.39603583376477047295;-0.48441027034751715785;-0.69296921705846559192;-0.058739458187656655441;-0.98857361103497110033;0.091126198940402289295;0.28422115213501603082;-0.3161768357323580525;0.60826258594339832619;-0.25496002342147167097;0.4537410495739364058;0.18893806963171294599;0.32938915885166936137;0.83332747034889942395;0.29197023635398222652;-0.32167102102861266921;0.60649293483836330676;-0.48228978903106295428;-0.41157064044403196545;-0.92633712776016308155;-0.19648872249096174802;0.12920638092331659941;0.52563203566956384627;0.33746922745765250973;-0.0051809096622827000705;-0.65474600379346914458;0.43664295059276031497;1.1263192627689802006;0.45056883304940636981;-0.15161781967908274926;-0.39640657580112670377;-0.48407662864884859477;-0.41878388233789298756;-1.0475315694657740817;-0.43215542844928200861;-0.081808726072688062181;-0.1962732535496185815;0.15804831910891031788;0.29400947994701248644;-0.11776576202664422455;0.45042422488836103556;-0.42555181745676318172;-0.72217502990873760904;0.12323277964099219051;0.8590092432058658023;-0.29626759950325887161;0.68455394866917895769;-0.83373946999531145519;0.56037329191554530183;0.60190895859296655868;-1.0385951960748778244;-0.79032116410631259029;-0.89842914369256698937;-0.0075989148040634156914;-0.14290522715127584874;0.66416480930121679638;0.27305216343210525487;0.38805441065032414416;-0.72393880784925201954;0.51214813089562627457;-0.068999344133540613244;-0.6877603943098921091;0.11196940691021234349;-0.44424954406572408905;-0.25872545467275681608;-0.54660727259586683324;-0.69208162331163203262;-0.22174944393382747809;0.006271141171290037751;-0.10571837123271027314;0.67749548345470211874;0.35492444714393872607;-0.62570999818621630961;-0.20904536896476927366;0.50038625990894081141;0.15015055701482404871;0.27572344770462448027;-0.65554325898094611969;-0.23241440932875592762;1.0486790616797081466;0.081474254944836496661;-0.91263977964376252761;0.25443821503950436735;0.62029095585734417284;-0.13400833614315291187;-1.0447210684837340278;-0.93249127950569254963;0.63180924220185619156;0.52554195152223670551;-0.19976553577301472964;-0.99327653460550968667;-0.35984858936406399765;0.5874344600907801528;0.5494349321761445859;0.98784145024141767344;-0.39905376561282412951;-0.3214319880769965776;0.42030161533665733042;-1.1140739998590338811;0.23718255239859506456;-0.80570976219768619675;0.295783989422246818;0.22444683654692540453;0.4634190594425027232;-0.26107981072788921661;-0.72061242551444915083;0.38293401408112709428;0.4586804897079083676;-0.20385240367971863007;-0.11006966835394570159;0.47153743600473790876;-0.51209938977365043744;-0.66597661411622610661;-0.059444415759129939913;-0.38253419392431192714;-0.16357309337457739962;0.6664817887930472029;-0.77473976978020886452;0.45592382507966916494;-0.12314793875685380031;-0.77058170550039895019;0.26383790874952645078;-0.70207521861771493565;-0.16224025760903140747;0.24978826084749763958;-1.03318877236681117;-0.4616915910506909082;0.20044170450432918784;0.14532686776705691645;-0.30332479080385693626;-1.0051733780142457775;-0.095674528209923351274;-0.487403420929671094;0.30969724748984284179;-0.85493484773187811143;0.48059182747092987764;-0.20733656807184569493;-0.8154937068727968752;0.62861425398424031208;0.74075778481671683551;0.5543893036677485231;0.26013894525554887016;0.49842031389654117834;0.72466760518933226454;0.93014082913876172665;0.15349023411008411166;0.77773482910214586372;0.96307088058284529009;-0.67383117304259043667;0.63799330188406278008;-0.0024461253910917175533;-0.075240939593912273264;0.34586513710463628879;0.46705728006302177358;0.1263643894162379544;-0.75399364226085319185;0.71501053543588877215;-0.25951362826138857365;-0.43222784166916816684;-0.91130616470221248449;-0.26490170304911592192;0.35459611410889824157;0.27997423851471547884;0.46964288180332408595;0.87159024284127917248;0.57095587623695220891;-0.19986059059617117262;1.0554922467875993419;-0.55844042174460950534;-0.63670448679152669147;-0.44379407261539499663;0.62962710464116433684;0.33516300371543661374;0.16431622376848267764;0.48378620751209483464;0.54913445719932807432;0.11102141978410114131;0.40580366872141770962;0.18024600720290184785;0.11286486201534078055;-0.61945756561698772646;0.091380051697643918662;-0.050826112302696305201;0.19021209570955233126;0.96083960403414947482;-0.41303918205325551583;0.42552521208847693401;-0.59765770610448010203;-0.3046173592717443257;-0.029441862535013921254;-0.45941275107454482285;0.63291512710512864981;0.70475301950564128717;0.63532963091534400135;0.83831220915765425339;-0.8747193341273493683;-0.28598700918141850558;0.6858009392957815642;-0.89585318825627979766;-0.16751474475380415119;-0.72087154244032602968;0.46675601993621906871;-0.99834537437077630617;-0.38968938833303118363;0.40178092012942218103;0.67931747113951590489;-1.1891832218841258406;-1.0843785683556970145;0.31965339138592513413;-0.50748987052082372706;0.5973026833809833569;-0.71140211159827548837;0.47334033474456482793;0.83393220427130299033;0.30390581078253797731;0.37837783618188036705;0.046168818334864511477;0.21900252540287229452;-0.45535558374391482683;0.2117538651401291161;-0.56592789055268777343;0.35163928369664099183;-0.73143628986667530434;-1.018004615440022631;0.242439007964907971;0.60262533125364137199;-0.33467132914379588149;-0.23068875037129801808;0.15747421264032929189;-0.42311518145346066477;-0.5170369824674622139;0.23004569526407669944;0.62171176277798489984;0.19000420802766873618;-0.62086464430135768211;0.14791813571978218445;-0.65096778394316301419;-0.19916760286699811133;0.70891456383468376412;-0.59654143832904038547;-0.052701104344506123633;0.15321955756136174109;-0.58839320874064693356;0.77779453447390978216;0.71040185254062349074;0.74029454187197196724;-0.65710957255585666914;0.22497227129328978279;-0.011452689512505753386;0.31226703080005596691;-0.57846649571898023368;0.3957018706296335786;0.61839935613110696977;-0.28121840498964145727;-0.61189710606724034836;-0.18208648440428001902;-0.62627307374360174919;0.70555942232486545951;0.67895309375062629087;0.57763457854589739249;-0.85464721506601337708;0.073017372888799420005;-0.77665488553622696877;-0.96866358025006771282;0.010999915573932886326;-0.11313984933090984186;0.050733889809793701609;-0.030771501220703840335;0.47462845389414193287;-0.40038509631931668009;-0.2981702352294722802;-0.57198121426802439604;-1.1286438036794919082;0.58384181176103022715;-0.74276194033593534449;-0.41444194714062781992;0.68398326717484547732;-1.2460846235424714035;-0.9768265401655805702;-0.4409026229633487004;0.089287363921816131906;0.6149725879593355149;-0.25561465597308591358;-0.64891561008958609236;-0.064470820235244058471;-0.62498513944611266968;0.77227291377223283853;0.33320061992816907281;0.092260207775268249231;0.58499795373215301986;-0.13334403927915558508;0.79560069879171380069;-0.66224405885490711388;-0.61143267183009519794;-0.10059761993166053962;-0.22503531200031967607;-0.13257847086062848896;-0.63986252855225600467;-0.98971285732539937552;0.61396442257914396468;0.85014136534120832156;0.49979734956026006243;0.73530543944428783387;-0.039255444344340403862;-1.0159417765499556552;-0.32272647543067572995;-0.17170771948800453433;0.58110730567266866142;0.562881548284084543;-0.23440168201612385235;-0.62871781311150753968;-0.75928106309697862564;0.095594955362701392043;-1.2073951892683489895;-0.55594102825337698981;0.31521250001169531796;0.032508669022304745311;0.024908464199904101904;0.85790499592798974415;-0.074828817278466963625;0.15587107673495442794;0.21288262634023435993;-0.62669113899777917354;-0.9510735610673191065;0.70019120884808760952;0.57626141350777460026;-0.35724788303543053569;0.31728107741669547837;0.11270103646714919876;-0.21666322074278432375;-0.59007529762524679739;-0.58492253517859116307;-0.79221717490473297918;0.29903848909749691787;0.26178838644537738567;-0.41789112780802417646;-0.94849746569776860472;0.10703665773379253401;-0.20181277485752593948;0.8327056281772919899;0.88705987547865272624;0.56844776279512387873;-0.34263750503529777358;0.39112115623802673481;0.24804169138757461988;0.64084310245461728606;-0.46458937188739102275;-0.14865840068337107804;0.91740081157340747087;0.50170768789245157038;0.10794435910155379676;0.043923894106660678338;-0.51407102988988295778;0.52826575988272383988;-0.94305851205164203943;-0.12995043759855057219;-0.68266979705815300505;-0.077313211387177185885;-0.8248749739785907753;0.7724526901494594977;0.24464008876531509462;0.21147503675113610289;-0.8561504494055018899;-0.71330326096334628616;-0.20923931331991693638;-0.3847308823636277908;0.29939516351406525452;-0.46513291082042396152;0.073358250830399457376;0.62305622595247178719;-0.4351958850220993269;-0.65599510265563454325;-0.19713685380752157816;-0.64910913167171591098;0.60265327994899364761;-0.6273404310721402144;-0.49266519645944262251;0.3900084577641639294;-0.75669432997670649232;0.26043702726760703525;0.26240000573899713299;-0.44088084279594025316;-0.46787430090947312866;-0.13226003683145418077;-0.37779105762294701298;0.79903355931440445126;0.52457128139442943393;-0.80596330301572416399;0.26578199394198009919;0.23686810957082693463;0.23095280780631427531;0.084474930218950444738;-0.042306051179919999805;0.98493445749812791323;-0.40672323674087540457;0.59909910690883305673;-0.27797775574467381565;0.049953607488923683355;0.36706009350342189146;0.27833079946441463548;-0.80206588229461994732;-0.10718879540603193368;0.82127527404531963651;0.93635768837353050564;0.030802459086137049665;-0.51625003314770367968;-0.30955190316628455882;0.22865271700980330238;0.87787519953476966794;-0.68733649977323074687;-0.098935238371205977415;0.63549113822637404159;0.33479157575387641366;-0.17034520246392281795;0.098565186288251616098;0.81617106072745360112;0.32934282532741759875;-0.99017945195251411139;-0.31442324263398296891;-0.62966432078301737274;0.12218650492751266523;-0.0024987082699453513207;-0.21242041685622500835;-0.54446367613074042602;0.58256066198807732182;-0.75449915636709619093;0.19538536114834775814;-0.86676235491137409994;-0.1428696929741762045;0.21717476714823685802;-0.10300456113014200277;-0.97074332973806654046;0.92980110422818662563;0.72914336392658429808;-0.24003143226449705216;-0.51970069947577790526;0.66285570418210837396;-0.17217013432756325675;-0.55268964921895369358;0.93047010907225158327;-0.7912278645421115808;0.37636941535040530082;-0.77995181902577859212;-0.44043277443991735165;-0.74763596886716154888;-0.44714407390018146016;0.78683127294073584856;-0.50632088902362737404;0.91521644556347359067;0.1765707131700646193;0.33989627140364664371;0.50534554880513404829;-0.55339244330199977018;0.59573607350656221371;0.90554403476016231966;0.2567014914782678181;0.60288646186669481164;-0.78265880231362439101;0.36976641036698149057;0.48936480012236427406;-0.026140520845880609035;0.84194928292463167008;-0.10296464373577940421;0.70213659079072432423;-0.7737045410074033791;0.96447838771258442847;-0.66505818512498315886;-0.33240965152678353389;0.27611505661813107171;0.46912328769416239416;0.9157739209849551365;-0.12365064280215243286;-0.38699310389676450095;0.97760848909532716;0.34963449080486863618;0.34948319749318457195;-0.17114365250409613317;-0.83082118706822305487;0.087498105290306521509;-0.75758312104612368643;-0.30839414309875928799;0.76588655394278581934;-0.43065970438638451201;0.1554904063626584565;0.018164808473705801317;0.11095411072912418626;-0.26885371014311271187;-0.74135259484151627696;0.74282059389785493053;-0.019661962660238660461;0.096753397328543627731;-0.46905253345351016758;0.61376062849927426335;-0.15085586328586061966];
LW2_1 = [0.76489736997441482025 -0.28057194739804947048 0.26824897048152324119 -0.82942617926118256122 0.013999453762911149429 -0.1494737804679203419 -0.015854475373365414792 -0.95795634647883987078 0.16672193162077578177 -0.97868656799493858323;-0.85229451573404901854 0.8708822439968501028 -0.0220723748782618856 -0.080731703044691363602 -0.64133351433120311391 -0.051084986945410457149 0.32835173743744056063 -0.29880845400763206277 -0.43933531189069857659 0.12001487236778955736;0.59264006768204091635 -0.78166543991821280102 -0.28788373312883802635 0.74513283779154404485 0.7511562809586472822 -0.72364492881375330757 -0.80560009353311945457 0.87902362786654664184 0.92594013091333460252 0.43177982117253382865;-0.33051564641791691956 -0.82935442826375338488 0.25996465408403557351 -0.17308816740764448872 0.72610934349896893991 -0.015814757627104766152 0.30340737753751045869 -0.23202760483829401594 -0.9016469862367310073 0.59611506917077483614;-0.87850825753644645744 0.88734673381257489488 0.32679014846114079473 -0.41465942139046979564 -0.64289922399438403922 -0.95628930488295926793 -0.51754525872565060318 0.70570469557721371423 -0.22382829807024029467 0.41031969108463317575;-0.10309376017918553403 0.75595753912388463647 0.56268928383298988383 -0.99189413273760451695 0.14949811067763993377 0.29626775978004304957 0.19790011524798306608 0.024502162190043239032 -0.4210997094339276603 0.49133656427026756175;0.9567406189293710117 0.95807649056887589367 0.66432536276872400371 -0.74807944724414832116 0.76205284814966167684 0.060114059553999329988 0.53279729223966088014 -0.62610306061306664205 0.86805291757952907084 -0.52134232636100896752;0.89471636616381378104 -0.27892105519824172966 0.34375119458612712897 0.21220772442527616186 -0.848446041514717475 -0.14599615694936191046 0.30249300721429739358 -0.42090392040179641642 0.90921642097496724322 0.37016232399657972296;-0.16650347744079879719 -0.7944644266645547459 0.20203883242031533962 -0.073753234600687792022 -0.16138159594413611919 -0.25634935374889661341 -0.15651471910781786234 -0.48679380947655787049 0.9447189980493019279 -0.96971848033742003015;-0.58070688429053307633 -0.68654026567418857674 -0.99619150632304143134 -0.34038141494587714764 0.23057648996063312419 -0.12925706069699535727 0.25460078342409919738 0.6356962455473600393 -0.034172714156839575916 -0.92868288212005256632;0.95041014483325103601 0.20677319383047293444 -0.15620274950020041071 -0.0033791769214743280596 0.74410441432424467845 0.78310879499050622954 -0.34427569346757513902 -0.20726503354513667321 0.1993525324033564583 -0.1355653421035948325;0.47912437024983772771 -0.04792438403210307063 -0.099450741530452371753 -0.18034697192780749231 -0.10709101922691745268 0.82862411186121709417 0.66205980600181779661 0.21097565763574760433 -0.64659784824707899897 -0.13955511456268565595;0.30900867527901759724 -0.64815802567188129935 0.12870238208093320864 -0.84756247498000136797 -0.73934494489939861506 -0.24779804736444305258 -0.11149292349162193139 0.38446940260826101277 -0.86864780898465110415 0.51349759945455675236;-0.35541140588179453985 0.63699744788466883261 -0.34356378463196968198 0.78876703623023924905 -0.86482022263200175605 0.87398998944847816617 -0.60458390085033841821 0.95220933767922688595 0.72420156828960591255 0.87326411715728136098;0.95210384336008080375 -0.082672287804798086364 0.010179064732268853014 -0.3078958753714383656 -0.60115884173446598737 0.53010905107954309212 0.077858457759844873491 0.70260432725104982055 0.80571807653744931255 0.68852411100105714858;-0.88715861668295259435 -0.81698748742445559401 0.84324671132352702063 -0.24145907484015502464 0.31941751419543312762 -0.85698918094787346345 0.17954631112254024194 -0.25519642236851203254 -0.55512253229963504086 -0.26303082522315823777;-0.23802662772760463383 -0.92975660177006191898 -0.42253508683553370195 0.92217685024221629497 -0.38429519149505220188 0.92299464310020895574 0.057797468528832052215 -0.71488528954613417277 -0.67270749654554151675 -0.45234190602058532704;-0.51695399678296194423 -0.5695685323210791795 -0.10304502274101905168 -0.22229435931698657281 -0.28125301153190995773 -0.0011772248438285035348 -0.66732255721956301731 -0.94949272218090274844 -0.11065661299630918935 -0.8581191522958275808;0.85001946573608544444 0.93804883645412195925 0.20435355236278382463 -0.90008723374201093925 0.78608932706297129922 -0.64417568051777152061 0.13844185721896537511 -0.24909635773873381459 -0.75468725034593575618 0.95954851714311539812;0.65360961297768926936 0.33035673003373994261 -0.030293718260314558832 -0.43298513723832104949 -0.55105302074100936949 -0.025157797614983396645 0.10439801826239129834 -0.049866299470021517581 0.61266647089516201863 -0.37640178007914476543;0.99401893892711690182 -0.55110697322195512093 -0.16364800101884544037 -0.15321196842359038892 -0.5098381212519162986 0.79160003372203624483 -0.92690664543551659627 0.79145159935679421093 -0.16236246449074542841 -0.17594592682339643686;0.62722523650820571905 0.29761205146801761323 -0.32760945465856516901 -0.34256356382675778871 -0.37899016969981069725 -0.80305333532175049438 0.69258490236680669838 -0.10944399302386453865 -0.72620540406726097338 -0.073052423552096290571;0.68035662613628755668 -0.9346223980281866961 0.22515383653773188288 0.61272164149554586565 -0.58377224012145367826 -0.97286351631688094965 -0.57806222163881804121 0.9267530630045481832 0.11469783626670800036 0.69067134822783149417;-0.62617939516601650585 -0.10389818494698908891 0.56985918839181792794 0.92946305476498503051 -0.0064276468240115998062 0.25783187847854349695 0.021233290692568212998 -0.45257295113159101696 0.018756236821500682499 -0.53869722708459544247;0.78413220994750842952 0.41517362530953799693 0.62429242724043343404 -0.17069425724446563031 0.082841912696743708056 -0.70577541731687010174 0.55375812751065356387 0.69938929496092527849 -0.29659248234003643407 -0.08452972749589703072;-0.63582138235274365812 -0.6311095275804651239 -0.69955874774554238638 -0.62181436781686594273 -0.9955482202764671662 0.43760494732854926525 0.56565306659829406311 -0.9575555785949584342 -0.71387182740346133425 0.36772486615045713032;0.99940106735476430533 -0.92090240661064748373 -0.83470663660008859175 -0.9618367864149324209 0.25193760379118679271 0.0023492272811327257788 0.45260763020565170089 -0.93127533293343922605 -0.2126856743263924876 0.33782916931537920746;0.51566336873891749359 0.38258533797786076214 0.018828928354885435259 -0.8086898103558458617 0.9524290659606977627 -0.080579464757254581908 -0.46884885660892505754 0.51128036591634018482 0.68215043871542280218 0.68611120279801673938;-0.84441010109999581346 0.025241308571025890262 -0.28799570057302958936 -0.93849730785509166697 0.32523502248487295985 -0.34806940867413804774 -0.35174561496823775197 -0.9359305285906958094 -0.085238548609804121181 -0.96419906648840647545;-0.042725861113405379232 -0.010684604584796572602 -0.12862528351927768333 0.80838415649037409505 0.024200534845496963349 -0.90469459656696826766 -0.12676008887661410762 0.9662473095433818937 -0.98465739697201049019 -0.098661460260132616273;-0.764021398641527405 -0.67530884631045517974 0.048661063543750687765 -0.62200310813380832453 -0.86031441524344676175 -0.13038137026862400836 -0.031405126735117666614 -0.34415231743287644228 -0.8347026023291890251 0.79129941779298074156;0.10783477485906435567 0.45964868990737783871 0.31566439371832699656 -0.55712599735415457847 -0.91949042441493722411 -0.73371585056980193063 -0.29022558999111930378 0.80051789832969588723 0.89979950949335030241 0.37258783711346415979;0.55769472375605322334 -0.084491151721379442741 0.12066107395278984071 -0.53355009178880574705 0.16207388740494574342 -0.086184934996786977113 -0.927475740587104025 -0.42672164344144841719 0.76826796928348639604 0.084776023250186474667;-0.5306733898818450923 -0.16197809146612809905 0.43305262958807050344 0.54855236991227340759 0.72238275054196154912 -0.8620384805827093766 -0.49268972587761500348 -0.12729306192237382911 0.10242189406456166101 -0.15377018772199210761;-0.66300340208066887993 -0.8642620621241815515 0.73057143733861584778 0.43492335098449746988 -0.15301649274924636335 -0.94846977748434713185 0.74850559841581432163 -0.1171402733624737208 -0.43710821435615782038 0.28707359135701804309;0.40289823385803946731 0.77673931090258718779 -0.96897587086770653464 0.68118262848868671444 0.047894824068530364447 0.73525705028118515383 0.23882197507572491824 0.074628514416534272313 0.94509458540981761132 0.9084215551016115997;0.22684573634661936437 -0.71593385390755270858 0.90560732496291940219 0.78097459718264639061 -0.11808075130788871221 0.92159529942625573185 -0.4031958798452913717 0.51683987902103034617 0.85639159245871365744 -0.4792017038496944048;-0.69857921280748913606 -0.85989905540848654564 -0.23484069047240438421 -0.41947948113803446013 0.99403150507519533186 -0.27262143852490455798 0.3904820774101417924 0.63793935356991160468 -0.36824407225336114324 -0.086058359879602489007;-0.13105482842689736289 -0.76658701403846207789 0.4824681233636779476 0.53255838058872340124 0.97185043654909075705 0.73882135058696762897 -0.52794377999122465983 0.48892862519741037142 0.94824854107832678984 -0.70098770898217055425;0.31227727089622159262 0.42004340063924661131 -0.27356979975169148922 -0.1793564516364353767 0.45038890602935849339 -0.91567937188458181641 0.51123814572974568549 0.025639909725982033828 -0.4102277038873032855 0.45689895731389873479;0.062704381470886708105 -0.27980645856724739584 -0.26602627880295209861 0.30587106249126860824 0.28306292727413612242 -0.91794774866529871282 -0.42958945589101205087 -0.33577916166467219883 -0.43962303974836236531 0.43157306268752687606;0.22473461314213358242 0.58449770183947402646 -0.2528460993521217115 -0.27401559931346508581 0.2845047818663861694 0.19323117200961847928 -0.95643188193789108187 -0.76925180275435345312 0.075972411680956322688 -0.33670236205456777201;0.64811946403300657593 0.28962948713572689297 -0.16166239024578341055 -0.307158300453828359 -0.51200783840125430046 -0.4075495126574827931 -0.11517123319025042438 0.028447879570306245506 -0.40741398561228236996 0.26097701573177800594;-0.74242494753219046011 0.17853552824259197318 0.80213748024103104228 0.69376843878983029956 -0.48687539794389506076 -0.94760924617436936845 -0.35159763274066874184 0.028739951709543010844 -0.0015213551498855950976 -0.78648726061065366011;0.4495419894520160109 -0.21717883340218344101 0.61519775364553686003 0.24894124188323363267 -0.77216135758518700261 -0.2206802735287651529 0.29242961833312330899 0.42122170382836093827 -0.087692064522425922091 -0.25825739807514652702;0.89411062123849527339 -0.051818466885527852961 -0.042249694684864079475 0.95610666975046276761 -0.29777212046671630574 -0.36529305356519420345 -0.54090231970497437697 0.35557592706565255281 0.15336202998826964361 -0.9236569819461020181;0.12821884610972539287 -0.52358366737195050078 0.94865255171583451332 0.57342159791740732189 -0.36031592249470617562 -0.11804528432843464092 0.27100600620966547316 0.84490690804783086243 -0.38720244372475581818 -0.37090517690232760462;0.28564479849513196852 -0.56464006827464519045 0.45797726950082640052 0.22862981961163286737 0.85539152538846741081 0.53405849876105870866 0.93774848765348495228 0.76429305117253498736 0.84585730810408699121 -0.3744438516644791326;-0.014044600482808554387 -0.44856150004313993795 -0.51543834637242769148 -0.93299280674082596398 0.35763029398058043817 0.2304117206510253868 0.77697786325371154259 0.33779669860772559842 -0.26826722378088813104 0.91046203982835838264;0.0089866968975705740358 0.98987973269029139178 -0.1219066916722712085 -0.85540348509326280535 -0.027257932046237231399 0.57907680573964670501 -0.60385754506364186511 0.20178338241759938287 0.77189920270024303672 0.30543693637000118857;-0.36600432032522989267 0.43220019160215877863 0.932927883505230926 0.4359134868307694699 0.48127450225342993662 -0.98350244641788986399 0.63921233512295383417 0.97778550451322110426 -0.93599818254747457758 -0.022841339266386571222;-0.89395046648487330732 0.61592250649505797533 0.33576446925849695591 0.60283069496064500825 -0.85122828941211092779 0.49589609275756063589 -0.70556805840269964936 -0.99155932606081642611 0.83218899170826887701 0.17385599209755592254;0.30875574733458410748 0.11253757920694007488 -0.098095484458885842671 0.57472386963432153806 -0.5537764620281211414 0.88146936634188366444 0.3000883981599080097 0.13009581088515412284 0.72907145758675595548 0.27207363539055473556;-0.15739789180269495028 -0.66026429686310239564 -0.7912038701610840663 0.63544036333833420205 -0.98470130265886002263 -0.19300362701146162037 -0.42454723559134693867 -0.26017504818858699922 -0.5372648740569123671 -0.50166527462775112323;0.52850569217547349599 0.055360155458670998185 0.72843615136884021233 -0.96467020377787726648 0.590558020278954654 0.56352727513040901108 -0.68743953639679022949 -0.20627063474193640946 0.70648109503065359416 0.82831597172483628633;-0.80011499201072300291 -0.51660235538564125424 -0.68456872928791079325 -0.36391843211093100052 0.27937119714296088091 -0.86720656026044817821 -0.68889029094723863711 -0.66031536194282625107 0.053059376331833441043 -0.05972619966493432353;-0.13523466654916585505 0.4180027932063989371 -0.31193665314140212041 -0.57026520821866544253 -0.94388067512803275338 0.57681834192264069827 0.43338973728930296758 -0.49986731346009510846 -0.77255181177676690574 -0.15180539635086418015;0.1455098611852401469 0.4857398424104034107 -0.12752181971613241185 -0.052384404630304470807 -0.043149345971555050361 -0.47078864115200508289 0.917251000145072104 0.073798324710572543728 0.95045255532966288481 -0.060209820455421510232;0.24087846884047728335 -0.64057378373428441876 0.28187836631779383811 -0.32732759927922716603 -0.29943733913401932023 -0.54226586838330070872 0.588684103063820241 -0.88351002615203078072 -0.89485864593547437273 0.34616733807678728985;-0.28666351503389481126 -0.43826826465023444035 -0.69379846191935867772 -0.8894401636617246254 -0.95864860069217894267 0.89184040349137894133 -0.47597097720310299618 0.74821434953941312607 0.1864490924555916862 -0.49298919314620426313;0.2103689086197862157 0.099695605569747630659 -0.21047160810162263145 -0.89945951251861921971 0.69097515843284618153 0.16215771001293211029 0.27217150402166051526 0.53319723231889981641 -0.13330256630910974902 0.50023221184192456779;0.059388991725549039602 0.19569620551979202694 0.68308944736012311427 -0.22516122539135338676 0.88947782652207296739 0.6189481855656729925 -0.66889238259012528953 0.3539865358762915859 0.20474824003536251649 -0.69653303507370045722;-0.050250805547237861748 0.88179003472876882341 0.47000985037002840361 -0.85694597773568881305 -0.30444329262304853367 -0.82606406891987271823 0.42459600134994152087 -0.067512284285258267191 0.69891708393430396207 0.020500789151884621364;-0.20759896697723179138 -0.90043452515930721969 0.3464041114948746003 -0.6628786034983475961 0.17109848520675499661 -0.19005107614326971488 0.40943489551560935391 -0.28387398186039747294 -0.81471000794820958024 0.93025925538883780241;-0.44121612371276186515 -0.43004432043921608786 -0.63914823974234769022 -0.93030013621094087561 0.50711098380556296483 0.56258319394079048248 0.013528403487648932996 -0.19188518579959942811 0.25461505409589463289 0.12909102277670952974;0.8279154130297858849 0.51258055621691589465 0.84796143187937567109 0.86734556090717396248 0.82286947774017682455 -0.51435054017153358785 -0.49420472011065164075 -0.45777245524714793579 0.40094007600820757986 -0.2548808520635585384;0.69924435522000749632 0.80716034932403424307 0.51242461476541867338 0.87363236592273207926 -0.63129351238634645593 0.80610060847437481346 0.76085135772144218969 -0.14679218852224268366 -0.83313521413261304449 0.38098844122752500985;-0.2672051958160873153 -0.50906593757812623746 0.20684107298249129747 0.19154514063502559029 0.33890226628620628846 -0.79099029985164426293 0.75556147146565855177 -0.047568644704879120555 -0.15947401962125745678 0.32537938573927627228;-0.88156437970248102687 -0.31461751755229511174 -0.35630711716279578338 -0.2419785487940480373 -0.43988656118941193984 0.1687850949266684053 0.97125015617838528215 -0.32318546980888718245 0.19504227335792384546 0.26208354605614181398;0.44565285561459072605 -0.81823988434698458061 -1.0267182216955492713 -0.93878529544770550341 0.91608304781544813711 -0.81578672170999211311 0.57487859174726019251 0.70355256653613340578 0.54850171822087256945 0.35721069643276059935;0.37910622604980837025 0.95378355425786753852 0.86497647531873667059 -0.106086882169577984 -0.74222961039479196099 0.34339317700084720508 0.70722582417099544294 -0.90400461102434392924 -0.63431607367851761126 -0.016023046901418570853;-0.48337664986871786699 0.42466712667439798778 -0.72658410499782455361 -0.65023337075247455985 0.23314784992367060257 0.80050104376644348747 -0.25563230522150476309 0.14911777576230111908 0.83353191108108837248 0.59097723098988652612;0.94058586489086881688 0.35613929434943175645 -0.26285836987303506929 -0.36980016245865571234 -0.31256701383942825379 0.46880239714447680122 0.66395601469372567127 -0.13472771038489383955 -0.80399457181787958859 0.72897928279418022779;-0.024389514573638668843 -0.1292227240507080599 -0.52675141275905290605 0.22221790217040329751 -0.79860130888240399294 -0.48889836635023797839 -0.61618758196502487756 0.75751366920142026995 -0.24784482964340445732 -0.82636996480433189127;0.62512571193128263491 -0.21599650085258212395 -0.90643827877596161446 -0.76178543211243676669 0.29008519363393686641 -0.43842748312161899937 0.17436345758631968672 -0.55278984945455889033 0.9157229438361050855 -0.34427465004303842155;-0.88410302151196318299 -0.64502341744648994393 0.032095042092707803949 0.3475835799657028824 -0.27496586331809136361 0.6408945042649476509 0.1566020563887253747 0.086635639630575272951 -0.66824432537483280381 -0.46299323695742261586;-0.08937598315248408698 0.19579845737827378249 -0.24419899411040149606 0.32477398506036381232 -0.5874231921109910326 -0.16981670078187346973 0.94752424863551254486 0.90052207775045534088 -0.50425517477110992637 -0.027736473013548507138;0.94234280063277753303 0.47992699899425206311 -0.49029395701388822637 0.32476908200845250319 -0.83312012248168454409 0.12861369799907262923 0.14761855188269529249 0.87722761325151066281 -0.78494007788297459616 0.11189943761269191547;-0.55701957432135640325 -0.7174080273004096453 0.068395565180482204015 0.88762206136960297709 -0.66022786754215645466 -0.88644229449319167369 -0.42686490479344241233 0.53645921121659201347 -0.34431341739830922943 -0.32143614451694751954;-0.44336633847734524538 -0.70442574736768726051 0.82022389623986713403 0.94490170542168694379 -0.2295339093105308037 -0.66927030709702595157 0.14223166731250858064 0.19400203144526706467 0.66859686477784041614 0.4484233467680812657;-0.46990724115623966339 -0.0011343547549221718283 0.055206699020542170098 -0.062005640726579394628 -0.44362736682083769857 -0.63481985988341205207 0.85087736630425714335 -0.045362070290493217151 -0.39367409664072355868 0.67030933891290467308;-0.25076308366735294841 0.35039332882304119465 -0.029706072231119342447 -0.38126421702997853602 -0.99266513907674325257 0.80745048186722490069 -0.16471127245114144944 -0.57287053961105804945 0.26544483854072675744 0.3207116312198042829;-0.036775094711966299643 -0.48558131970061546578 -0.38986735224683921608 0.19029221290868447714 0.54360001080689823727 -0.60073013360572702357 -0.7806239971538778688 -0.7410692331755537321 -0.42650761104099532695 0.37505671446036320527;0.48940360105631697252 0.31884760331955547263 0.69731715345990441524 -0.77999452192171592202 -0.67117062920504810819 0.083045995234325403755 -0.96770591341550127318 -0.43959986194788314151 0.83966750725564609503 -0.45528503035963047152;0.58923980491449634567 -0.074626602021135204912 -0.056662097640741197757 -0.77866456181016374671 0.20662215278277934472 0.2390871428311038549 0.62289110660185098567 0.032663639517139027302 -0.28376546018372555968 -0.3002030900848531858;-0.62367369484197221485 -0.51961192971324277057 -0.60240113235449854745 -0.13838008750010843961 -0.67595365148540131894 -0.15994974095211061949 0.63726799614707119179 -0.59854206178120872295 0.17231467518309603881 -0.26444863546196406556;0.14893144935463914491 0.15481862612169774995 0.82388228388408635272 0.0097633521515211336289 0.10335994109403785768 0.47568539725209468827 0.28066051402501335232 0.83226266435896645302 1.0048899442975274265 0.88473189424869247421;-0.83223393331405692841 0.15402055079921259106 0.92284131645134293009 -0.57068249731541476066 -0.7875212983778895337 -0.54378265346699061755 -0.4143778884161810061 0.56663945356266709474 -0.24648239080050768357 -0.28946782016560390627;0.38034667846056541274 -0.24499016006817150859 0.54441491603913971797 -0.58245483149623711316 -0.055103279222082655886 -0.3430610853059289922 -0.67781965560667056803 -0.79751152510065936863 -0.048523792399235883555 -0.8424883647042089585;-0.71615481966287186655 -0.62387955029079200653 -0.74536121241484876165 -0.34271036073898725194 0.46049405774783092049 0.56120814407859587192 0.34874729299260859294 0.6592481391290236914 0.60629662855161259305 0.078138953260463731021;0.69214718003791930734 -0.56046043409481405284 -0.00013792790007419988754 -0.9666132013683429447 0.53012057516194677209 -0.32548668706609601431 0.38445459780508439707 0.56774547864577207257 0.17253858380752823409 -0.49908988407011267707;0.39577500496444828482 -0.21887516563336759101 0.17798631165520106823 -0.32992663966767621364 -0.10792440848020104505 0.87700352869469222483 -0.74455641587117937785 0.9684852399302703585 -0.12324767809022051102 0.85893662098291223561;0.65593268265434057085 -0.20626870893215906722 -0.97064825948290855973 0.96990096885931575965 -0.94890504104284656428 -0.016515476822676841001 0.16794901042922003032 -0.55646144732646607434 -0.55858975956868539559 -0.66190299926005702336;0.63322899766042273217 0.96586203534146830574 0.65988171952268492859 0.24709636745895607879 0.46104275709430136976 0.98554682925920911174 -0.52219090574019311202 0.87688671291397479735 -0.23973661452672509475 0.34691796985769568495;0.91202815166090211996 -0.80466819200382078137 0.39857828111472531907 -0.14158682495920751898 0.27203993983614471741 -0.93048853746906590167 -0.021762741206399101312 -0.51442518905840772803 -0.3288321652392500738 -0.046331673701765094253;-0.43039118582018243142 -0.89735502014476664634 0.33303338106795465912 0.7766533119594037915 -0.28546603905725059791 -0.075396399230027472127 0.88604169715313119138 0.17632131959425331735 0.4071945995579229205 0.30575638417587924778;-0.85097066163135925976 -0.18607536993870746334 -0.22171615408876171882 0.10074463277655248961 -0.48019545672888019894 -0.14698767670681683883 -0.28502083480154949413 0.61427630118527765113 -0.034900026050800399269 -0.6222119646940633686;-0.52075834896998718371 -0.18485224293679866636 0.76831631739362682421 0.79013307804415522373 -0.22207128298480502404 -0.50183326575712994266 0.057058332591027015324 0.55504647194950085254 -0.9176108988328692817 0.75245346594916084904;-0.41895148648371255407 -0.45935081564044888403 -0.022842315712694190311 -0.71530685125917969902 -0.25696610877776487891 -0.83988408957041305047 0.91668431016861251504 0.48603053112202682096 0.96896419623285878764 0.033870356176101214241;-0.81626052754003664003 -0.97010034543384981998 0.33574711914313831729 -0.56035516871548063378 -0.42705224268808650301 -0.19088273580674428032 0.26778224383789661633 0.85402537587640892092 -0.76329554731075077711 -0.57539498299448943452;-0.74823029956838771337 0.11657333931843286146 0.81062443437665432366 -0.81076248465579248137 -0.68950525807632001563 0.99509062558454575154 -0.47357717006898780721 0.99811869777678585702 -0.58377122356139810044 0.2257543473819228208;-0.45095693421813892732 0.052173840003000959697 0.41219219888510993943 -0.20482292654301675894 -0.34185616761186199408 -0.48568527318534882031 0.24708151689716975619 0.84141324351252322344 -0.43463989488734683375 0.6615101223604948899;0.084160863232195515238 0.15416075442741211665 0.52323893781737140785 0.8204635054537301464 -0.30283092908078834693 -0.85460096464664525584 0.5401716082777541228 0.50750205759048483412 -0.52640269243003356969 -0.9679429141353411703;0.17419344179591786381 -0.73279566885367020124 0.41162324536389016671 -0.35268664206281236106 0.16323546954778400675 0.16084645225359034404 -0.14301070085314304681 -0.84770141445806723723 0.31323857433788127036 -0.90496029445376291456;-0.23416681672965447558 0.68588207920387855854 -0.086828565124405412967 -0.81064380033131944181 -0.21113643834433293289 -0.03784066573630490149 -0.86601698844281260747 -0.60177595901122105104 -0.75966070918934680556 0.29362002480037374674;-0.82491968895384171212 0.42617138702367479697 0.2451536000768212431 0.64708942618721443374 -0.20321060766430848465 0.9592169023071041023 0.14412507017260553499 -0.44926358567592833415 0.33099739758210994234 0.91193965224628070754;0.47694292565428014763 0.44115233374546436451 -0.46889354575273783921 -0.40916529712847304889 -0.22143907835398360384 0.55474198658459605848 -0.3884032685200043411 -0.97617507201961739582 0.40914428769654387352 -0.75271550853309832085;-0.75173433968782998882 0.39154517006589478756 -0.11624689959519182714 0.81557177524557766812 0.74605724612542845264 -0.52091019703689256382 -0.079732903192728007968 -0.37295362230551493132 0.68952338964796844323 -0.91129233213364913002;0.40267654657478335611 0.15722313672436788456 -0.24655476769416390104 -0.11439775120975737011 -0.49729743062516362784 -0.5025587987827105918 0.2408328208010686311 0.2918340305437051585 0.20070725349693127604 -0.45414696674644366992;-0.74866435406430709154 0.82849942931376963084 -0.31685543788570202928 -0.04148274105955650215 -0.78687342454814557247 -0.70356434393259525972 -0.77788383434661534377 0.40992298972076079977 0.49846767786822271384 -0.4523095699992561447;0.58507304145558947095 0.76024098051305200041 0.91307868371740363855 0.23985011777560488744 0.84167019016500344009 0.90049644576043197386 -0.63587734283535646274 0.71168540827432624774 0.39020994003676279238 -0.2999061497060644399;-0.35839516003062543703 -0.4425834791816186109 0.6070061341498924623 -0.60864470471731058066 -0.69778236335207366459 0.7756453901639974724 0.69186036215344648426 0.46945161342488361811 -0.27739569685566156654 0.37288507464105757894;0.8359004251682838893 -0.17421523159306390172 0.88690262419298404595 0.80293565273651201775 0.53277464439118371597 -0.83449538922379684625 -0.72433228323522114156 -0.75087608198798372339 -0.18881485678745488221 -0.10780425370949640873;-0.63286332591145910698 -0.16659995338646158003 -0.355379470916180773 -0.38735490479513384754 -1.1008968291365508474 0.90769398040300564023 0.31515415200223795278 0.60287751330911576453 0.42460804798318962927 -0.19411522272816372769;-0.41615432545315006463 0.083078667561135716157 0.14190750123653037007 -0.45422234331600125357 -0.013060095952671284605 -0.27978498366050064128 0.37094797656617745085 -0.9686906742305314566 0.30900712281915510005 0.81786422549096970958;-0.5056979877138545465 -0.41521158864566065638 0.38451986092441409193 0.7348945575266853103 0.09995156937267371533 -0.18454376065789260264 0.022326986358988061554 0.99745743438559630878 0.55946654865915224075 -0.39276975643532330285;-0.01174584412659841412 0.90223744020935348065 0.84593628801157183528 -0.37415300425345132673 -0.098056382717870607668 0.45354750626323192542 0.086559968211394333615 0.022764163894900480561 0.90111488654276350463 -0.47030637790241192064;-0.85456521968800025491 -0.054381586298454694106 -0.70600310504381180721 0.59848800676399582787 -0.53940989901049585242 -0.54765089579989290058 -0.28023375760879526419 0.75536407074476152879 0.47475885460899730495 -0.77191758923785680491;0.16610167379240481367 0.62966454100385149673 1.1555840485731476708 -0.58443740757664242036 0.21301319667391444002 0.21906823188144261549 -0.022334077276058312417 -0.031995130481479831797 0.97332665784975913592 0.0092660589286322689317;-0.26614814096397709786 -0.93987208607500283275 0.93270009704130385497 0.35297051781757077249 0.45735675648660401027 -0.78807731348530118964 -0.42063879174028934171 -0.34026947295547754768 -0.059202999156601446296 0.17453152899063406611;0.042380306435199389947 0.49294373885605791141 0.52198436322791286202 0.40467460306054781061 -0.10802576866781550546 -0.62120138878921160597 0.34115408097573363122 0.66378084496554556893 -0.65414833771292768549 -0.59070468585780622206;-0.084426312923899266005 -0.18499914078199433676 0.4456247354426640106 -0.77043938124127253619 0.55707353674755843986 -0.89978285440588967603 -0.0073259302756392922357 -0.95644552793796355772 -0.43392838764925106831 -1.0083187720935409271;0.53507889038647660218 0.075810367781280335597 0.46797868845516910064 -0.31541878069573803245 0.4747139900858187711 -0.10345889790837174693 -0.06424331377890678263 0.25708379380360246724 0.010451042940683183055 -0.23270785819711092834;0.60879452489830587769 -0.13038314227512062815 0.25372859230498551186 0.13532644716659369966 0.68085101665343672472 0.39357556215060934823 -0.09815212262490306816 -0.10465633943117200189 -0.24870647566921164073 -0.21678169022481108552;-0.4440927299629211511 0.1504935337109936655 0.86024327980429693419 0.07528235851947737145 0.36138204792019074096 0.79701508609387294868 0.41721708196587281581 0.24265400384720822724 0.41033412470119479121 0.04455293493031529245;0.17185310536049114294 0.053537545144143487696 0.96139125721932661151 -0.72251009448195557816 0.43333590175647873632 -0.42290034226052691801 0.081129260699887614794 0.2394989731489441942 -0.36118208020104508593 0.39906863192367120208;0.33249286775850328546 0.17855943106024521616 -0.13068980790548451187 0.13362410049135969858 0.95837037291325144484 0.33405330775637909202 0.020457040323494934952 0.38306721547155803131 0.47235769502885754934 -0.07398563145048020484;0.8597179522351826586 -0.82460834880145250647 -0.80732654088058164454 0.76501050611356113951 -0.9259557068119045331 0.63926688930209119022 -0.83041156942404625863 0.56744209966493341923 -0.15568294178555325269 -0.98696317159863578006;0.038551933982035949122 0.64859656284474431764 0.13990658462485716651 -0.767377239113390619 -0.24284937990498398075 0.090273522622827104267 0.02170985158056891115 0.34649512526590542372 0.4764612907522594587 -0.505108234458422789;-0.32926862592003591779 0.25509425814695640966 0.0029439218913647679718 0.39321203080066563507 -0.5056361206433533928 0.69854196492910547445 0.57701329823446945166 -0.58041971001824510523 -0.13357350274288246061 -0.99252660591888597352;0.87675870779415099321 1.0432777912630315509 -0.9693080726395371105 -0.22605096352323791886 -0.58115622069158456853 -0.74941794389266880305 -0.21279310742630574982 -0.76853444454092456617 0.83802182575631878336 -0.29062455003120374331;0.23691310968956724725 0.059455091817010509436 0.99404140069964008752 0.12488539675408909246 0.23683322627991695852 -0.32462501510876795585 -0.26617250425289218363 -0.29630190000239531312 0.11432980404595950719 -0.14366506611240353886;0.89385356212977140622 -0.343545903986536727 -0.66125131942512338501 0.28816140904171805293 -0.075501991167237200719 0.40184019906731865968 -0.55967553678759385249 0.57697871155329150117 -0.10677153938191275007 0.50698217321015626169;-1.2640556540447649425 -0.52731937536839468272 0.34962972707687883789 0.77720266832500439769 -0.43205808257072497724 -0.8305434270411325981 -0.14126048259057447098 -0.57192900435520577229 0.53682821194641050511 -0.51637438388150336266;0.30878697424088263901 -0.22709882397136435528 0.45242779886606632189 -0.50727638213605585893 0.30150638550034691843 -0.92346577764642989727 -0.76376598439559217901 -0.21132982412286202556 0.03582889805573758607 0.32642491386472921588;0.016880254775087356195 -1.0903942042009198143 0.60335938034015856868 -0.49336792445858657086 0.12342717577372958049 -0.4675425119407520258 -0.014146201747058131243 -0.0746045028300923313 -0.65042529231141421597 0.61934749668449418092;1.0323840139641968783 -0.75124715741358916166 -0.85633339807854269576 -0.80169994456585891296 0.64650800231747818092 -0.14827163892631292641 -0.75140081588803497858 -0.6546233871137822069 -0.87094254052523545351 -1.0694367861574363143;-0.60090595066235441557 -0.19139580095533209603 0.012415883610774450935 0.10486617574934062325 -0.27890465623740662293 0.37524957321981489144 0.94860741590598562922 -0.046271080281580480309 -0.44367661602193503301 0.22593088743937356222;0.40114310195587976615 -0.92396339925390680303 -0.47434806556340797234 0.87927407519868061581 0.30575623687145453422 -0.23632174839136155242 0.90226947586540395818 0.080055136701987550385 -0.55894286013714600259 0.43392862407711246808;0.39956795021829955017 0.28723129079739861957 0.96666785371496743995 -0.53298152364229811617 0.96607186576433512482 -0.98048073388530798677 0.14192434840684614583 -0.20879518123324672385 0.53445023592104690113 0.88859737355518886304;0.28492489224298245265 -0.036636932732595862972 -0.08093699055658132302 0.54674683362923581775 0.0029178417733011314736 -0.048924545914764694388 -0.055084404270834455564 -0.35411921247566974236 -0.42030102695843113425 0.7155579347453194794;-0.16098924759165311738 -0.10379554830827564249 -0.33807883145694384019 0.2340171095209005736 0.23005409637610213514 -0.14702653092243317401 -0.75023246885492433922 0.89553811187399623428 1.0354474076858297682 -0.73998414951056956657;-0.1118524139482582197 -0.43938323286830432979 -0.24435087478133463157 -0.97052294884555556642 0.0092349133434355482053 0.53847486058993854208 0.82084522919039260014 0.82729256226720249146 -0.47109819919800244303 -0.51851299767674330354;0.23918768213374208553 -0.64209728428899526254 0.89131770571235280354 0.1000937255865203962 -0.43972592824180989357 0.40740820646926062532 -0.18314490870479652185 0.055663228567493866494 0.61839660266063645189 -0.72995274879649529876;0.99073590275736733712 -0.74709885003282550109 -0.47375744705423539216 0.17466881315273316555 0.62174538963776859735 0.092691512761634370365 -0.10578190311119754774 0.049328097726054190297 -0.6852623698144691966 -0.37673717368083015078;-0.43222249323410832922 -0.96855731984931814349 0.92516736458076653804 -0.507316610473586449 0.56557100740966137487 -0.81840219920615109306 -0.46721732440235236306 -0.86719275562994402318 1.0030498202244435557 0.94217230224889692014;0.86001891840764821406 -0.55602162798480136985 -0.13527337789990620531 -0.85666080034688141254 -0.92315323448140396145 0.86461219204567862917 0.7829601722037925482 -0.77977411808851315733 -0.53573441937437793481 -0.68738602874995835545;0.84379238209977758256 0.39597522301711757242 0.17965676691610663052 -0.45020079034867249712 -0.93933835016619959823 -0.63171736401725209209 -0.49392217763519985496 -0.30158782684847385003 0.5662306221044507426 -0.56639956104401723014;-0.58207029066931637029 0.65663762513755430383 0.9561702949222207204 0.021563194741280943684 -0.15027673664869045655 -0.97417448176979348773 -0.13992157316458506133 -0.43952393293102448579 -0.40035101618444951521 0.67173037105261246271;-0.11738825930733315372 -0.53504733287921635299 0.85711067589357514684 0.86518398102844829012 -0.86554812594297780848 0.3186477362367727828 0.3612934836558903684 -0.094276808867761144328 -0.90873987806425993163 0.17046685262702315766;0.56769469018638674118 0.43386076316023725052 0.38880999286973993989 0.19806319796633381491 0.15707469711204496976 0.858124834429885186 0.32890301139542815756 0.76750237292265233169 -0.038961207984589914244 0.5618466153794184903;0.58671630324408763357 0.38621363338369707474 0.94223427253608937892 -0.21788050253798257883 0.041287122063500727998 -0.55010139814644365419 0.23662885673312594736 0.69926703269714951539 -0.86483684185366993535 0.7377513787438753079;-0.48100369894766448198 0.80472490134380614268 -0.47863297910792068635 0.70806738528434487456 -0.87864569312616902508 -0.012781541697180931472 0.22416727907172340206 0.41101166320410165156 0.8290060662615111875 -0.20579345200893237045;-0.89255777586909623711 0.65134910113472010984 0.18605489929134491622 -0.073761238632969960971 -0.62403780636636618784 -0.27266622986858757294 0.78965099313908460044 0.38124742301873548733 0.3199016708427592226 -0.16995551364918215498;0.91997399008037050727 -0.80495120349755411304 0.053959815237718485037 0.45502162838606358131 0.48325544626263416959 0.054926465341474918491 -0.7730949398798625527 0.88980420466880727481 0.99515988978340463866 0.39327403249265635576;-0.90162533755957807724 0.34848461573600647556 0.95531473385968279644 -0.68081783086807368122 0.35566965820292767431 -0.92299011014041054679 0.19594008000504165024 0.80768324929919144139 -0.039816848634942447749 0.74272735279657020602;-0.085789143079269020165 -0.8024355641409575135 -0.5374423556771431576 0.62121705176725394715 0.49391102459808067238 -0.87763394187154242232 -0.56889961424056978423 -0.88740163787994896794 -0.92497186418194599078 -0.83357938138878506784;0.13129597845355781005 0.32577972088621870439 0.39213717542366022251 -0.25124429316172475213 -0.23652129668847390875 -0.1302897231260363442 0.6916428454620242583 0.084286897307874614205 0.23054688871431616715 0.74016935925839189014;0.70876101962244386634 -0.18213765698211681343 0.82629508893121106361 -1.022183893845373559 -0.71808782428293760347 0.61333491170484999433 -0.057467537396231470337 -0.85713526512075821628 -0.9607752036989886113 0.051461764998752199118;-0.31291274931066520582 -0.11169792023750857446 -0.3954514574705939034 0.31426399667100918256 -0.29324053667702570936 -0.1283592769510627507 -0.48358893545234060696 -0.054775867901849926989 -0.68527298608304654248 -1.0127257770365827305;-0.2940878280152562918 0.16165487909060952121 -0.16462962811194312152 -0.08773540053190037602 -1.0723091340287855822 0.80167980846398900763 -0.58258516000157867243 -0.0054366912103030410469 -0.57270197307463366343 -0.82630117033220595868;0.64088481231483129807 0.3964978779444526813 -0.48705255780654943543 -0.65755965874354038725 -0.98565208645229873685 -1.0134282262849503287 -0.1967287698548722541 0.54140582855500496429 0.21527796529525794478 0.65310364124053210677;0.39116811602137835369 -0.34303963440362050807 0.70807887797746305036 0.89574306409155413089 0.50982579759646706741 -0.057623522440688135227 -0.31115452632582263348 -0.41158592034627639045 0.59944555723432546568 0.25025885011490472953;0.28716394997781624632 -0.90569981985787129108 -0.92800989100310882218 0.9087375104974828588 0.42061068846403648624 0.48020390774748755724 0.65070531856920310609 -0.40826681122163693827 0.38288132550576725599 0.44676742610777708808;0.68489992551957767919 0.56143132919219340682 0.73073035231620364627 0.66896493217760766292 0.38045111850122742547 0.62359036795304856327 0.030131408504878491594 0.0026395290655530172751 -0.31199434781165030772 0.063498005311994565325;0.52507784606615359735 0.58545226713967635224 0.35985951172914004692 -0.056669237491280347041 0.24673591959673696339 -0.30485186960108995313 0.31209867538577923396 -0.26467598722539087408 0.49481817093269364616 0.62905311588895151953;-0.55091240050191569999 -0.37302933931707710213 -0.73680284035499199469 0.54815223367317644776 -0.64129597805410676337 0.070812010018775489728 0.069195355862709209682 -0.20806931287297619759 0.48914380661535977746 -0.34162662644063163109;-0.35140718308626861521 0.31900498012188338581 0.38316162266658831959 0.81403602373868888531 0.40663250371135378769 -0.66517768956075773445 0.016050487845731830489 0.22022676454559372838 0.90895017561662927452 0.58500673853175577666;-0.10059609033706780334 0.32163947068652792849 0.30371939986004586887 0.18667124094949832935 -0.37961303760486420078 0.064917058842912392369 0.10120182233291095952 -0.49164577443205270679 -0.71622566418728050852 