function [y1] = myNeuralNetworkFunction(x1)
%MYNEURALNETWORKFUNCTION neural network simulation function.
%
% Auto-generated by MATLAB, 27-Feb-2021 21:36:06.
%
% [y1] = myNeuralNetworkFunction(x1) takes these arguments:
%   x = Qx11 matrix, input #1
% and returns:
%   y = Qx2500 matrix, output #1
% where Q is the number of samples.

%#ok<*RPMT0>

% ===== NEURAL NETWORK CONSTANTS =====

% Input 1
x1_step1.keep = [1 2 3 4 6 7 10 11];
x1_step2.xoffset = [787.680069749841;787.680069749841;787.680069749841;787.680069749841;97.9506588460728;0.117480979256367;230;17.7343967007739];
x1_step2.gain = [0.000489275825865936;0.000489275825865936;0.000489275825865936;0.000489275825865936;0.0202638354969613;13.4025135369384;0.00122699386503067;0.0887845491100083];
x1_step2.ymin = -1;

% Layer 1
b1 = [-0.84224320778053640701;-0.91298166783597145546;0.86546120143661087187;-0.87433135679581530653;0.77585492861233307238;-0.93599318997418567978;-0.89037348842444163921;-0.8683892672634166976;0.75617355518982531937;-0.90637327788990962318;0.077797874406345238207;0.75278265673570499139;-0.83722274299597854164;-0.93094561724654578683;11.901674168991021929;0.95539867571171832594;-0.96006015952149337256;-0.98520523114097202644;-0.8694942009970072494;1.6058761062381241569;-0.97711371786619294344;0.16279668798635274496;-0.69814973256358003884;2.1094415557832091324;-1.3700446863129043251;0.92999349174653356265;-0.9416256330457892787;0.9733614062701159142;0.80883870215514852564;-1.042849704939326827;-0.96788653714745398471;-0.84439849915333298203;6.5327782254991095812;-0.9347337659102105123;1.051105147615809754;0.93183435023932070784;0.84304293632019666749;-0.91491374480050124962;-0.89339444928682476554;0.79121791684306863601;-0.92166102793248660952;0.81628770025873853555;3.3491608779357195935;-0.85202473751036078564;-0.39423758072952086451;-0.97929668316592877186;0.89190517841412486622;0.052777924356370457815;0.76365777782706012466;-0.78960716165298461267];
IW1_1 = [-1.5838424196200238114 -1.4704357820348363806 -2.5719740320782635834 -0.55173175292085196997 -0.037407744270956430621 -0.69343326449473929873 0.061057342820878005019 0.690971190485460518;-2.0495126551461262387 -1.5955727006582953731 -1.0288380916820039079 -1.7143449444714859986 -0.11387825788305308561 -0.55767781955497308655 0.12509008209235392139 0.54896618393280327552;2.5795021115680176749 0.38811796785294055967 1.7262060716909239932 1.5443178123092449194 0.065430712055377190928 0.012955873838283111024 -0.079973830446083027379 -0.0028449102416015815964;-1.1759145248526112759 -1.8503787980371666499 -1.2756509504943691624 -1.9674405824832459366 -0.055359306748594801217 -1.1367718921206155791 0.10262942482440801095 1.11459916962820893;2.2558413275455961866 1.4493058358077812731 1.7535057348206868344 0.13392177637696306425 0.056062034200862066735 -0.66474948585399118439 -0.084015276022471829798 0.67247145786099715714;-1.5717386113985600815 -1.1826272518196940808 -2.00143260691102709 -1.7955182007231758057 -0.090584123030416491273 -1.0996571046149781203 0.082383006523677651534 1.0868482971537161141;-1.7007295941431064268 -0.13669068317964283565 -1.9299287739563988353 -2.3986445270154845844 -0.094573601571576973446 0.18811331885730658842 0.090724226704714569514 -0.19738176742563554034;-2.0685460104908144352 -1.0511889512865468799 -0.92202259759061699906 -2.2578974765063963837 -0.054130551345907794436 0.35082838918777931037 0.10262744063662183891 -0.36326460986882203041;2.086383920030508321 1.7218425254748270792 0.78866169584577472396 0.91655674397326702962 0.043431337457724941697 0.076846895370162190964 -0.067763962542419287072 -0.062930775254923146389;-1.5029418518107091618 -0.83375810352758417121 -1.9624942971083283449 -2.0961568873373446209 -0.096016688972957453529 -0.094246503783407681309 0.12776618627935465433 0.080348277736703666019;0.34356104070035342612 -0.6755573125083692565 0.83815195453079349708 0.20160003505512896771 -0.019363437515924831339 -0.49285082853251122037 -0.097249335662277211489 0.49453374862314386506;1.8341459523952954314 1.5198458498793616656 1.9305536257598556737 0.2947191172313453067 0.051772341055714155011 -0.75438752965450628363 -0.097471523287777583899 0.76304205600658026043;-2.5664242753870070146 -1.6977512564646159987 -0.6008623207347266737 -1.1961137381170421357 -0.075485201390566497581 -0.30823050527526230091 0.094599638131525443097 0.30032510700288767014;-2.3573981477809899943 -1.0021899762380108712 -1.2814044945465232761 -1.8539287646150559574 -0.095915156839555898438 0.26097289816530172546 0.10858348014703082807 -0.25107426693040812982;1.1207955700425813461 -1.0636470492121448128 -1.513637814261857395 -1.652407733748851193 -2.2521399311149017386 -1.2337175877336814533 -0.66010630027313910162 -0.63195699907434244036;2.8116675300213280764 1.4657414383719964412 1.517764028016888922 1.1445363660099296954 0.052670933374919806647 0.69509085130171610611 -0.1233824281969636838 -0.68557305909377042052;-1.1022623916215503748 -2.1383727597778623419 -2.0047249316067081715 -1.4671780841723995881 -0.10013868915143231408 -0.94711255340420130722 0.11068876221543780258 0.94591052897635863328;-2.4198341059038273038 -0.78334835655277179622 -1.0814077945289362059 -2.7052267351873005019 -0.1117633099415803466 0.54570572289836516422 0.12178072652633969986 -0.53875754782923479524;-0.90595011195341590415 -1.5315945930382302009 -0.98256352152357528951 -2.6339031494337166173 -0.095330333615652157464 -0.014384557935852859689 0.10063042406389006989 0.011160337987375498411;1.0560256160046490592 -0.5687328778075501079 0.84747514299637705104 -1.1002131624512734298 -0.01543186722903551987 -0.58780181802692066384 -6.1528993797025108847 0.66813515222337671595;-0.99453437550033374492 -2.3100990882351344347 -2.0791105196317682946 -1.5653186958768763315 -0.068214665285668288353 -0.93166297919140306227 0.15507164304352238915 0.92099133688172396539;0.62523344751310261369 -0.98208981264327988026 0.84457399540741062705 -0.96380411773412755227 0.014326536239563213843 -0.33337642737291217632 0.091660508189798622913 0.32263809859132908109;-4.6239276748457340815 -4.8339239316128894686 -5.3931001228450297091 -5.0636987107469542124 -0.31033431878935985315 1.477894380613467451 -0.41596288865512920374 -1.4562432519887926752;3.2702618157875833482 3.7297043798197577757 3.6542407782822414752 5.4714513302051548393 0.056704502957296509802 -0.84488494498206767602 -1.3859874625324535291 0.82847434978530876126;-1.9061058796900676171 -2.2460717466266784115 -3.6665208721083031307 -3.5774738153759342296 0.20808528442046245188 -0.78269360378770003184 -0.23146686606352853688 0.81322634735798193795;2.008788447600502014 2.147638965225174168 1.8975576755239309534 0.46868832004959354309 0.10638934828888037265 0.36058349586000359999 -0.10585864558999270868 -0.36039194067919644304;-2.1463661141601955151 -1.1058441660374165316 -2.4487632792298494877 -0.90758398550601260268 -0.090845334681646960906 0.47435274234632573975 0.12796572274130280089 -0.47943438590867198945;0.70454841187664452029 2.3350840765669493848 2.4426980966682871887 1.339767764293827268 0.092629925095052870199 -0.28101320289579362344 -0.15854621065224308585 0.2676983741513350723;0.85557205809871084146 1.7193935750779416605 0.76429559141640013298 2.4022261673423037642 0.065510477181607337793 -0.45766579554294750665 -0.091084686145808529956 0.47363511399229690779;-1.0624962595851039637 -3.2481768080825248468 -2.096754552874245725 -0.95765293884565139138 -0.10245901397220436024 -0.21888673301474423361 0.16600401824520016891 0.21283329253552457638;-1.9898071592465420565 -1.3731268200612789521 -1.5675020411748517013 -1.8334088052728003682 -0.13363810235258091752 0.074956706064400815959 0.12747322018452675318 -0.078212367547215722041;-1.6045033976997564729 -1.6621662839283750657 -1.0404508772533598293 -1.8513971164989828644 -0.039612276354520047084 0.51141725787831660011 0.11596184922405231021 -0.51843505977170567522;-0.46304672948612335404 0.97096421522951215088 -0.39089183644522601524 -0.6634839361342660391 0.083551309202130441545 -0.99125383782407616717 -1.3448617660000088403 0.87158373812906497768;-1.46115559537806039 -0.7263882216731992747 -1.6964215434606169097 -2.74073004879277482 -0.056889578812803626162 -0.15269653028030585884 0.10762945313693791927 0.13908981485909258091;3.4234520681946545295 1.4582433315484810699 1.6511432022728249613 0.92150516204498822415 0.10893907456963254632 -0.2573324464871689643 -0.16008726699092343249 0.24579173626623332383;1.3384143642390331497 1.0958702743020471981 1.4490347585712315404 2.6264257886343629345 0.099220355118881040091 -0.32860462042139637617 -0.11686366135105956399 0.33381774214613901819;0.48384541069310860184 0.71396552548411928996 2.4358812678199455171 2.2890218258831409592 0.085104144057239830556 0.3421375617769565336 -0.084432333235458442711 -0.33150215584155462434;-1.8434255576318601122 -1.582118478081040891 -0.5103698236547893341 -2.6354937812959358112 -0.062989063171287287823 -0.17114868894851023584 0.10958384686074876257 0.1588608258258552286;-0.61723485170517544685 -2.3767529554578348261 -1.3309672768293761003 -2.0101623942545603363 -0.080804504181371097915 0.2681823744978807933 0.11081796802273333191 -0.27372315456790702326;1.4321399336585556306 1.0840320035067327886 0.89744877473080986174 2.3665044187710382317 0.037136555600499068786 -0.15601505433635995401 -0.10269831779985903741 0.15652643730180229587;-1.1645967152423857272 -0.96322984609799944256 -1.483712285303231404 -3.0350372879494740275 -0.097297817977765641007 -0.35609013582114501517 0.088541263855737906141 0.3679144256399550228;0.84375242655721205409 0.14896737687539512995 2.5026399652151498643 2.3395071153437427824 0.061106875312949032741 -0.52677176884230025866 -0.084968657906940220359 0.5331408959176759943;3.5950591629387749215 5.3146176105789209032 3.5985929312630560162 4.3318652060081621613 0.17579225564721379094 -1.1985999985007393942 0.60938967612907302129 1.1137760417051858486;-1.7696011057007605682 -1.1670225175960657893 -1.0466000862422679685 -2.2082630414153383569 -0.057357599024528749254 -1.0348559317913403888 0.11179414778951433929 1.0230211226163170579;-0.23052668250809624229 1.0506600447704317336 -0.20955649349503127632 -0.81336912194024924005 0.004302631989399802008 -0.2963838404033900531 0.011257860857846859262 0.29863722110572071822;-0.80369767927139146302 -2.5573964763929151189 -1.4451599511526440622 -2.1834746902989072836 -0.085662772076997115156 -0.89898089161442373829 0.098891404489749187845 0.88026432362993078939;1.1839406033243833338 2.7293442232253193325 1.1875594906942743556 1.1605971998385276045 0.092126887738447266196 -0.24886301722695966521 -0.095821084221338698184 0.25258843508279127388;0.35035464290792317499 0.88007574305597446873 0.1953201126213185701 -0.8811069352075966421 -0.012667654647051418068 -1.1304650293426425911 0.15719083253285695556 1.1339046945644033482;0.36151975137475955702 0.59181325687832952998 2.2051386348699639761 2.3776698387066046436 0.037354327086279788539 -0.095824757910219063306 -0.082384521620989747959 0.10538900675461793099;-0.4558987543660620867 -1.061431965426578472 -1.7675271783548756055 -2.4310454693692418182 -0.044421313833276673821 0.41749497757450598767 0.098815352746875570467 -0.43009778599323689185];

% Layer 2
b2 = [0.1274959892184721888;0.60414940447854537098;-0.36543006689306450907;-0.50831243972162265532;-0.21030242776986263209;-0.46359239919528866247;-0.54325819378649142788;0.46890136269598842178;0.99866328048551633589;0.14005371687637005462;0.15458932901562716378;-0.57327981119371218544;0.23848037648975506375;-0.6741873563275100345;-0.23892357976688008425;-0.47107142379230182438;0.16471940937907569857;0.09737322601317857651;-0.36205438571327980268;-0.064354662866407230659;-0.02490320862282168965;0.49925777046333863485;0.14715662726133527105;-0.20326044872023904531;0.91841291937570856962;0.59533857740373652412;0.56201106659943578236;0.17694291933999348188;0.43157316448606619641;0.49373497691384776731;-0.22379712647374161438;-0.1470108888137376113;-0.66332518750393487661;-0.45723892589482190152;0.024678065950640908771;-0.1694688469877690673;-0.078190450359851296214;-0.0031918206238947194678;-0.64229102682061611773;-0.4428234090788312205;0.094706920386820353519;0.67460381486194642697;0.1276883406398801879;1.0532463847397008916;-0.1854056767954831153;-0.31973327673804624594;-0.5355909438864893124;-0.3230565027601582373;-0.71542801572036252011;0.42131639160513223441;-0.38577567727760658789;0.055819714135615115802;0.46153967654656674613;-0.18422354640593377462;-0.2009273512833422981;-0.079018206998710621702;-0.44434794101718305681;0.034755942129160118104;0.22499975405100494652;-0.62811089432639810592;0.54077720949656404859;-0.52306575401005395154;0.10133084869526688687;-0.010869367487582723766;0.27465626601516474059;-0.098399597346384801155;0.50543033829827610504;-0.25275176396704407411;0.29650972870890879296;0.73439398162561086991;-0.34737444615451545937;-0.54571645244625477389;0.65735109434472693835;-0.30790747596496109706;-0.79938986344953844032;0.18466201282314928522;-0.55662436522193103894;-0.22869270513329198469;-1.0050807451076841925;0.29557498581152169548;0.96238331524670517325;0.20020525564535657237;0.55634665597599697318;0.042574312825849655595;-0.50845631512498123961;0.19477923836947402814;-0.53146542313710420924;-0.54138900092378661189;-0.34828613347024467428;0.023856608329016627812;0.6973207916106105575;-0.51524848077876639341;-0.34688041324366469809;-0.080228121536823723825;0.35145084528339398666;0.26489262969695698269;-0.26377868206016397146;0.77194219465533175928;-0.74451468736455450603;0.53105693346083560069;-0.063177231511066772596;0.09213695057799346777;-0.3639328871079694494;0.80699194725660827743;-0.12532283346500669441;-0.69335510256094223802;-0.41312819926211075128;-0.26432309019488964275;0.25762094460165246845;0.36186508701756769923;0.12611494801119604858;0.018364303091297131537;-0.24886095070934807771;0.3211974914617035104;-0.5910977726668175114;0.12785566986572910464;0.65930412372367341867;-0.14314681821643232551;-0.057471549805323832172;-0.5517863079811337057;-0.25042388949797339537;-0.152678904176073299;-0.26186835585281131866;0.19131830417143130818;-0.59482815367806729512;-0.41201082642354769359;0.47185465059209696914;0.80027816818444452718;0.25745545308342560054;0.62082117774295630941;0.025522158748139872619;0.24950635142509280939;-0.22701773620523429953;0.13356452011006461622;0.66395690361552306413;-0.20797308555453880574;0.75918553301946012368;0.10586622461512716631;0.1673894040206974354;-0.99316005694593378905;0.15135053461015546272;-0.63613899689106179203;0.61418706193051664233;-0.64696258294979636094;-0.86665426914133225633;-0.4256796015186297133;0.52630162214053299863;-0.044365254511895303724;-0.037381822864887288838;0.10457605833043628896;-0.19767807057433114948;0.15002524214459411755;0.22506093152843018035;-0.49445176142042995826;0.79201803974801598951;-0.16024460630226325386;-0.25534360681962742223;-0.40377288701806790527;-0.36975388465206060484;-0.120471804236290711;-0.2669716786594472091;0.053921750738213945764;-0.18429285851019261422;-0.27273640659883119364;0.08837566483158693087;0.42645827004913955394;0.13686782148409840087;0.46695546115125513564;0.22785710943972697917;0.40775803364865076395;-0.41384466963999400058;-0.0304593260383198422;-0.21053939655162823286;0.40868229848358883505;-0.94267320924611230915;0.25023724370728345212;-0.16534221304694046717;0.41077946028499334741;0.4081797812887551502;-0.17319777707491873509;0.15995858493262757327;0.04156297753922120336;-0.73576588022991518123;0.26231981246952301712;0.24406048306727357033;0.3758511908003890345;-0.20924919635567162945;0.41681069573804235828;-0.51630185480660562014;0.1460956241966843705;-0.10302963731499159561;-0.21649285376042612383;0.73315820989576641065;0.11022692272114310852;-0.33970038961444237735;-0.35425001975182629499;0.17959740630933015981;-0.53653905084791708724;0.8302203861650605532;-0.051886244653023487483;-0.8669407148865896362;-0.29208423923964271784;-0.29546021068547234645;-0.42896373188068381843;-0.57466819489941589616;0.31207586139682585991;0.044315348359640155396;0.29567847592163154502;-0.21244977858586042152;0.19614475043426790601;-0.20407114787669589084;0.2085221235605954071;0.63950464779490079348;0.55766471486622659626;-0.033102584391510148087;0.35871859675412126611;0.68570159259821883424;0.67872530623580684672;-0.80917524569624854625;-0.48747477088683272006;0.52270446821132021675;0.28321061849478157413;0.28903065656460358301;0.044628522387860164455;-0.44527897592319204412;-0.45051109197073946344;0.22920408346428869373;-0.51751708003851970563;-0.28136309099992606875;-1.2940373495864825326;-0.36522886558355782682;-0.47899541792418304231;0.36052824865900312545;0.035203755512289588991;-0.089925156867730671184;0.67754453174543916028;-0.24378195131379440386;-0.38016231909986658577;0.60237882331591852125;-0.46933111555939033277;0.13758035804028931337;-0.23715124878385149265;0.25476834888136712376;-0.46693957763340721012;-0.31443894816529788239;-0.58432346871179297043;0.090488958305928776649;0.30755604986100892884;-0.096094522733914139456;0.11289250746973177042;-0.47652730377133689643;0.46454643068117101867;-0.27882560156234009741;-0.35270523544928050752;0.63660182835718515104;0.10060017076771042566;1.083663999395878319;-0.44018840911873780009;-0.4920957313791470833;0.09330174823652735705;0.55533319316030704815;-0.2679138476212641895;-0.052377216710637129748;-0.30256807297602317242;0.52577117906007242443;0.091146831411126602585;-0.21392989342329615798;0.24536994262051198268;-0.97187799071117397798;-0.058488941781553817345;0.18838188966645652567;-0.26621136359869368437;-0.92046769077126644465;-0.59044920258006283742;0.43569510957658380557;0.36762400002245432251;-0.22800710993328435205;-0.076454995120663324371;0.15975882558979920267;-0.23618013527312167743;0.026020045084382794481;0.49142664808139097099;-0.60744146277519428523;-0.44867129367305191856;-0.44246639549380500922;0.28540981906484774733;-0.23194980343078144824;0.17722257558366991126;0.37668547041779498752;-0.31066833742967819854;0.35359262790746548433;-0.28734987952192303506;0.68497109137641098986;0.31619311249279785647;-0.34338108961273350328;0.41867674507533303441;0.47488272405408643584;0.29420069073077453892;0.70733233505136017261;0.35068081165203207616;0.060127468664220251604;-0.6613998890681885845;0.2297465773867110872;-0.76978306328514678469;-0.67531687143723806432;0.79311958620396183495;-0.11770472632761036502;-0.65308838206300434681;-0.30974711769267193606;0.4619476229125464295;0.12567620401252579954;-0.56132450012430701314;0.15033328796704389929;0.021130835000742483054;0.59783460878242433711;-0.31967733863217884238;0.95955020282153424827;0.52449943147592203996;-0.3904817110973448635;-0.051986028986587135003;0.097176958175789876493;-0.29302102212413033699;-0.016509355884837571132;-0.7710168903205846247;-0.57061913650982254431;-0.70177795996548364421;-0.60028658922601263459;-0.72876431202756097871;0.90304802889843838187;-0.31447846463545503504;-0.47753349948905182698;0.11044748636789183949;-0.52298479331101577205;0.0091044426287899028749;0.22875639330624980561;0.044000851216548696188;-1.2426439243743079288;0.16494583160437070735;-0.80017590892622680876;0.024613348356244436899;0.13633445788512602026;-0.77669612913826668876;-0.32268305740893049594;-0.022499576228380384346;0.15391052055030135515;-0.72583539986812817268;-0.098836062785267422837;-0.12860528361230538774;-0.27986030466892791724;0.27154819997024198797;0.20159024157410057598;0.0029283229107389631071;0.077171315644237944986;-0.24071521560707920262;-0.7642760257578929961;-0.18746304773878194605;-0.11346368083354843592;-0.75622608425094883788;-0.20141993280063141825;-0.72392813183074145034;0.15272945335811233258;0.701659616829113153;-0.80414103293718630638;0.82241079632759261919;0.59384069740399625381;-0.33726533585896800727;-0.16307660746547295028;-0.64505550889801854808;0.79250651222851098421;-0.13407312262487119936;0.65387502814680587004;-0.078958185520817139591;0.98352407626648397088;-0.16631528043287566176;-0.58974446807998370801;-0.1488585231635259909;0.35908044592114152227;-0.023263106331208014549;0.41980292130748153578;-0.71875771038415969816;-0.61102995948342420096;0.77787186221351878324;-1.0101197019525292031;0.35928603409468146124;-0.06719271949910506081;-0.37979761292248315208;-0.68774751798355970855;-0.43685934621326649729;0.13131121052320690601;-0.22994352007651916447;0.13792116031489928818;-0.4933332471677224218;-0.3949796988906326134;-0.032753033021251334866;0.17154625401887804714;-0.25588819737146351052;0.32784960876933216811;-0.28525691766667360394;1.0659729181556267807;-0.052812843628175711042;-0.31161766670400253831;0.47823826811232134082;0.18548396436218719807;-0.14050108555861373638;-0.54320463625626480564;-0.22461853974805051637;-0.5247660224921242289;0.31547346287049510272;-0.8705266932880025843;-0.56249021957618638989;0.25297793648182770321;0.71264985636733402252;-0.53180537644769565464;-0.0669588931387438413;0.32110884276623236078;-0.84646932483952996851;0.43992477870801000028;-0.63421763370824990602;0.23956191812064930868;-0.12636898325709305935;-0.79398763648253334324;0.32917748335679741789;-0.12498078307667317977;-0.34859156806597174638;-0.066599704633258219322;-0.91613945350803105416;-0.64393291667515528687;0.15981110429257150418;-0.16120459290647176642;-0.13172839391023410949;0.74740317655790844409;0.15494268388208676246;0.27304381355699292033;0.3308385526611237748;0.32001807359181355661;-0.0036985080697690899017;0.098245483679781711595;-0.7634930863581826932;-0.22105360558980449714;-0.41827551109161154042;-0.23583567654077905451;-0.32907965327858001992;-1.2052314209203727202;-0.45924886851807528165;0.23990480670605127123;0.63443815682629078889;-0.11882343606636074085;-0.47951955293276909975;0.095562333640630922615;0.8251187702671908264;-0.44118098713573267178;0.77749272536286651025;-0.45973798093136891696;0.038260275821169746624;-0.29315195221880274712;0.72628978091527285343;0.61500619982129356433;0.099409998616112105196;-0.15683640621978547913;-0.10414288415681338673;-0.66308839182911072374;0.48370685942008068148;-0.6264277807186391378;0.5669673387375822049;-0.016483999690486847434;0.16386385753478757699;0.7459675196156829724;0.96566782672961681833;-0.48994991933128961836;-0.47829626734417085565;-0.32350053535768702462;0.38491118717557787354;-0.55189945758071812243;1.1923096015086351862;-0.38165675041720931171;0.81129258399884229824;-0.34854018865529301507;0.10197691777517527145;-0.93435964652739633696;-0.13806839024933886817;-0.22443992028030293473;-0.51851199277413195787;-0.31317170192503207549;0.37361317530998644498;0.45110990205686540833;0.093660926664847571343;-0.07462758994908161303;-0.02972597447604819268;0.20068662702846812307;-0.33876594161041712061;0.13582248720980324985;-0.42032645163060006199;-0.56643746407341388771;-0.1626821917006701923;-1.2034554775390506887;0.58545841258629693904;0.48837856552423447587;-0.51429281448600161486;0.52185087051045742079;-0.50638157040565334732;0.51073730920444038173;0.12404706507773814728;0.65562222932297276046;0.41034392595808016901;-0.61136711847451274959;0.14925589314462861523;0.2984506655429313704;0.37546576968876743674;-0.26927555942396580457;-0.1065967732637129739;0.0048806993831511389162;0.16221811849829645413;0.32853557651727538502;-0.22154743076983182681;-0.5137440545789047075;-0.11639026989121264988;0.26784074909612504145;0.12399525492522037173;-0.18404848205083035317;0.22133514243833771196;0.35230074675330208533;0.36056257749610365337;0.1436087413688917902;0.019288230623053667645;0.13991684625100636596;-0.13281661324434429483;-0.73970516057386825892;0.36548808405723831605;-0.46271777971629562964;0.53553123910257172113;-0.0036966041436391630995;0.051516671252652995738;-0.23224184519228177614;-0.49247657189018573254;0.49714419478806493036;-0.44706050326588037125;-0.24702663318245143831;-0.64735982758420673733;-0.52325302871873624611;0.075204935120955343497;-0.019248587379395346031;0.13081858395416731677;-0.69369845546916486523;-0.59283906763235338921;-0.69107267820304496553;-0.88072890728550368156;-0.36034036692906862287;-0.15014957505492740331;-0.42361699534326258121;0.01081479455994161995;-0.70577549406712503099;-1.1118556836240538477;-0.20942942823574592359;-0.044895199856285462892;0.60440089529117202449;0.23822866228063258043;-0.22563811399483627018;0.13870550027234579415;0.27319335302420788558;-0.55070421432770344516;0.16485474215583084678;-0.69733297841029062702;0.18411303814748311569;-0.12340145446268852014;-0.017366646643901750835;0.53586234593012704863;-0.032111036302624421102;-0.046493440762542484479;-0.67076556653635666105;-0.34377855163930060023;-0.53283625196255446355;0.73030768567780213196;0.62508132117088544;-0.23427124276090460775;0.059930094785720672279;-0.19911654603318507117;-0.10353901326777799341;0.29066370284674186708;0.16800153176278259659;0.14840037964135580073;0.41293887191926947899;0.62779814673149647586;-0.85565989593123392698;-0.56044074772091556635;0.26118696796948048799;0.3847492188948756775;-0.1832475196538137785;-0.17861289583307976558;-0.25107535259803986927;-0.214972990946677045;-0.48576993171023408191;-0.69275351458038214592;0.082024765118846626466;-0.86282690122111116438;-0.84743526690204562524;-0.15285413585741394749;-0.7168230567304809675;-0.44548959706227225785;1.0753282254868299361;-0.063005544387290765562;-0.48796676868191091181;0.68601926843027138947;-0.54044808069935179606;-0.35746558925994115219;0.36157769310089948878;-0.51700342651812991601;-0.87517572739643767488;0.95782393642868846051;-0.27981200388558902237;-0.24360400296066903048;-0.42249197027430479556;-0.50165845002478337555;-0.6494076303427129826;-0.63449401314792752693;0.26346242367699002074;-0.55078284244723618723;0.041924037805413032209;-0.17022475848602350301;0.20870697658381684447;-0.32162564263787074559;-0.54083438131925132275;-0.40327356563970845338;-0.28180862466618328277;-0.53526579872121038406;0.78204563648884517502;0.055430383011828725237;-0.13573054906334952596;-0.045348675925496705064;-0.20801616763754646189;-0.48626817148163964388;0.36162836253474561765;0.42615008406278287456;-1.2285632692328958271;0.35255917595454794311;-0.048510243244679424057;0.55294997732194539619;-0.39291037573663045723;-0.093668899592141072197;-0.077095628411500471966;0.10252720768143483432;0.50023802251910909344;-0.073417920686526152996;-0.2678812648982931699;-0.057596488029877733472;-0.66791426183584912124;-0.029494211250651745232;0.60237958598870278148;-0.070794728306670745566;-0.62226707847304441046;-0.035569211991282628782;0.28459425262176935023;-0.52062283229466999046;0.025571720046863716941;-0.34264510170684503443;-0.068132330988077485778;-0.001520676226210654694;0.51297150288642268112;-1.1482842804971289397;0.10888983874739291413;0.65444204921683923892;-0.14106526142869596496;-0.20827216473267176622;-0.48049012674590818595;-0.32373114706148586883;0.70566018601367186402;0.15199284112631519794;0.5708005169738357143;-1.0436138584526108986;0.030159367917314851976;-0.58364999909912740339;0.11978435897148498324;0.22894968411066835001;-0.66941567104234633856;0.13526860743127291919;-0.42965984537777701657;-0.25962625302165104335;0.35299689630287373054;-0.34489433489762000296;0.84462632620038713416;0.8428751825490627958;0.30557672627664811404;-0.42519207731258246152;0.058683100522402546761;-0.25815531378899492232;-0.23234782037953569112;-0.3239879396600579553;0.61908369269458551898;-0.31000712265279500857;-0.042658946614776330208;0.27183120928696341556;-0.35066036071682649133;-0.1577331251221938957;0.52521908172405573634;-0.73951182405007609422;-0.32954516956707491371;-0.42443371626398868068;-0.055655994673799079331;0.28966708913487521082;-0.72816765734631472284;-0.26580144867030153222;-0.67516476946739101272;0.1514474010995323916;-0.46457000775156104266;0.0259870712884879701;0.057959642767893539139;0.12095100546389958573;-0.21001899994484390932;0.19485894318171670392;0.11528491355724232448;0.61561268887631515057;-0.66559057659153908482;-0.63700180168599884745;0.53724483819566715148;0.1097046031749342454;-0.24541097674518475014;0.71014158472500144015;-0.50597316138266790198;0.86063835307717706513;-0.23504833625232957051;0.084822672323581121967;0.64066913570051475801;-0.17318888561719178454;0.48256829719018762281;0.60615465157908821059;-0.56202586888346284244;0.15783295862745261307;0.12543677095606642347;-0.21670990324422143014;-0.36433762149909715289;-0.096419892063925219383;0.063563227009454145722;-0.38536963215179009801;0.7578791165438301114;0.60810702102567071314;0.13810071765756337658;-0.37700754339438086182;-0.048138270663638280111;0.3179382680886280732;0.29447647536399423895;-0.78053123393796497442;0.51749569627760916291;-0.31126048046035365013;-0.48471538195854169118;0.34305904584823326831;-1.0004125839360078487;-0.81251780042309229568;0.75728985361653611275;-0.0024780959021764845975;-0.12581807971934835799;-0.47825452104306725998;-0.47218414359890142906;0.050111548854157250688;-0.71030575589935474046;0.41107719564352196429;0.4272654409740432313;0.572955615380071559;0.52884959931139707834;-1.2220254158905836661;-0.6032187485731234089;-0.78603210164758829936;0.30046184519300717097;0.44313625660885691548;0.72612323312307147649;-0.56686379801974839943;0.22526348011605878963;0.027376154284818970258;0.11540779577305122772;0.6586791250476206061;0.58014538988713260093;-0.64800611127048424187;0.071147348247104863495;0.35850283117882225659;0.43838658405244501637;0.080250878481925871921;0.53866889109912308164;0.16717566767911098968;0.30076717538769837113;0.28579771192058023299;-0.64405371136374189867;0.36671751590882617489;-0.12940021280334110254;0.025153908081434188382;0.076150573945043639745;-0.12715583635463259538;0.30068769101758452411;0.2240530656727146297;0.10536251770128171601;-0.27705283201888858402;-0.014712740096421639963;-0.077386941369621417564;-0.10301171345877092878;0.14960384086922579039;0.54253771278916662624;-0.63674245839147514126;0.64795063837338229273;-0.52661085710252075742;-0.47161604548550817295;-0.42317917717215314255;0.37614360278917735592;0.28356194147612351353;0.59765228184356178343;-0.039464635732035839577;0.32511090341423592998;-0.37012034367829160786;0.78872810586779540376;-0.81655382695477407573;-0.24883801835297300609;-0.030353712333288044439;-0.064200165612659260139;0.14112136284473963954;0.41565912827627976567;0.96833653102006345126;-0.48914194833093910253;-0.13753148365372711015;0.77043717502129205332;-0.71103872955047042748;0.044578414354222592464;0.94405577149697650352;-0.13271385462186824356;-0.31462512400325126638;-0.39593410794255090579;0.51636331294658721625;-0.3469793679803769848;-0.26854008767950859893;-0.45073395589543757689;0.41807506947122441421;0.19329514268695854873;0.33325600294582952143;0.71394817919647524107;0.88901979547335652221;0.51075215138794227698;0.0013600574218642427771;0.2473328399570032532;-0.37174042183229538683;0.45274495382952101297;-0.10628559301535536741;-0.69900921380943226158;-0.3778337789759230736;-0.87007853157723558102;0.2109450758823889216;0.050675633459798835601;0.016917688250717630855;-0.54137332581414876476;0.4012799759253365961;0.065688554889525713198;0.10031687138041342489;-0.14368716133484757402;-0.41352010949423878561;0.72392169633409797491;0.16591388469056936317;0.48082404819118562678;-0.69699549457634357719;-0.41096787988813920922;0.13253206711746368107;-0.91874601465401961597;0.061976628406570387353;0.17874544427848437778;0.30449921632440057895;-0.31972099605599801908;-0.2159378419684686301;-0.46551225117700029132;-0.33392585501064037112;-0.0013345516677666932961;0.35371500835651797923;-0.15122753232915100985;-0.77942096277830630324;0.50851196457140246387;-0.42288993161452137493;-0.076937855159228990543;-0.68794160147762761781;-0.029898975125782472489;0.042915131309332409104;-0.22005174895329696061;0.55370096127169310396;0.082775933189385558775;-0.2636558315556647436;0.65574042874523996716;0.41448533520244096318;-0.4675248225011936487;-0.35831415608624972435;0.48185490912968342858;-0.79200860631528147149;0.050728845592613501514;0.83283029303791045184;0.42976623567546767823;-0.25316847590127972145;1.008138543375648899;-0.23109836959084362196;-0.9218116125837617636;0.28164924358141912863;-0.64581039820498775672;0.38541709414661429189;-0.85537047258772636038;-0.023280324777451965462;-0.38939718843873444287;-0.84147865727866455465;0.60812629993256839267;-0.16815908712138394332;0.20501608919302810596;0.98535929168975477932;-0.73798982681071689793;0.31380002482161961641;-0.59946353372354921341;-0.77626526654712246778;-0.019495212553187261234;0.76669360819805665308;-0.46845494697444256538;0.084382155689594770531;-0.0050173369731997064305;-0.47558023147411659926;-0.38071411637761459756;-0.52352604796973334356;0.98044260092816837293;0.15704541909713398695;0.24605295576581442951;0.52166445996906152249;0.89297928234415679949;-0.015122829920816396182;0.51837206549513437093;-0.38175405731128986275;0.77667688911114263206;-0.059225199958055696481;0.66940849974526561716;0.16234300099012241581;0.077816678873960001828;-0.88394297211435590711;0.091827793121467701787;-0.63382754009506414583;0.067378159122869624165;-0.70595958221697741042;0.074735368180775474389;-0.044320873075807988573;-0.15342375337610428265;0.7156658075703523636;0.51848211408910083176;-0.43698221738642967216;0.092251623238023217066;-0.13556826601183660785;-0.480719883203218179;1.0117180810912418387;-0.00056048527254452080396;-0.10533652314659365523;0.70712438968874180567;-0.023347742621058049928;0.8762563614728707817;0.24290469726267099881;-0.6054045036382323941;-1.0590635501024829868;0.55977379903532265004;-0.12774312381249894321;-0.45796199203950177514;0.45658111903267034615;0.31234705362962839059;0.72326246015366546516;-0.57636005313047633525;-0.2321251846458391721;-0.52417498974053189364;0.52681233896022972019;-0.12446196489636088267;0.24617971293810228528;-0.76159742830749721509;0.6027800564089589308;-0.64786991296517559835;0.28015399955542780175;0.34233113144081611656;-0.15686665041139827292;-0.13465639165322942916;0.51957072283728766848;-0.11367286128689883806;-0.52764356025261560657;0.48527833208159887324;0.73636480614594090888;0.43213673935325636055;-0.34039204514838455884;0.43357421235022097772;-0.53956694063810672901;0.17962608252880274406;0.33296174701341324509;-0.087244061379814066837;0.47928968226876822456;0.22093156232692029439;0.42840842967286635323;-0.059447691634979094033;0.051897270973662111559;0.37981185519017796048;1.0185337590949896658;-0.17652999590970780419;0.85333144118133008593;-0.10049929361068579703;-0.41957016493262666579;0.055350386799471990029;-0.036957737416713848377;0.11002018887566664129;-0.8784636604928749426;-0.044545636549010454719;0.027328277687915729366;-0.64796295003730719486;0.16246433981817520742;-0.55107082289985631629;-0.56124090097806467181;0.11804580966941392861;-0.56278449851783030056;-0.23863241747300514839;0.20023627887518585799;-0.57789936607057679208;-0.64450245442323961242;0.87131633132580965651;-0.16738370541775549061;-0.13061724712405481386;0.68493600822971301145;0.30050385693656639363;-0.36055555340020395416;-0.29873385123776852179;-0.069429302589005023605;-0.33613258738800078085;-0.42933697002456439051;-0.55267510957922549863;-0.96578262504741441141;-0.96105320970249530355;0.060542990089702333756;0.5019722722312237595;-0.39501353807449607336;-0.049849674697415267965;0.39812397951098504878;0.32026515922133402814;-0.46699664161520493266;0.56777504615552365497;-0.39812148871033803399;-0.43313526674983693354;-0.25788846698996370499;0.33352047721592442686;0.29272350123713281045;-0.46336514833003955571;0.082223422335172477449;-0.28635065347025762117;0.50105240684132801299;0.25595855653052806966;-0.63344407998520235736;0.34206985134734041454;-0.10661999128635170353;0.65958233148829858994;-0.34984080305971060332;-0.17860074090252542334;0.066610779570915656933;-0.15908603150069414167;0.38750548018760638813;0.22480190483483727948;-0.30393529060089663485;0.1839727689624865159;-0.40469600196432015116;-0.18598797098520647442;0.51990049004095972851;-0.50549708884549882093;0.50338696267947657947;-0.69926888788269259134;-0.82371383514006479842;-0.26460078450578139453;0.86954613238282896237;0.49273241208897222698;0.20469869947255825426;0.54178903274826695213;-0.049947597852170608212;-0.075350666332442625683;-0.85656174887770764048;-0.28404834635432441026;-0.56579233280977792031;0.21536308931409270384;-0.8779633490146722119;0.52912657901248427716;0.39105922209589988325;-0.74580307874275519886;0.65349928462574013999;-0.24974083049280423885;-0.20735321974953338509;0.29175378240525978724;0.25363157085611159891;0.27283912060531795296;-1.0281321944352541653;-0.22200896674078690607;-0.025098743600288360434;0.31290948715204036645;0.0074438809069933276064;-0.3658965937011464109;0.072770993174104181556;-0.4812082470430959491;-0.58652562099581850852;0.18536046583418960831;0.072393805462957663832;0.65136239312571742044;-0.012015504425537181649;0.24139040385044463477;-0.61931116173590516905;-0.56010366188028049006;-0.48357423972032603787;-0.23602768987646449705;-0.23222079630057262944;-0.56869071513686264563;-0.14924922748007007911;-0.27317598499628453768;0.36287945651334269082;0.55325528958850223038;-0.049877813887679041394;0.091274357003871708915;-0.25743446759345189889;0.36252002306881669913;-0.3258967381671795116;0.77993410435148180504;-0.74354150702478560842;0.78970354329769743007;0.39657554162622049576;-0.53355015477662171008;0.40704580232995879463;0.14150066314240147824;-0.3951721763270673593;-0.91238459269783522831;0.16182393858586205382;-0.15979735555951388171;0.52830095664918064191;0.21207148810605455647;-0.24436441803244612903;-0.50962513827540645295;-0.56067643017048252041;-0.52945861615656641952;-0.044618549946298512177;-0.33347809255363441983;-0.68678068095324629194;0.6070774238985316984;0.38430633720114532048;0.20085297522672046489;-0.029146235870108710281;1.1159175054687184847;-0.47660616863664395648;-0.52572809053647440169;-0.17841704654986051404;0.60348838144017835639;-0.46983565174316987978;-0.69375495231688844022;-0.074054680904654113238;0.42830617173328755509;-0.3361692541633652942;0.30424331017943628819;-0.21253261125536465626;-0.23846036453017660506;0.50414430431270707;-0.66294962670718360354;0.057653628805802839552;0.082759271202259995781;-0.15395460422574766546;-0.94552290795183879801;-0.25944673529849338056;-0.43569141510452991106;-0.43209587553396844317;-0.50029282005310082848;-0.32262176226352151653;0.24069661456283880652;0.72420657489468354129;-0.19583731373563698086;0.80341725556708176725;-0.51446450308837998744;-0.37414017276023697756;0.2976233820874490954;0.44482475062549581279;-0.79418139391841124919;-0.048812071877086492255;-0.54384528402931298086;-0.21045769017574431081;0.36817800534617750596;0.59111357074704229397;0.65999397713642249386;-0.81054293929551657349;-0.61203607103822654789;-0.28989111488536883909;0.33736390881134181718;-0.66261528110427991844;-0.051918021911927098033;0.068515368592849276719;-0.18866718570177218317;-0.013819332993890140471;-0.16661227339294124028;0.10174430957668098574;0.22958463548274013477;0.29628878498165878153;-0.23140090167611288008;0.17936800110131326247;-0.69374446774452980247;-0.3274736235022753239;-0.32097480956093166204;-0.16426807606561846797;-0.60410063714138317881;0.11148204911663973926;-0.52595661577658725516;0.95918912223225805125;0.0011112412529437117742;0.85248994040604231248;-0.17613428296394148531;0.4333911994327647732;-0.60380377898149517613;-0.60884237155806053554;0.3278048300399825643;-0.53561688741048829598;0.065406602755462145415;0.32211324563444954094;-0.10985158506835705772;-0.22284931614501984898;0.39049616617866178547;-0.068895430280924527255;-0.72999337338666270281;0.6891288338616997633;0.69829576008947180643;-0.18808202547629193635;0.11195322122521461639;0.2011418583293658191;0.64802355807553446709;0.50763316613507092345;-0.21722528877343907916;-0.59895273544733651505;0.272848794571467268;-0.063414184835310319355;-0.40954892522789987375;-0.51787214527818914434;0.60383491916111819986;0.88190605295919000106;-0.13044321328117902681;-0.30317094870479466273;0.52258957831468355604;0.072546123242945223519;-0.28707585701647825305;-0.51737116443956032708;0.19530713210959141368;0.10119953873555488644;0.42946446986718023187;0.094137941515239784152;-0.52839656436841675458;0.40325954155307086602;0.43895270828162497034;-0.72934963113911632782;0.18666642584449349984;0.32880849109071519365;-0.22609154384478771793;0.27012399705207862377;-0.52471193225485934786;0.92493146798247016793;-0.68640107331803323909;0.068076548795524952085;0.30034546585865218304;-0.46507963143466013456;-0.018883008742261019747;-0.2853486078746259591;-0.16475644669581351875;-0.1167080956212165066;0.052111750834956456491;0.34637546281479081323;-0.3497189455011781023;0.27240890572758108545;0.52498338379109554808;-0.37341031080565639799;0.090870241474486065925;0.57004492298820541585;0.57050861725941293123;0.52832540159756313791;0.49685388501563509944;-0.1425434119378267972;0.12267386853593338636;-0.15780890786157500405;-0.27296071700270868599;0.16168056407784103801;0.77923603816087294582;0.53447801504604697254;0.16750318228288399447;0.19251938456532069477;-0.037142215605764986042;0.75093707547284138659;0.48218898816018712639;0.18484748958589894419;0.33205666100082387171;-0.6742085235108995489;-0.056220275470500201409;0.4741673232135275029;-0.12312833119916008484;0.85584363475103597541;-0.55905189764427387633;0.06568147529895497494;-0.0085092113380417309237;0.27635948875622234899;0.21760087276315556726;-0.020407024354725206844;0.80703527920914819305;-0.047416160591745921959;0.96402510487682979701;0.19204438882795601962;0.393869422761936816;-0.19196859983786440651;-0.13857173983679316187;0.034121189157436566941;-0.22644171586637587557;0.25664135635068680008;0.085655396519709076086;-0.53741712069676894625;-0.51913936004211924669;0.025610893931163305343;-0.70428850404870024793;-0.36525916513244127692;0.73704138334945945576;0.59958430735030943115;0.37444622380049791266;1.135455311124703881;-0.28939021680596327402;-0.70914107683486449218;0.82747181429290683763;0.16686239889641341083;-0.10464543076583050774;-0.57323585853009662028;-0.56425569039339984467;-0.67882585364926373295;0.20975704730170918744;0.58673905963553996123;0.01840289165115567907;-0.065498477345572111985;-0.018885349971170854733;-0.39972844422686065746;-0.30690228019230314516;-0.1582181364728711126;-0.54944648780328364523;0.5099728572464237164;-0.69053305639745521383;-0.50507959059498686027;-0.29429016842503424867;-0.49935685810748015045;-0.23946563390986089215;-0.34749652660379354296;-0.63344093874548468293;-0.89663265947321102445;0.42358700726732417818;-0.5149736165744510652;0.13577807067179062384;-0.56724474227360932588;0.087902011499027460362;0.25337541480535724636;0.31057926122656054346;-0.25956796528206982355;0.25043477200381586423;0.015088072936096097454;-0.17648086207746524479;0.78279923390716288356;-0.42407171086822487149;0.48989883514642362794;-0.26244074518232557436;0.3812076612712440582;-0.61204601471601582929;0.044271202540194481978;-0.3335109894422220167;0.45461889974248737012;-0.10196048167613559754;-0.73863052439517917769;-0.10367422134628945241;0.96971453713290500787;-0.30607973491330164872;0.59891972107857938123;-0.58077463387501682135;0.52399305367595272465;-0.051116741854163580405;-0.19530869527420663401;-0.57998200880268213631;0.092348251004997897184;0.42354662353278210718;-0.010492576489278438931;0.56285135254054319276;-0.41803329309910947087;-0.42992616779780618019;-0.92015429452682606648;0.64055016210993331871;-0.019261696569418562675;0.69494502076404829349;-0.35185207020314945847;-0.54784964533797519959;0.26989629905739542792;-0.33753253729334398159;0.037399563390141429831;0.91463103360476738501;0.33030657429040732875;1.1113981559946346511;-0.38092513333650540597;-0.00646596005409968283;-0.71200239508234342001;0.16632348765910182076;0.15877570260566462035;0.63802079233008446302;-0.63892472541396971852;-0.099190965976479431032;-0.22945017103635384492;-0.48659902165488738701;-0.71761575528214749387;0.52485748216755601092;-0.13519808673384570152;-0.057924092154856131331;-0.29266431688861888061;0.62556777376228400733;-0.50506721608434912429;-0.082333693797915580292;0.17712621034769543416;0.68764587237475716108;0.63812970482358810642;-0.61187821351242854817;-0.11786396325276854435;-0.92011782281204201883;0.076548467524523947092;-0.56104687388546059523;-0.12919458570579969714;-0.40282957887788112261;0.20927968834054108682;0.073969773000694918896;0.27039117035832094249;0.37989882858715351421;0.96221962957425621887;0.59926134707065004115;0.47876237651945435791;0.80454988156238604891;-0.75140507913848764154;-0.094878396943231177452;-0.3182481207025536496;-0.29043919045350991004;0.040976471751044546421;-0.89764532215507397694;-0.37971031633547758233;-0.090929056201288327443;-0.590590458269829921;-0.21324938711795965451;-0.1134752693820810926;0.11750305255747497957;0.13177700605977385462;0.19300099978635246178;-0.18170784140994156175;-0.21320973365917991749;-1.2977767633100187883;-0.55622127479946281703;-0.85147269932035962725;0.30073292703677279025;0.63436427317949151128;1.0363070890982009065;-0.40388896562120074618;-0.80257255258966941902;-0.033982078244700932024;0.37091305138825397814;-0.32663173798489386623;0.22686853061838324619;0.48928774834309046726;-1.1710645248116027251;-0.60583868116500028123;-0.25312117889151303229;0.20427438941436984465;-0.70158018711786607202;-0.74985203995478599825;0.37459839839080671942;0.71094862938722214185;-0.067521010969799066803;-0.10826629152399505629;-0.44487422698461054349;-1.0287207382055398863;-0.43483037746497626985;0.54783131832268683326;-0.7322237425347848383;0.5194752836654923378;-0.027200672857732002136;-0.66977067227175246522;0.22534094091919104619;0.17392619743648393693;0.56451107370214692605;-0.38790923205035809929;0.060084178800026144529;-0.070345836146058299265;-0.28657110342177616324;0.88466473618052388073;0.20380203103040031576;0.58757322822139002039;0.25159092367964469572;-0.10931709270408361545;0.26972119853216008911;0.33272641470252595219;0.74901513545411868567;0.41652574020295657364;-0.47776757119252688533;0.064075257878755884078;-0.1731761239016737508;0.16661045269147586878;0.39727306726698147221;0.43246488548731121249;-0.023672085100832438581;0.055073119216852435553;-0.0490942091823092161;0.12433607228666863909;-0.5459034097558886911;0.37872245983450558704;0.77070690522380613796;0.33420683666577666315;-0.031000259805225888199;0.49621811601732290775;-0.4791519140252595288;-0.23236524938605396251;0.12880621667019465093;-0.48336448387171199181;0.22916486182733611376;0.91611611406021553616;-0.22810396139849423158;-0.39336299349892434041;-0.37637534713742354375;-0.21471779870836638082;-0.56850469373090106728;-0.28807219290612845475;-0.29983938450405944742;-0.14358226201559406987;-0.6818570918492624644;-0.9100050549724792992;-0.97130451060416089781;0.13413387510343627307;0.45889741342376572097;-0.89553127173264934768;-0.2606813705728892594;0.12972663328694594709;0.19767767933983818041;-0.25185305950648839701;-0.20661507876114026949;0.16119715556162469983;0.086199605976995413714;0.12444269846941652391;0.6959544954257095295;0.26043940955742211907;-0.62596538966110837343;0.37992209759801454094;-0.32912678049808152814;0.41049052422144871599;0.25702917217780824055;-0.37564034742616403406;0.54870904468169501289;-0.42931037020512224922;0.20583070144217330277;-0.17639977062717956957;0.28547030373086607069;0.47398230112715833418;0.46276747779679905381;-0.27865772118874088115;-0.019684031267834561224;0.18450869200915614998;-0.86402532814109733739;-0.19879308509596252397;0.096314952529546943305;0.72524915691947322571;-0.7839253205379285161;0.86028837978154470978;0.30496722034079587482;-0.75248025900017678769;-0.16628835736009892066;-0.71582097652009524236;-0.087875488297951109828;-0.4809640935773660253;-0.2459242410874419027;0.46793886968239711832;0.83074216597939609663;0.39180128591475088529;0.32021114899877511917;0.146314047358772098;0.67184383756524612696;0.099829087870013447081;0.87879186443386825278;-0.30180442555125019943;-0.16894061592470469013;0.38260066822542282416;0.0030888583016927466211;0.4932133977081741838;-0.69454178264841237578;-0.19540973112303036685;-0.0090169107433943889579;0.10047680698307547009;-0.28641481959315961969;-0.19394273384552185302;0.71289346177966694817;-0.95977064101921150119;0.27818300372081461447;-0.048468419192196812717;-0.071841536457077331823;0.26909166085640412458;-0.0081009911950066897102;0.51537311530135232474;-0.10125692387541840311;-0.17096460600386786943;0.10140480039388140299;0.47084993647860384769;-0.45804060761874249019;-0.040141339437368868392;-0.12406436167644167845;-0.2079627145434548019;0.43031407665773963034;0.53645538048222107808;0.31898049728959770865;-0.64105534347852821675;0.39199609032432869427;0.32360572116207919624;-0.6618537727012735461;0.41221590768845634001;0.098770702595840809135;-0.41470822278834029717;0.044658166880342090033;-0.19412792274480408783;0.18231711438128134217;0.37657921761282164841;-0.059948296795396802117;-0.20548080209671823471;0.69714099586961653099;1.0429104131981246084;-0.502699638785708669;-0.56708544560400175882;0.28093461373534811543;-0.167538994482400172;0.3041091099055159841;0.69309250317673987141;0.21000163130086263452;0.43782826856842471663;-0.051680183080094435621;-0.18356993060701881637;-0.69707830680784110822;0.090441211675099789091;-0.26532433616361744688;0.47210007442068568917;-0.59379743637847048898;-0.11154426760541190367;-0.31463195884911787648;0.36979860562654809364;-0.25773487716612802911;-0.16735262344408405322;-0.079559423734702511277;0.12800260379002451061;-0.61486297715643922768;-0.52737102975631910962;-0.064364056961112400823;-0.015328545905684602679;0.55954250837598862311;-0.11459391887630672457;0.95099104020090741152;-0.69629516753437936671;-0.52984071125303422445;-0.4485593056059413164;-0.29148027947913135449;-0.86646835687410228566;-0.6283863108499317951;-0.92529171281054900522;0.50552871731500992336;-0.053245778861741879795;-0.66415230912873091107;0.052247954359943053759;-0.90709742668305970437;0.27987613709202313617;-0.36071270454041626241;0.18682086077604695418;-0.56006250127112111592;0.31256002308388824984;-0.4207825563723741058;0.18580940690625832867;-0.85819050231744975488;-0.24823570451735665898;0.28099979011917802785;-0.58802808740830392331;-0.17426172983663784644;-0.16086272055071540454;-0.28885733467681096176;0.00012861162007835687162;-0.57293061208063023049;-0.13509645384669993762;0.21949106846469965126;-0.14407469965929614597;-0.32852077908898252856;-0.57839500587346526217;-0.57961804326416010991;0.65571851911224698917;0.34760476362973569131;0.07974364049256615905;0.16805473980530274969;-0.27175700057049395619;0.25619647030068048998;-0.51394053991840638052;-0.667084140921868185;0.079019022592221946355;0.9211989643489671975;-0.74422529989525987304;-0.76903350522031044267;-0.33845277452815497599;-0.20202043253689253022;0.036579837101240721131;-0.052492304592333401125;0.2252309432279906154;-0.19108986438987118905;0.29843350836861687325;-0.48786647423598922257;0.25817318484126783318;-0.56831866808974373928;0.054908866789811668074;0.32502486719797263337;0.18683421143053702274;-0.68067507264848881032;0.87883407323126550015;-0.62245642517612798095;0.77876814820678019746;-0.094572792106269967793;-0.43854642378812802583;-0.30704830132857918734;0.75362020550894592841;-0.29285106730836218958;-0.067383847047858366763;-0.80033605768952054138;0.060267717756469267598;-0.26187481701808018597;-0.3965131398560559628;-0.14475492821537985777;0.64198559834188040352;-0.61291141751081434919;-0.62446212114992938336;-0.82996324525708453645;0.7568906072887597869;0.25414806876414852699;-1.206958970317959956;-0.5399332445358122623;0.16622984147072036865;-0.41541772988544939382;0.31614600183109936582;-0.6461225493283673238;0.13527173100583408938;-0.063322692584370440794;0.41442695830293702075;0.25449364950636554905;-0.97105778368915052212;0.44202443300380606095;-0.53921010101751543075;0.22750985219514127667;0.64455610666843499157;0.042395286502682573426;-0.36555287133106229014;0.24037331337144887677;0.35180124330930911958;0.45776330399075276789;-0.33688696067943263435;0.47693243316455813385;-0.012788716948878215904;-0.863847925940952166;0.47328694628736206473;-0.088000154287155893384;0.75202505540068675938;-0.52679665557425037203;0.39546983659675616352;0.62229150469638894183;-0.086342595980324718385;-0.28016024431575248244;0.40006690128267657913;0.3523628929499078577;0.60987851404452464443;0.63485646786247629247;-0.64462858831178126984;0.21897017180266092895;0.093648964021063096919;0.59904458629929824287;0.13048158989501199012;-0.56043583738180291487;-0.26134151287334150826;-0.28600947506490259631;0.70432324613268115776;0.24245739210083866455;0.33897945938364149043;0.30196367426515563492;-0.15963508151422947656;-0.52377869311717917267;-0.16166046008256246269;-0.25702946587661584799;-0.42138445621764675231;-0.26172565996290475532;-0.64890772474333413555;-0.72740287725265617702;0.52824371818213611274;-0.48436441443607447521;0.46466753403177368797;-0.83963838010075353413;-0.24377825042778161757;-0.37734876969712238814;0.13288611027215757598;-0.15719711383138679217;-0.83592355655679961846;0.3770125111064685508;-0.24147633242626506678;-0.49839863339306306189;0.1929592877642219706;-0.28583855878256325678;0.36764356684588322954;0.083469394699999380216;-0.067608483788638540357;-0.20923362254495142531;-0.76761469025811734923;-0.24860872913932735573;0.40343500081650329747;0.3810638330179644262;-0.038231033235386208124;-0.80823965246493723047;0.2695726736219634101;-0.12468615309989254658;0.087944712275056194373;-0.13338103557023148205;0.18338570219900521274;0.10058600118626674635;-0.37231700052994193273;-0.1488554970271009914;0.47371739663775325191;0.84719351706513401634;0.74851732711804430664;-0.17207024907023127369;0.050983266494713720685;-0.010081650573971529319;0.3751183676011363155;0.19434025566138909968;-0.56089416156360138999;0.5104815088190080008;-0.11173898773065449319;0.41695411816841332353;-0.38342410287852179973;-0.29027215457310800995;-0.18934519871968788496;0.15526361175889064059;-0.43545190365952551881;-0.14144502462877786564;-0.21242588423724248492;-0.41840086901299272659;0.067876001266111610222;-0.44375287279612674052;-0.363949443112037474;-0.0075167479638790788213;-0.40954939403433016087;0.28733766584423786616;0.14913726698387308467;-0.3023140089120379681;0.10120902613586774121;-0.22463166219809851953;0.51612645034273663125;-0.36773457451313146249;-0.62977482614978463893;0.16321464251866119044;0.29147257365197742907;-0.35980578917976030473;-1.0986018366963605786;0.61474382457764653598;-0.97761118495901988545;0.50947992692142241022;-0.003313688287422993789;0.4984951347724690951;0.06030562028372342398;0.92902369484462965499;-0.7724152892533856507;0.11313313153642230724;0.76934426784561671386;-0.032896788598864815101;-0.13238708102297946922;0.58445524261625236839;0.57071925647578691798;-0.1399458104421571758;-0.58303212325068809463;0.5518770644781707535;-0.25173958452347583448;-0.78437544888123544862;-0.79074976091691551172;-0.6764630543097893689;-0.73475969230796323028;0.3890860014067933359;-0.8216713843279856988;-0.96179262486022421008;-0.94282461339154499669;-0.18742984165927328855;0.17198624546255347756;-0.22848934901272879849;0.14796723003554482223;-0.30986750446474731202;-0.26748233427340578627;-0.36279496312064057895;0.069653279761324515817;0.35244258094430547246;-0.15060437921123451255;0.98765161217059782572;0.27768484979534280299;-0.50664007634816765613;-0.5806338916699262942;0.24645977907137370244;-0.5120472155327974173;0.73104847416964491291;0.20251890299700125997;0.25229785225734358001;-0.085374465552652267775;-0.00095516489509945667717;0.403663979285825536;0.29166169369533911926;0.58318783376834359977;-0.092219449660371405342;0.08111778141601042047;-0.14296807128632241235;-0.97517986956385360742;0.39191181321228130141;-0.74527311056824463442;0.031274881405100748988;-0.16904470721373782149;-0.42595204669869246583;0.12000572733155961958;0.19777784917372387419;-0.66809639892929362226;0.35032208978387080478;0.50531160597021129721;0.5338758935487760704;-0.442554668424322728;0.40409681369480726643;-0.038888871713229154758;-0.41396899183139851397;0.054715568793640236012;0.13118964840092703361;-0.0044507236177133546046;0.4130133422623281092;-0.48986319141109657682;-0.22364914409598810052;-0.51964952217165261139;1.1422429359791195225;-0.81550962950656391559;0.56655774947126169572;0.19916433371551017784;0.49583666237908585739;0.22530477817624794401;0.04001462468653466803;-0.41812592331759651509;0.11243059477989832129;0.20965858051270383489;-0.10944971281126809892;0.0097114436312610089019;0.36599794087777465235;0.16486831088734224537;0.047716919692499443206;-1.0037221824665492065;-0.034226568999956324957;-0.16967647087304260634;0.77926883244372080473;0.17501626567508465904;-0.51244614777839336828;0.66297292409194341634;-0.089515910688413885543;-0.77640575197240380145;-0.70966214667573690456;-0.2611986996357224533;-0.73638238562696978207;-0.63941821742629567638;-0.38046375578852231758;-0.41150006062309940624;-0.64811904528841934869;-0.44475859024250474771;-0.30585330348497086206;0.27169725063347327509;-0.4104973241758664293;-0.50126713578939208205;0.37837492991571858303;0.36662481504653088304;-0.041523045193333073255;0.18337281956380011017;-0.11073585035318520009;-0.047027075122050294997;0.19286368373735734982;-0.21929235396373458755;-0.20229953181696674891;0.65613966401368406522;-0.56158956662017434081;-0.37408111602392168926;0.93186717540718966291;0.05718398628860354993;0.22497644093483967764;-0.47561332363759190045;0.49603690300518138434;-0.1171861878240390703;0.21316911390659309955;0.079800567956214443766;-0.39128796128352011374;0.30299542712477472994;0.41204535828806682085;-0.29324914230003751303;-0.27510783285649104135;0.028214791308907583023;0.1266056716181758468;-0.5234266285812561037;-0.035296626995094587675;-0.29688024973116505789;0.045603449599237726175;0.75166488136979692225;-0.71051555005648781016;-0.2277246717011049415;-0.16706581906352116484;0.15276449092904942351;-0.58368990806374387859;0.94712363879170669012;0.9391541745155717047;0.086337649935857532779;-0.37652048848622277077;0.62043115963462447393;0.44631809481684597829;0.23113682131982224432;0.41205292305693957955;-0.049609315412390705968;0.19364054439934313967;-0.45923321454745930081;-0.75995499530232268892;0.034787227062563430557;0.11048482313977571467;-1.0178254633424348441;-0.070676605512062798398;-0.50319717557616394643;0.17031300834351048579;0.22480969526389271707;0.48478138931737441153;-0.51502738789855573298;0.38577305195578992514;-0.12263770702329139517;-0.41286069561294902464;-0.14914116058077953042;0.23048218258175812156;-0.34937218567274619385;-0.08187950335143474867;-0.3148444646947080594;0.31703247990700872405;-0.34898025914760888444;0.26488190237099584756;-0.02024887415353083045;-0.075919855270795297275;0.15948719477246578458;0.43186970431504179135;-0.10159975030674432694;-0.22646303475694345986;0.46255418880802734449;0.87642125912786950082;0.01539574657809222695;0.34298355458125417972;-0.099627065575154896693;-0.068393725947832009759;-0.18294074044063265982;0.10107400737720786954;-0.19555953467701689408;-0.27074700705795939903;-0.26825258075509139655;-0.24759194488599869932;-0.4889388450270699682;-0.66190476901750894267;-0.43449889144306752531;-0.48255491359646346394;0.48930844053357086532;0.6097005847041427895;0.0034397283342813738186;0.65469372897067901196;0.46561781224558107528;-0.17351523472778918045;0.20509911335691557999;-0.059985722466884411341;0.55173380247676084842;0.41788014599824879758;-0.31475963744218121709;-0.52672809672157971939;0.17275513877982098809;0.03421114357117633481;0.31786863565341016979;0.1577042958558240171;0.41526635948377360608;-0.62379795066372256684;-0.18129971874900921436;0.7012610438603052998;0.22450557579626689853;0.35062819320570809412;-0.037831539900536635679;-0.078029378401153093314;-0.69098518189011881585;-0.91351033738961950892;0.18239745644122445922;0.01626713884062158666;0.3115131831028530307;0.096660919072142997832;-0.13048352896098014408;-0.6576744383396462279;-0.61082462257152614349;0.17839616574516864445;0.041414784007277258282;0.61548273243419215905;-0.4737733138132529942;0.22898972735171047033;-0.15278532790692053722;-0.95452266312437084039;0.54942620584048218468;-0.6746864532729179853;0.44368191035192972027;-0.64875864952310824396;-0.51548650899245940238;-0.47111149960035825224;0.20494717960714609051;0.84707420001105737661;0.71955950981874239325;0.29414378746451619318;-0.42873217900477889053;0.56084138046619880225;0.39380546866804966299;0.15986567935237080973;0.20440444662060944236;-0.78709120084664863093;0.13078986602464354183;-0.20430958951368896614;-0.27131815130159647742;-0.09297396583606848397;-1.111296950731436306;0.423521510843925586;-0.59043647226006601425;-0.64746778543829597297;0.28234831023469936229;0.014637681667411601288;-0.35361038068045846927;0.64114436226945270558;-0.14320524069668466582;-0.96213831221881962463;-1.3233482471645372502;0.55609824935556739778;-0.30693746000683391761;0.059865233200852824291;-0.29734247373070055165;0.46959518417544260371;0.024050142012550689702;0.093021743540405002482;-0.73895380270536203948;0.63567094958163150586;-0.44491586327936472056;0.18523458482185989338;0.17132595953278187406;0.48656316009816530377;-0.84861938390992497361;-0.071761917304656031025;0.44179517780027366403;0.44808937491616002147;-0.26315185776927851879;-0.33627409449783562945;-0.0492559421956673682;-0.55059838851626141665;-0.52761064770837218241;0.067252406242816115123;0.2685487833981914374;0.11502387687484405543;-0.59457080639762138752;-0.17525004950205289034;0.36548367494123340515;-0.066356087670917454635;-0.39046076790366834874;0.51351290141868000116;-0.34833446284109048641;0.12562952141713565335;-0.19471834543932844963;0.065176933396996747372;0.37594019891148289236;0.035391427800970876039;-0.82398934702695558752;-0.360499064753876719;0.1190832304705586181;0.73569217452964452697;0.0016517599102809322684;-0.42903592244650429199;-0.47398818161311673247;-0.64599165054192031477;0.43643899814174264007;0.31097261195795317112;0.33988955515237434524;-0.23580816270328391893;0.12396365718851312665;0.41903074945533591578;-0.30286425692684865174;0.16296160242565277398;0.38239058658745889163;-0.025402096945954209806;0.76085890107141451733;-0.23840017363950710694;-0.05920345378523001606;-0.10528812334453371835;-0.48046247850988443862;0.78138727881476588433;0.83355375123618857813;-0.65374589696503193625;0.20974957139391575689;-0.56978761128728028229;-0.010780891871044017208;0.32308610537735399371;-0.83991538571705126603;0.036862139280701200494;-0.00018551234827533547326;-0.55757237283162253139;0.11076934588613727983;-0.22090746414571074685;-0.039839360373399634874;0.27981567757720660072;0.35524893059354506475;0.46946438432149906195;-0.085407628801068835589;-0.40031015555431775921;-0.14220125812153303069;0.48761554256168693211;0.69274530220885544018;0.70237004121743362717;-0.58523430167963763626;-0.10592401342866809844;-0.078013600033349089768;0.0098046199009301209654;-0.16187703884370824303;0.010646066479860485585;-0.36077935337458472143;0.21929123605267664132;0.73247695754732555784;-0.15908145417854485659;-0.39220149685209781953;0.61850571964517564449;0.27832982978051801215;0.5026982448194333708;-0.17057853317094331946;0.05608136703221746483;0.17399743618771626452;0.078264449637421351635;0.27268712489537672017;0.59839384855429134102;-0.50648334114754312019;0.29985699767970430685;0.22380209716575191758;0.51753957678647111162;-0.51308234722312151543;-0.56441678399909156472;0.44562381191953981396;-0.075190384732074913576;0.14798538060155683183;0.53186508002086563263;-0.63649136327933641955;-0.3229675893495941863;0.47621895200670039117;-0.13606034118166646096;0.15617971996949869817;-0.34948663200204210799;0.64000700826205081384;0.10588124085215946946;0.36954132092794450548;0.011435996857252165443;0.94586460401221184036;-0.53126660725390595363;0.37381114858291486502;0.64721878668294885451;0.46935495533610643859;-0.12590996939147638956;0.67071806769214936672;-0.49673092908782889854;-0.42498336925187235602;-0.71259444735207277954;-0.53662203589777568435;0.17133247478291380173;-0.18298683500194640184;-0.51593934222887150032;0.13181823575331841347;-0.74457886317571297941;-0.57390525715195406242;0.98351159411178690206;0.3160178798956507773;0.13913267271525059376;-0.53637635525823434968;0.13781329285360108261;-0.43246784068273141921;0.036965013356796104504;-0.38683593616872025134;0.22117834489287771516;-0.64454764962960509056;-0.60934374141169678207;-0.53305109321788868293;-0.054671375740251319797;0.038555077355503376835;-0.093393267728444681608;-0.30573993645650354711;0.62701079160752437591;0.095788407770667285956;-0.09448146751779452901;0.70734942436467096449;0.031520408471731251043;0.46954496425778596835;-0.48566413344479542058;0.4911885277944934014;0.11489018769967498934;0.030495279385950577189;-0.65816988823881250603;0.023849667570145591938;-0.55626903859518628259;-0.52791042683008548853;0.057956482423572291962;0.080982810433040938736;-0.28875968346375741058;-0.059534491592020608031;-0.098706705082838880339;0.14445394839678962762;0.16630541178590879658;-0.9771182498568756758;0.24147488579252365803;0.31862279577812940845;-0.23380778720488495925;0.82548553828542015065;-0.52098616257790042461;0.0013736633313909465959;-0.63311436932431208735;-0.72194363480165613112;-0.16721652639973152987;0.1540916011917787265;-0.56708264420681919749;-0.2177169768404610406;-1.0131442324755430828;0.016349616124407325563;-0.40948091732836100487;-0.51593985759392135826;0.20315402327665263438;-0.21115145252058376002;-0.087786201401828994895;-0.080769720119737029029;0.25793088288673526876;0.31592158844179862864;0.12702987049055369795;0.14069380928766420102;0.77244378111925404706;-0.77042316432659030401;0.36037888452521937843;-0.0056432956251305944201;-0.7512435699923619703;-0.18007852381519137697;-0.87617167360331260628;0.45686658200903002003;-0.19557324963762823256;0.21736791911681194178;-0.72180431153336011008;-0.82589458537331184029;0.33319428299932857263;-0.70138138211007228229;0.0098127165570007519185;-0.16382925558744235173;-0.48280229683006142816;-0.7810038961538372515;0.1458696447576950106;-0.46303784046382312489;0.20921929446752240978;-0.89501146714155177531;-0.52455398712885525914;-0.47280702516868622354;-1.0734512438747423335;0.5288284004191889931;-0.047781728917916731214;-0.078904782419449565056;0.059454849393935936541;-0.11462968364428098578;-0.050874412470354603288;0.022335966263503110457;0.017580987133524572652;0.18388737100843466354;0.38780177214173539024;-0.22603324127741172833;-1.0688679962405693846;1.1414737133664238922;-0.16703627880639498882;-0.62075590140538672301;-0.33580446740361402647;0.60646408543247642964;-0.6554254195842588171;0.5427083198379302198;0.75516140822357380458;-0.31025853232273120641;0.14298874203816122619;-0.19863636083483993122;0.43338171610436987402;0.70458591923883773234;0.030838847849732314854;-0.30405620299480190516;0.11950045673218738507;-0.13746056238465076405;0.49405738073014138223;-0.73935823960666469112;-0.27036479228762066995;-0.26395277716904319565;0.5839641367137561323;-0.33429676640892319606;-0.55112328870542381942;-0.10384811552091907649;-0.095677790618239597076;-0.070919248655885433474;-0.39769218891353153023;-0.22127233665757889414;0.39713991507025070415;0.77839186269507520954;0.39915181530659682441;0.90807212357796729396;1.1810793104409600396;-0.036300399132684471604;0.1190474698826261557;0.61487963498752695735;0.31490810057572049541;0.19778099463528303614;-0.17132481729372187051;0.26870180894755218981;0.041894917546132046104;-0.066840278409910400259;-0.11675080747090392508;0.32512908451415850619;0.099451930215308806393;-0.25763748875161840424;0.0095304192041045163175;0.22823587647364443343;0.58409372996498964969;-0.85961671556177776665;-0.53230210771099450984;0.57466153081475868092;-0.21873172938022872325;-0.52754169926813065938;-0.18700541058127453931;-0.037956196749694401382;0.12826576957096985643;0.42557640416474745715;-0.4576678886013818004;0.35290248490559428252;-0.50751791940771540101;0.26751563961686064541;-0.8284313396845779387;-0.20887661190722009441;0.11790860852313432561;-0.171141008019413704;0.82194474689704777326;-0.30451362245992086297;-0.04847567635383499135;-0.12013697644120324703;-0.48252782376158792621;0.85133431280537319452;0.2337387116200567716;-0.13831815649745587971;-0.097439132800911362753;0.76247293339116228861;0.63980922216551050496;-0.33977834953331315093;-0.081131730998819789891;-0.17475296156662137315;0.62835794739510253404;0.21128559542377828295;-0.35092442860435912877;-0.28857919286210581555;0.040854391431443107252;0.75392174401440137377;-0.56255318406646004359;-0.61129217934081314656;0.0095226540426560975922;-0.70821299112987545765;-0.56490162512645436532;0.2761189814006339005;-0.39701375237345082336;-0.39923791957090015714;0.032279389043096039236;0.22292135366839316291;0.59437336014692609965;-0.69119849964340085435;0.082326795834452501377;-0.30393427889900370698;0.26236695558965283936;-0.17028535376199241402;0.43443312258540561777;0.071946018660912464115;0.20067109467325588978;-0.20953299359002852675;0.0408841187268622272;-0.35256248549788016255;-0.23426606326673474201;0.57636343667788436651;-0.57205254369417024574;-0.18692028149283979044;0.29100103084435524625;-0.78498286256631888413;0.18589137356157492409;0.60250912019193458846;-0.067063963402376802758;0.38456047437354901053;0.78413939076947858364;-0.83452044382723566951;0.37957212196671985538;-0.16952284553368052178;0.60338433353271003767;0.93184261036867754857;0.57297901455137412174;-0.066028275171447076142;-1.197666293611747701;0.28198541632649054556;0.10937448376253447457;0.34497980967328295554;0.60481783524688426112;0.44735926354071969824;0.084977991786632373072;0.53627831961420990847;0.30471893101321251285;0.28991850221231990625;-0.44368960036270815861;0.50055730730038905385;-0.24553619942481130778;0.79690866533856752341;0.087791717700982943584;-0.26746971149011139479;0.10233036829721785244;0.53303261950944658132];
LW2_1 = [-0.32859706925171339176 -0.58849323649175011575 -0.35717424922393581355 -0.37651160011220557999 0.27591006348335828102 0.58280016012119129076 -0.84693280551603722373 0.50984083572198812817 -0.9422022739612316844 0.065081362815526011545 0.15176684473661108954 0.010030704096492894933 0.68239582669191556352 -0.26423926325024521544 0.60366362207256896166 -0.014894884220229087299 -0.24715025131284093507 -0.84122263662456608913 -0.37878481890237997165 0.001103691711972787327 0.77249565506589756847 -1.0616789258336898349 0.61565639025515572769 0.3895492229494261216 -0.220439526447594486 0.48597880912360447159 -0.10590982740158762232 -0.15829123306622205902 0.15676166778447722661 -0.83640584031600595516 0.013743288430708841194 -0.76459872230520897762 -0.50731916716417102542 0.4489347755391288608 -0.59596309533781610668 -0.1959004624193002031 0.29770880087848611284 0.67333677147013171194 -0.037673505461205375466 -0.18631037411262052483 0.95616035526671006028 0.33636709011510002032 -0.019032150439053614061 -0.041872878951425489269 0.39654653685949514674 0.20797458719687739181 -0.84115448667638381686 0.74424779494746862163 0.49176527440688766468 -0.60135518690806077924;-0.88668519016860591897 0.99717487366498880341 -0.90178804032276738134 0.9577339406470695149 0.38142202780659772987 -0.39354811282400242733 -0.086455608308286968633 -0.88085087128590178196 -0.52927146160215854387 0.59302373244927741869 1.0478391515168301584 0.52963497897074152121 0.81753682998398269355 -0.42401193724733143853 -0.3693420612327836805 -0.74507945513760132084 0.52815822031264714198 0.5012946467605666756 -0.40374407611102924864 -0.075606643396534750634 -0.18730864589136284049 -0.38819181725411111561 -0.13526786886479588712 0.70666132826036465175 0.55425922885556411224 0.80390022702566532598 0.82278841440303240873 0.84881192501095281688 0.28785536002483153029 -0.010718415724685355361 -0.70776096971147750558 0.56548879542639240992 -0.22787382176058862404 -0.18010300238785331706 0.74409727248304380343 0.57521465254995995942 -0.056898394372465500857 0.77723605186879429763 -0.49656865862217852703 -0.10208019160391415547 -0.73844134861051380359 -0.55486506517915878955 -0.53615531015492867706 0.83342162537937070077 0.13018562408265557662 -0.398352883350209519 -0.18773883723780324106 0.15442947971901571647 0.25641306459754076297 -0.55221403305153426988;-0.2048366469868548867 -0.56480999255433128603 0.39022877904904301749 -0.94992169540475857037 -0.81379074628569869621 0.3447329542628143062 0.74209943136525913232 0.12795023380282358194 0.82371229293097081303 -0.16466064074815747742 1.5433925812326010352 0.12757134656511234794 0.15928416291328384435 0.50767978963203874709 0.19901439661673572812 -0.23237598427317668337 0.14096668048726554434 -0.60251636201191116626 -0.65763151545384790353 -0.068290730493591800254 -0.58998991439696657491 0.073754248494233481948 0.50356349401750766237 0.54816883407011252061 0.052832376845683870492 -0.69864162082662706332 -0.88931391249057711867 0.051230956487995346627 0.49296128604113237381 0.99449765845187310109 -0.49934561396989424198 0.92914835979177179404 0.25014799347419425235 -0.11916836627827452622 -0.58335289378836696628 -0.12396315765238742623 0.18958534692834222435 0.73954263872298797722 -0.94011112350539971505 0.37776344102055858798 0.28384127554158333773 -0.70248957663290301223 0.45152585823824331612 -0.35098028808252851318 0.57037760268305770506 0.055669280808471617583 -0.73689978389110089019 0.31067983523265130241 -0.28605992992490170135 0.25092888184342998503;0.76629534791963982432 0.028648919565382926361 0.51930561183645984613 -0.2846631379075040269 0.46953276748628086645 0.555176630802135751 -0.94454948641244318441 0.17996460838185443509 0.30492326790653134783 -0.97167311293140257167 1.0613268773134125755 0.34117605681732421363 -0.59127307506973858509 -0.29749221827149557873 0.63802224372770377503 -0.045006438487029329365 -0.43435701973425372424 -0.94605826793399649954 0.3403205207412123845 0.049226808819341709433 0.4544319757200678267 0.40801240003205030416 0.17118750094723922395 0.49137187111437324871 0.4385094231830695688 0.25907110067888894367 -0.36154288428695136037 -0.58420957456366817695 0.7583925284929373678 0.10724349864494163442 -0.6049790549927350769 0.32330580394598668059 -0.49849160172770246024 0.5292000203915732115 -0.17002292513839661892 -0.55874218377010742564 -0.31939501439092099488 -0.23323496798789170037 0.42746044030703805872 -0.87991188439016032596 -0.38787720650552204305 -0.10433115877230701718 -0.039950680830274407085 0.22883329264474946974 -0.50869491452274573362 -0.29736787103045980718 -0.93822481837640259172 0.86888593810496450587 -0.53442601008272572205 0.81716914276625385316;0.85142802685617235969 -0.680498883436660984 0.12153857169956665263 0.23018196558944967189 -0.50037881502116299259 0.57115815199407271585 -0.13869829965996588461 -0.69684956402956610422 -0.16260006228623372082 0.17779217620685269785 0.68369366747936166639 0.48176630210805809762 0.2691063340275225424 0.16601042855076078575 -0.86158887106441217618 -0.14640731908248383331 -0.43490397457251572799 0.13806954502981585997 -0.71814097281016620045 -0.048683121123803588248 0.95024515429115141707 -0.48879391476331357502 -0.1978562735329991995 0.76785297382999140314 0.4075468020535367164 0.0508944954451772541 -0.56627189101342423339 -0.46079344899638680078 -0.30220400477647296755 -0.12623189462228068258 -0.31497263102732947493 -0.20625073727004553104 0.67423016507261146479 -0.63216529521563680216 -0.57180344437516517075 0.36458013125882049454 0.10652601974649035521 -0.56284022600018812632 -0.0066073465793356749715 0.256537151434729771 -0.096049884112789363222 -0.75465014052616363749 -0.88871657333467646289 -0.056859538181953141189 -1.1053471043444940136 0.17406811636575666991 0.36232877486629311292 0.4193266196170140625 -0.17801208503768117808 0.095957681545796758016;0.14116207833365898572 -1.0106329985052877607 -0.84595119160495502175 -0.8696439761092437104 -0.13815776954142014454 -0.68866370336044613332 0.65440815761720738664 0.053359611812433982436 0.051361142980825849613 0.65825250640452848128 -0.088075438319137958065 -0.045884640719459426905 0.62714213452321920794 -0.94165683424080215413 -0.19304225043205033852 0.72015244608564155104 0.57043672501164666144 0.7245664382193426345 0.29059087451150511505 -0.061115396334941722578 0.72594882616376155138 -1.4063425936442837116 0.2496208204808292308 0.42108618208780435044 0.83041779776019297721 0.10993422361078208915 -0.95883259468291404115 0.31995871603507602954 0.085143462253835108799 -0.25402440237716217286 -0.9807546436751704011 -0.16595189221079281738 0.57668445914662891383 0.5699342655049286499 -0.36839389385655890718 0.29843510368998904525 -0.25058435950838414685 0.67292728590012773626 -0.93187250167616741958 0.019698053282322807583 1.0132093137710309616 -0.82050638845624268569 -0.1800180564833376573 -0.31051614824382922642 -0.67428199732155669199 -0.60695443995685438576 0.49036029263067848483 0.49380981477785657052 -0.57099844189507964476 -0.80806474881125966991;-0.20305198749886857468 -0.43255850501366044369 -0.65363730566211142303 -0.88958194211372443316 -0.13951876102834329108 -0.59543731277137113 0.011519900929485822963 0.61972051889010537629 -0.58209206658236056775 -0.83406580523049389519 0.3663231919699198591 -0.84020510368887102448 -0.24109996666406158239 -0.97684230817021366899 -0.3648448332225118218 -0.71754385758110672544 -0.3011246141186839087 0.10787726602232802775 -0.60439246336119911707 0.077742160348952038529 0.42072171971529614964 -0.37055538463502435409 -0.52600809379898083584 -0.24394516432784493776 -0.16907031198128319449 0.83177109417179606599 0.82977386761740667964 0.8261504809338380273 0.59503144815116471023 0.080156573764284255734 0.19292299476357704924 0.76585683404958604381 0.48950804762595961916 -0.37438298339165215767 -0.59140982954461696064 -0.45574925490955453533 -0.023304878669174168559 -0.40081834472826655125 -0.49104150931273188307 0.39572031929105772052 0.88064427616884610739 -0.48705423370230066515 -0.74572307336281939971 -0.19103256780096128375 -1.0610460962659575834 -0.0059364936096502887372 0.63465899215410537249 1.0360204032237918526 -0.56544376653276540168 0.65969874953596552292;0.011442312277731500614 0.52513730470030572928 -0.38612794098700120582 -0.42956468714212880933 0.22172584024988556406 0.93685891413553645801 -0.73432638750555767615 -0.16775517372568865548 0.3110437553469490024 0.74999031628865131527 0.13499463456951377172 -0.49391570963770414782 0.16122681562597152016 -0.39005389829706410554 -0.36828554006250491248 -0.0530829023615684778 0.32409849403808299595 -0.29152745369705551637 -0.28832858064714289581 0.016661474356547634201 0.64861944255810366489 -0.80093226872579359465 0.30256685131078658868 0.11449500255443635643 -0.33287784564435612955 0.52247094408521599362 -0.64838918062404982123 0.090719269196048141213 0.48315674627337423797 0.96419720490892524278 -0.0029441119678204445698 0.34726383591229526004 -0.36412771486492262474 0.43866428915478689055 0.59527661997640468616 0.39704785743804960063 0.49288565733213951514 0.019963644363102939217 -0.83045804489740682186 -0.12716604955970234325 0.023166734051620507806 0.18196314024823878608 0.41433616629601943693 -0.1106545876196804723 -0.8474739032557567775 0.4923437702951095063 -0.1586219541245003084 0.69492324371544411665 -0.12584433913739193067 0.73429443170138963826;-0.42261308143694642503 0.68141401358838527003 -0.057451356419459760627 0.038500207344703635259 0.2818952512896752971 -0.81879965078199712369 0.86485072544239383063 -0.44859085602487586142 0.63186461905057189625 1.0493422047089198124 0.83298770610124395208 -0.018975915978608797613 -0.50974243082276227135 0.84057880441811627659 0.16612688235582881435 -0.64517002203775863922 -0.85600910037732036439 -0.5055997456699201642 0.19727023703011070666 -0.050300023396399884401 -0.1499268455078252571 -0.46116722393037951067 -0.70746275983350459526 -0.50029969089722281517 0.096737595154302372102 0.61944551983028262043 -0.4078232436241340797 0.48119480258474345291 -0.70776925389151734702 0.56863117605778257246 0.13035433478563601684 0.13083774349545787552 -1.0047741499709990087 0.43392920333849077652 0.6745897199449972792 -0.36452805108819463786 -0.60060041772553007799 -0.66195614524583812344 -0.66128030754289535142 0.47334295399893139278 0.80645902960820647909 -1.0312177736565806274 -0.81762311186427250043 -0.51414849518044625221 0.53153822031587560915 0.083170547872755434815 0.4111325525305639661 0.24412904058257822726 0.51451200712764455503 -0.067664243371167290264;0.40371394251162479039 0.21772045496961853206 -0.58530158340010673967 0.32971906392254951568 0.21285050413217590504 0.81946517853451028568 0.18059721656104577026 -0.76722143595484482148 -0.49479834583614162868 0.075517643196059219823 0.29079944779560729096 0.57086006873808814444 0.2533436962286587657 0.96687677118215753502 0.85551607591145106824 0.014070254089584734516 0.43823261390486828448 0.449344036435334937 -0.42036038022413718673 -0.046647433987878239581 -0.62038571609389059347 -1.1105350041524604254 -0.56214787180131609023 -0.70247873701691132542 0.84112163640610648763 0.056664526771334891575 -0.58232806258048963599 0.02710992567631998959 0.19120467246148548091 -0.70313510311756421967 -0.37731076330207502512 -0.62105800281115852712 -0.65704820778540728998 -0.70128275911160842249 -0.039378431343269994225 -0.91834934834642545365 0.48745716307594322281 0.02383026415498377959 -0.16791880728265706768 -1.1569014571771936151 0.6863952410175206964 0.63262074678181878795 0.44999067198750808405 -0.5438223131716288794 0.69083630123379591303 -0.57698546374093662159 0.26822530870679928139 0.51340420261387231804 0.23513080153925441929 0.086086243215860488998;-0.14506793727037473052 -0.40305032881121960475 -1.0397821684569941159 -0.6638830652901511753 -0.77663883024632140994 -0.74242730908804177581 0.6811546407623019217 -0.58071491689162246796 -1.2025601061700732508 -0.025245457363161982051 0.6612340207557667604 -0.40952491510718092016 -0.43760096336101056425 -0.40681065551887229947 -0.32050898893849016913 0.73965088704026660249 0.3660053854359932024 0.0056912034428950901074 -1.0200906398739519876 0.013667103711560543017 -0.10846816232811007374 -0.2614097744270160173 -0.35308485955317658878 -0.15126633492120111768 0.98817340493682148672 0.46231305338608397193 0.5355791350005790763 -0.17698263672873762453 0.73403040185541501561 0.63110948874972117029 0.63069705609811765878 -0.38484268702907969972 0.0028585884323579077368 -0.44628033378596398961 -0.48480954671787751531 -0.44631439398419303632 -0.058846755299489107716 0.54820297559424435718 -0.16151428973916406862 0.66584035446160516614 0.57709125223238089131 0.1868097504203308501 0.55478709568992912171 -0.49447506872133561995 -0.27327068300371332166 -0.35927650006750172507 0.32281774024357473563 0.69515168840266994277 0.039100414872687290491 0.70145188581697448527;-0.8244877749118355581 0.61773395234591133018 -0.34485527418349615214 0.055219535138915989969 -0.22661452681344113058 0.26236268297274206729 -0.099139407694571232699 -0.7920153577559115865 0.51985582853947376325 -0.31262685602302192622 0.71039320117755377915 0.16303573064974954954 0.6590341878814405252 0.11136851904633751631 0.01861168609251561204 -0.5980165511788361199 -0.84161406532900784327 0.082952572831646934071 0.49586140338118828153 0.017749478119679314159 0.14389821329107704839 -0.22172892442668801216 -1.0069757905741332227 0.074863206886269767493 -0.2468160516488730194 -0.80282411961824506896 -0.85925475352568492227 -0.35232730833328779196 -0.028741209797763064143 0.59757066382779078229 0.15805342867458141431 -1.0671859146723454703 0.42128927765373269665 0.33925196686768666066 -0.55296179473458428877 -0.22941150760793665997 0.62962739175608950504 -0.90455910779785353437 0.27926791408073520229 -0.017196896425130062808 0.09473786882081354499 0.31858225964938013952 -0.33656734623287787311 -0.3850464376198121097 -0.18336643731874380236 0.37344056491385030361 -0.4424010400699768808 0.59385985104167127169 -0.27334011041012618026 0.51166616024000743934;0.71185127347326671021 -0.20467205332611385082 -0.078084352668332218661 0.19068005634831769468 0.89244909857933685249 0.60241050411026131339 0.204278140290330118 -0.17261179530525760928 -0.19571703410194743467 0.085831873773525260707 0.94776683155624896759 -0.078336672065246401586 -0.5325217719632151514 -0.30665851540981753365 -0.57834140340930195734 0.9288871006614421999 0.4533929770304783724 -0.22563834403121008076 -1.0794787953612041687 -0.092211168425593945108 -0.54110182332770151437 -0.41136802498294605668 0.47867012268635000805 0.76819314846140063224 0.57981552986244788706 -0.5358029491150351209 -0.62524478267490868344 -0.029744789707032190385 0.45596778428442474862 -0.50611838004921572143 0.69509247213240421548 -0.12497434385787548061 0.21802167121061138966 0.6957644257103270391 -0.72107524574148129659 0.65325182298236295075 0.18758880725574497705 0.36676460524538245789 0.41306361693155635439 -0.67848057898985758563 -0.76051897619957187224 -0.31575947524265896016 -0.43518398157975329843 0.64403320482784520706 -0.28434818766905028964 -0.62391669460563004002 0.40393943191044301422 0.24255945291210026515 -0.73776784063852540729 0.049674634900479089361;0.59321987961916322618 -0.41534468700931037599 0.3527073820079771882 -0.27284764342951145499 0.34784259190052296828 0.59893001119366839902 -0.74285389565154491542 -0.091977052530486255733 -0.97689110526423594827 -0.99105649489273250907 0.25073917684225599523 -0.39800948094175431224 0.23138893641716823391 -0.49692257342165341294 1.1012039655564438423 -0.9249923361272190947 0.61924429812099701653 -0.022319299375314571865 -0.72103231759408759061 -0.076914093785293111138 -0.26119184020857244555 -1.3222323844783767655 0.22872055493579163121 0.37351789580577987593 -0.47138039932189390591 0.54259511883406863486 0.71262898706204325094 -0.82613946797710002823 0.96655235159171770665 0.41637985381704778476 -0.72605749458440904665 0.90928800728339076453 -0.61196878169098001266 0.046917336431683352715 -0.74223114447853466569 0.44217841387905088002 0.48651347602544003923 -0.87022499841638500939 0.32415149084053801465 -0.21323930011798369888 -0.35885871570289828991 -0.63458399439296797606 0.40714748261118194339 0.17034626231464533586 -0.96925753862085206602 -0.058336227188890713014 0.53090645554319471078 0.39627008815391179253 -0.78271715097287652974 0.71057064328900287897;0.34013717688990335875 0.79832348644684247851 -0.75174629532864489789 -1.1503969843209673751 0.5223765371694757409 0.36456004873055941617 0.49508501069567106834 -0.60441746394713835588 -0.43146266621026496679 -1.0113226986183851963 0.19577230005804918678 0.5342955460868552553 0.81373132410523552061 -0.52046028826577805937 0.11920434732161469538 0.035542809139044846678 -0.87423806865047115622 -0.060423963586757577227 -0.87527029050336635496 0.021620682393848785624 0.96610689515287506701 -0.68296279907971646495 -0.05931533564201018488 0.50215445674985226265 0.40704366742532160917 0.75238023078863314197 -0.6667360045647005018 -0.37168542115935410131 0.14854924605636615764 0.49872202977226548493 -0.58565361099757029528 0.27799221247950040015 -0.0023905880819279105506 -0.17369343730011427285 -0.13744033632815430557 -0.32023201464158429497 0.040276492433990326858 -0.31016850869577383687 0.3134071756406648368 -0.16813798639077051633 0.6047453488935672361 -0.03211909967914871461 -0.15387223512177419793 -0.11666507708316968539 -0.41313052679022049807 0.5813796676502636096 -0.51110573109535128999 0.81083094759745433233 -0.059559193950089038549 0.09321802434284996719;0.82943669026340394179 -0.91053988370470739788 -0.66809162336767191626 0.077709450488330653051 -0.84027343168235868465 0.35814797525632441344 0.59221983550532497631 -0.88682606568944655212 0.43210244538123460112 -0.76680947561927437217 0.57894245878099237501 -0.89963178206236071865 0.20412464640434418994 -0.99458059592214620448 -0.088276300019044948164 0.12326465242633438679 -0.65488143506247797898 0.2647950476109892648 -0.43114489765125363352 -0.037698641669970639478 0.72202990307771852674 -0.77242775919160255871 -0.3958212303707144275 0.42971068598890282964 0.61952701832859013997 0.33933390605622393288 -0.09986815643294688627 -0.36116365347160989119 0.27904899235162294868 0.73358448785074381604 -0.58322163534557758258 -0.0069121059232956309076 0.49105832384242159572 0.13993957995599243249 -0.39192363989326028939 0.98170976585895386446 -0.22320612894357505507 -0.32240964778166775195 -0.98625102294960997895 -0.95510155461596157878 0.37079879232372436881 0.1428727733805508493 -0.14207856995820350443 0.22799262315078708263 -0.30867404528772529604 0.35399680367741548359 -0.061562680810060922687 0.53346413673735149086 0.07224105843464896648 -0.1559340833534427484;-0.46752207973821185982 -0.49802149599401646096 -0.83709953811938475621 0.039744538374350352194 -0.85946488089198824767 -0.37678891541795000997 0.62877936283633240055 -0.50295079995975455756 0.63115821957623485794 -0.20128488549557518872 0.54462684462681265618 -0.16300637138061671583 0.90217455261408874279 0.58998800182761979016 0.31933505321074484584 -0.72446718312597635503 0.016801548321023745264 -0.63587611495327800437 -0.57638324509585558975 -0.051730182363994008099 -0.37144328907842832921 -0.90243450818124903989 -0.56413912668007160089 0.0089142088205819338537 -0.0058692808263063733082 0.25458102237482554964 0.13290488954222595686 -0.73597809755986165481 0.0048585868304053918265 -0.27576401654071341918 -0.66390559171562768537 0.14372337199065693403 -0.37063112100900608148 0.52984133578518310959 -0.92739358844016017702 0.25972124429228859999 0.79533163259873840278 -0.30463990564207188427 -1.0312344021742916311 -0.44298291161381636583 0.37664517167562344691 0.16729770142312719305 -0.41567025833530218959 -1.0799993188562972968 0.12703383409680954474 0.34607567811903472421 -0.32681087165638617043 0.3927629777157439217 -0.40394648933730220586 0.097797364671939376879;0.078732189696450544103 -0.2665547583395964093 -0.43006502836488286201 0.2102528454859468876 -0.46161823725882777936 -0.5193255898671209625 0.54283612525086910594 -0.20679605936605027772 0.40321151545799216454 0.044301716056294411505 0.65332184477765820052 -0.15789958751874527687 -0.079300404259050841227 -0.85979382586862462823 0.48795928266007942975 -0.58793645408655659246 -1.3459045919183922901 -0.020542046318420173479 -0.47480853113433979518 0.066162538345453630884 0.30486424756328361907 0.13827233639861596926 -0.22892163019215713837 -0.64801629957747997057 -0.45384649160371914878 -0.45692075346786165113 0.42477530475614982963 0.092134536028019894949 1.2258952564976508537 0.35150336487804811902 0.26554434439272422974 0.98897112061503955616 -1.0685134818459520734 0.47126419542189074141 -0.99077369744912324734 0.073848949185194953659 -0.10417236043450864291 0.090849136600905322503 0.078868997064744456038 -0.044124779459809249094 -0.30282111365851344109 0.080798412175131589796 0.57158366403014704282 0.65359172504510643087 -0.97499603204851814642 -0.74988590181907788246 0.76908535400260358283 0.81702498363839015649 0.31738628231752119557 0.63622406872072234663;0.23070848574793983987 0.71195781856898110451 0.70126865318332343158 -0.4854763315685337588 0.70600963531054461431 0.22123276956243961844 0.024374665433543978715 -0.89766848115164121769 -0.2253412189512794539 -0.53827676575682548155 0.89462276208607638406 0.10763080394699690856 0.55774180171864085054 -0.43831161631016646307 -0.19405036826299615349 -0.57696828451767934176 -0.55984331464225922659 0.084773861640445383192 -0.78529435248341405984 -0.10554767583080924831 -0.71390964178714810817 -0.73346862638383514277 -0.50530851254974251674 -0.22767635225926330378 0.94526558898838519696 0.11468358326924271706 0.61076580634630295297 0.37646500967121121484 0.34017684391241226338 0.18962446147495354287 -0.25920575949060059573 0.072812401349936814454 0.4580514143882450373 -0.4397030126208344436 0.81535839818966515669 -0.56200932754960997162 0.21476531997107012328 0.89971185001667530745 -0.53482243177284949365 -0.69317757123368095584 -0.60128321362381453863 -0.62745699142319077968 -0.5653056318609908093 0.17893353287189697753 -0.38795714471908177012 0.017204923553244599876 -0.8999360454056581915 0.18241019225610796695 -0.80864225716009763278 0.24550629970881177044;0.73762745560335540862 -0.16530461924748962588 -0.32425935205025657737 -0.47342172839008211938 -0.83475420794732912988 0.45997377255867699652 0.71624595921327693926 0.57222345948150310502 -0.42412087342833204584 -0.36887904364926527023 0.36462637880844805949 -0.47774237706534705694 -0.12123630452588027295 -0.39766103751416609358 0.39472333040040019636 -0.40593407672212522552 0.256830524548115946 1.0537725210717205915 0.14391913580246834536 -0.011861453811211316103 0.17665849735429769995 -0.74614454501736027225 -0.10249604004356482889 -0.32466053943298311957 -0.65425473137121048506 -0.32032009589689414142 -0.38622943651086644179 0.68014457065750300035 0.2636706140015718236 0.070017871441491005835 0.11534794337860505842 -0.4277834635483939163 -0.57012576596274988638 -0.30443824634233934701 0.28966068476713402458 -0.76601530803609374498 0.68436473947667475493 -0.39109423393543985004 -0.90754995661150117403 -0.11320345844099446997 0.7766710599983901453 1.0433730050899787667 -0.18390780728689881673 -0.0054269009526489242826 -0.76146026120551091321 0.041903503560324739663 0.70315204575069489845 0.52452735720982979206 -0.029146531387909888067 -0.97149989613145681933;-0.97534723341364515381 -0.067063005257057106689 0.14046526537500916842 0.77644800829360727246 -0.4034866336394918318 0.66034153957671737345 0.55829177082122316556 0.59442023120693765481 0.73245475180648222935 0.19998120810731909169 0.087875812942972697517 -0.41001936983164044559 0.20080895381341656858 0.41578544516715171264 -0.31718678615083178984 0.56321942814266257038 -0.33646157941950810555 0.22631829278971526964 0.33992420179421495297 -0.00030787766056886010273 0.61415288652768584843 -0.80998069095674740669 0.62679571152859492322 0.44351469952196542756 -1.05339456002962506 0.68640742592946901723 0.39862222801076035994 -0.092508249766937208913 0.065791162436496394839 0.63922515376306277002 0.36296608159630094903 -0.97343975104171298618 0.2606451161578467457 0.75126276097262045806 0.06029920360989113326 0.86854525642000490748 0.58935929727781666276 -0.4884605603436020238 0.35418199323452698168 0.98629941111115237984 0.19587895152602954885 0.75482650518043725718 -0.2319605812370982012 0.83891294239169988955 -0.36048035682119028422 0.26885606080829305142 0.073235979777381957079 0.4568305479367310018 -0.52362365142634137438 -1.0181594064607550898;-0.091856587694235977692 -0.37558691222048889991 -0.77198821205965306724 -0.89994370546195734395 0.57224558938336578251 0.65432131449074404372 0.16828008097032701174 -0.66721228280688005263 -0.50183659132560953786 0.010210984667688402169 0.89364432015868344727 0.035788317824073566376 0.92306663972167168897 -0.63523096521349564636 -0.72035430635033470548 -0.48706058551226627529 0.42145130550839243755 -0.10073131603730917094 -0.88388719503791735033 -0.011429362900946388876 -0.30149619240466768444 0.020863654541724053343 0.43127852258817295228 0.10731205777044459937 -0.25390148789943178809 0.35740291296795323461 -0.30970051137742810043 -0.55218139232251739479 0.66630991268532535621 0.19213729317966568577 -0.85139365444470349598 0.55316901321075118148 -0.16812760777337024121 1.1691844816816663322 -0.4575400385643070833 0.12533416919207915341 -0.6807008099725879724 -0.23378066817618795015 -0.45966684044656280772 0.01554027858423787968 -0.14809251978783757875 -0.6103709116697192405 0.32436636021991338552 -0.082918490241540201979 -0.79578581414855475984 0.47748441212141684575 -0.1517011678807010655 0.48073487533370301561 0.37147721445351944425 -0.3706467562979408048;-0.10210363998595700652 -0.67669994627421947708 0.14259093738872924417 -0.90644626528269334198 -0.29456265365389955324 0.85533931016803010916 -0.74118471611060721127 -0.33736372175781559335 0.047299177488316045126 -0.17139171737478381408 1.2082032849856070289 -0.86941486896439867937 0.83017639140886279048 0.44367493879848918237 -0.1093834351682870798 -0.49066962982084155742 -0.026894537194921415424 -0.85721887474137981044 -0.51196276196613410558 -0.0195091129891144556 -0.13195197729027727251 -0.02696758167642412593 -0.043293485420663406493 -0.059881790178224127141 0.037218876072390195964 -0.55655415290531351502 -0.64804304423338676688 0.69646527074576725092 -0.38870167591732907031 0.21246642324287681736 0.51558919191323093756 -0.26220316823654471472 -0.20012419935739136911 0.47020275247076787073 0.024817067593751223481 0.20719911859937487075 0.45516013082030309933 0.26910458835896594598 0.0086992187532364349117 -0.12968302772664896949 0.52151475035941552427 0.52354010634622361042 -0.3156470617530242051 -0.78189477037395016534 -0.17161985556900005712 0.082462603234758707904 0.018823896946756929482 0.50589045120443154602 -0.65388766894114769279 0.37391384335463223598;-0.85758844686572299754 -0.96410524624157345475 0.48417736603905597859 -0.23056829028643452406 -0.700934809126354752 0.57631650926058519691 -0.53645782744677994458 -0.97807390949966777072 -0.59886033126822579842 0.313241022431233751 0.57365506159908719042 0.39496809876463856437 -0.42485266460324211391 0.56284254495775798421 0.23007442372972589095 0.66014844327490895814 0.055442689362599092973 0.56861165939984681383 -0.65581739461412236203 -0.051163693736457814543 -0.42523368064540245648 -1.0099513624277745016 -0.0026377277409818785867 -0.76156047075556942971 -0.41602145251982480811 0.65232717232234394 -0.37566258470871616293 -0.49103846897709013675 0.88667460503220130175 -0.76098922728345796962 0.93108712205243204796 0.80507459895727306876 0.1726305173539543214 0.2723879715700131543 -0.48257178937235406524 -0.57901760520287814948 -0.14080445006978650757 -0.72936339808923666972 0.75723659139041021859 0.25347459100264968512 0.93435851287918969543 -0.86646610954024305684 0.15508664517989012577 -0.50454198331805910627 0.28603925192743251404 -0.01656870655120154523 0.053283703715134592138 0.3929184405065391239 -0.20482716298811515232 0.80379937180956206877;0.10052522340487286823 -0.033853031965262798952 -0.7515366471299022022 0.15589040624667280244 0.086796280506356640605 0.88388484489549667966 0.98403175338626147628 -0.52187589934915579182 -0.49235688077798922535 0.70819518357155208932 0.69427593885162453002 0.52308779396383109361 -0.67438837361610382004 0.40231684153581498409 -0.16322908956962223215 -0.95107631872445608234 0.26387782172409518511 0.083265935935664295298 -0.58274489987076216746 -0.0047725786334753784665 0.85397254730556781954 -0.54226492891640010185 0.0080995206023711761867 -0.18843646852564749361 -0.071513365580736107385 0.2510412447275004455 -0.18052657990184764469 0.086339742468299771061 0.20681474723921486336 0.098275042907027876371 0.014537852746713431085 -0.63173503638707750873 -0.58139789228080707151 -0.70492191377918977935 0.075180524590325314982 0.20830125020596873542 0.17222964816626468165 -0.76075449762415270349 -0.45430251619828493359 0.24766568623151163919 -0.090206422016221851634 -0.11671028766169759538 0.079290878047230325953 0.93364202792042438883 0.49664969258041991029 -0.64103747157192969564 0.034476473273086324922 0.53463790000533684132 0.5849282957519054138 -0.17515404245386353987;0.59502544233291798648 0.087970389928215389497 0.13348406047433500343 -0.53034799810301680445 0.026047420309794525051 0.73947495471164903513 0.15578366783995473144 -0.76708441143298489173 0.056305749613579966772 -0.75223480075374804521 1.2017942331802091704 0.32818014421279234627 0.57744615630096063352 0.62810266139491266468 -0.12588823710871388517 -0.34377643841135102631 -0.13384457850724396089 